<?xml version="1.0"?>
<opencv_storage>
<cascade>
  <stageType>BOOST</stageType>
  <featureType>HAAR</featureType>
  <height>24</height>
  <width>24</width>
  <stageParams>
    <boostType>GAB</boostType>
    <minHitRate>9.9900001287460327e-01</minHitRate>
    <maxFalseAlarm>4.0000000596046448e-01</maxFalseAlarm>
    <weightTrimRate>9.4999999999999996e-01</weightTrimRate>
    <maxDepth>1</maxDepth>
    <maxWeakCount>100</maxWeakCount></stageParams>
  <featureParams>
    <maxCatCount>0</maxCatCount>
    <featSize>1</featSize>
    <mode>BASIC</mode></featureParams>
  <stageNum>12</stageNum>
  <stages>
    <!-- stage 0 -->
    <_>
      <maxWeakCount>8</maxWeakCount>
      <stageThreshold>-1.7805398702621460e+00</stageThreshold>
      <weakClassifiers>
        <_>
          <internalNodes>
            0 -1 126 7.8567005693912506e-02</internalNodes>
          <leafValues>
            -8.2656824588775635e-01 4.4444444775581360e-01</leafValues></_>
        <_>
          <internalNodes>
            0 -1 94 2.6946482248604298e-03</internalNodes>
          <leafValues>
            -6.8464452028274536e-01 6.5693512558937073e-02</leafValues></_>
        <_>
          <internalNodes>
            0 -1 26 -1.5781718492507935e+00</internalNodes>
          <leafValues>
            -8.5525208711624146e-01 1.3216616213321686e-01</leafValues></_>
        <_>
          <internalNodes>
            0 -1 137 -7.4553540907800198e-03</internalNodes>
          <leafValues>
            2.5113907456398010e-01 -9.3893104791641235e-01</leafValues></_>
        <_>
          <internalNodes>
            0 -1 131 2.1251730620861053e-02</internalNodes>
          <leafValues>
            -3.3033582568168640e-01 5.5136519670486450e-01</leafValues></_>
        <_>
          <internalNodes>
            0 -1 85 -1.8775813281536102e-02</internalNodes>
          <leafValues>
            -5.9885275363922119e-01 2.2793868184089661e-01</leafValues></_>
        <_>
          <internalNodes>
            0 -1 82 -1.1399497278034687e-02</internalNodes>
          <leafValues>
            3.4161168336868286e-01 -4.6687796711921692e-01</leafValues></_>
        <_>
          <internalNodes>
            0 -1 18 -1.2157456949353218e-03</internalNodes>
          <leafValues>
            -8.7620997428894043e-01 1.7202481627464294e-01</leafValues></_></weakClassifiers></_>
    <!-- stage 1 -->
    <_>
      <maxWeakCount>9</maxWeakCount>
      <stageThreshold>-1.5561728477478027e+00</stageThreshold>
      <weakClassifiers>
        <_>
          <internalNodes>
            0 -1 3 -6.9222584366798401e-02</internalNodes>
          <leafValues>
            4.0740740299224854e-01 -8.1518757343292236e-01</leafValues></_>
        <_>
          <internalNodes>
            0 -1 8 6.4465746283531189e-02</internalNodes>
          <leafValues>
            -6.1940681934356689e-01 1.5927638113498688e-01</leafValues></_>
        <_>
          <internalNodes>
            0 -1 100 -2.8357133269309998e-02</internalNodes>
          <leafValues>
            -6.5854179859161377e-01 1.9348731637001038e-01</leafValues></_>
        <_>
          <internalNodes>
            0 -1 11 5.7940301485359669e-04</internalNodes>
          <leafValues>
            -4.4467100501060486e-01 2.4976783990859985e-01</leafValues></_>
        <_>
          <internalNodes>
            0 -1 134 3.3125365152955055e-03</internalNodes>
          <leafValues>
            -3.1984335184097290e-01 4.1182526946067810e-01</leafValues></_>
        <_>
          <internalNodes>
            0 -1 109 7.1714678779244423e-03</internalNodes>
          <leafValues>
            -3.2398182153701782e-01 3.4698331356048584e-01</leafValues></_>
        <_>
          <internalNodes>
            0 -1 86 -1.8817507661879063e-03</internalNodes>
          <leafValues>
            -7.5653046369552612e-01 1.4351017773151398e-01</leafValues></_>
        <_>
          <internalNodes>
            0 -1 80 1.8292706459760666e-02</internalNodes>
          <leafValues>
            1.4099816977977753e-01 -7.3804533481597900e-01</leafValues></_>
        <_>
          <internalNodes>
            0 -1 89 -1.1076454538851976e-03</internalNodes>
          <leafValues>
            -8.1636458635330200e-01 9.6904605627059937e-02</leafValues></_></weakClassifiers></_>
    <!-- stage 2 -->
    <_>
      <maxWeakCount>12</maxWeakCount>
      <stageThreshold>-1.4453579187393188e+00</stageThreshold>
      <weakClassifiers>
        <_>
          <internalNodes>
            0 -1 142 3.6067806184291840e-02</internalNodes>
          <leafValues>
            -8.2986766099929810e-01 -3.2258063554763794e-02</leafValues></_>
        <_>
          <internalNodes>
            0 -1 85 -1.8755109980702400e-02</internalNodes>
          <leafValues>
            -8.0724978446960449e-01 -3.8201648741960526e-02</leafValues></_>
        <_>
          <internalNodes>
            0 -1 37 -2.5178720243275166e-03</internalNodes>
          <leafValues>
            4.9282121658325195e-01 -2.9321411252021790e-01</leafValues></_>
        <_>
          <internalNodes>
            0 -1 44 -4.8843991011381149e-02</internalNodes>
          <leafValues>
            -9.1270172595977783e-01 1.4183826744556427e-01</leafValues></_>
        <_>
          <internalNodes>
            0 -1 40 6.4046243205666542e-03</internalNodes>
          <leafValues>
            -3.9187270402908325e-01 3.5347211360931396e-01</leafValues></_>
        <_>
          <internalNodes>
            0 -1 50 -1.0675103403627872e-03</internalNodes>
          <leafValues>
            4.1672930121421814e-01 -3.1017169356346130e-01</leafValues></_>
        <_>
          <internalNodes>
            0 -1 14 -1.2490734457969666e-02</internalNodes>
          <leafValues>
            7.2729623317718506e-01 -1.4355960488319397e-01</leafValues></_>
        <_>
          <internalNodes>
            0 -1 73 6.5395906567573547e-03</internalNodes>
          <leafValues>
            -3.7611326575279236e-01 3.3257412910461426e-01</leafValues></_>
        <_>
          <internalNodes>
            0 -1 124 -2.1710474975407124e-03</internalNodes>
          <leafValues>
            4.1959723830223083e-01 -2.8122007846832275e-01</leafValues></_>
        <_>
          <internalNodes>
            0 -1 130 2.2073607891798019e-02</internalNodes>
          <leafValues>
            -2.7212804555892944e-01 5.0804865360260010e-01</leafValues></_>
        <_>
          <internalNodes>
            0 -1 36 -6.4041696488857269e-02</internalNodes>
          <leafValues>
            -3.4372434020042419e-01 3.3725857734680176e-01</leafValues></_>
        <_>
          <internalNodes>
            0 -1 96 -1.3262878637760878e-03</internalNodes>
          <leafValues>
            5.4581475257873535e-01 -2.2281008958816528e-01</leafValues></_></weakClassifiers></_>
    <!-- stage 3 -->
    <_>
      <maxWeakCount>8</maxWeakCount>
      <stageThreshold>-1.8008879423141479e+00</stageThreshold>
      <weakClassifiers>
        <_>
          <internalNodes>
            0 -1 83 2.2036065347492695e-03</internalNodes>
          <leafValues>
            -8.5549736022949219e-01 -3.8181817531585693e-01</leafValues></_>
        <_>
          <internalNodes>
            0 -1 30 -8.9999413490295410e-01</internalNodes>
          <leafValues>
            -3.7378739565610886e-02 -7.9000556468963623e-01</leafValues></_>
        <_>
          <internalNodes>
            0 -1 141 -3.7807336775586009e-04</internalNodes>
          <leafValues>
            4.4765785336494446e-01 -3.2038956880569458e-01</leafValues></_>
        <_>
          <internalNodes>
            0 -1 101 2.7320525259710848e-04</internalNodes>
          <leafValues>
            -3.3319315314292908e-01 3.4655791521072388e-01</leafValues></_>
        <_>
          <internalNodes>
            0 -1 72 -3.6812946200370789e-04</internalNodes>
          <leafValues>
            4.7432529926300049e-01 -2.4832330644130707e-01</leafValues></_>
        <_>
          <internalNodes>
            0 -1 19 -2.8771476354449987e-03</internalNodes>
          <leafValues>
            5.7299858331680298e-01 -1.5716427564620972e-01</leafValues></_>
        <_>
          <internalNodes>
            0 -1 87 -1.2989342212677002e-03</internalNodes>
          <leafValues>
            4.9559414386749268e-01 -2.2797627747058868e-01</leafValues></_>
        <_>
          <internalNodes>
            0 -1 41 2.5245471624657512e-04</internalNodes>
          <leafValues>
            -3.4453567862510681e-01 3.2267889380455017e-01</leafValues></_></weakClassifiers></_>
    <!-- stage 4 -->
    <_>
      <maxWeakCount>12</maxWeakCount>
      <stageThreshold>-1.5928033590316772e+00</stageThreshold>
      <weakClassifiers>
        <_>
          <internalNodes>
            0 -1 10 3.5644762217998505e-02</internalNodes>
          <leafValues>
            -8.2119816541671753e-01 3.1428572535514832e-01</leafValues></_>
        <_>
          <internalNodes>
            0 -1 91 -1.5586093068122864e-03</internalNodes>
          <leafValues>
            -6.7097640037536621e-01 -5.6252669543027878e-02</leafValues></_>
        <_>
          <internalNodes>
            0 -1 92 -5.8093722909688950e-03</internalNodes>
          <leafValues>
            -5.7248264551162720e-01 1.7657469213008881e-01</leafValues></_>
        <_>
          <internalNodes>
            0 -1 69 -9.6603240817785263e-03</internalNodes>
          <leafValues>
            -6.6377115249633789e-01 1.2290892004966736e-01</leafValues></_>
        <_>
          <internalNodes>
            0 -1 53 1.7173718661069870e-02</internalNodes>
          <leafValues>
            1.4632134139537811e-01 -8.0097973346710205e-01</leafValues></_>
        <_>
          <internalNodes>
            0 -1 105 -6.0915020294487476e-03</internalNodes>
          <leafValues>
            6.3918393850326538e-01 -1.6724623739719391e-01</leafValues></_>
        <_>
          <internalNodes>
            0 -1 52 -3.2429385930299759e-02</internalNodes>
          <leafValues>
            -8.7461143732070923e-01 1.2974427640438080e-01</leafValues></_>
        <_>
          <internalNodes>
            0 -1 114 2.8532516211271286e-02</internalNodes>
          <leafValues>
            6.8209782242774963e-02 -9.2880970239639282e-01</leafValues></_>
        <_>
          <internalNodes>
            0 -1 59 -5.8479891158640385e-03</internalNodes>
          <leafValues>
            -7.3546767234802246e-01 1.0174350440502167e-01</leafValues></_>
        <_>
          <internalNodes>
            0 -1 117 2.9912480385974050e-04</internalNodes>
          <leafValues>
            -3.3685156702995300e-01 2.7111864089965820e-01</leafValues></_>
        <_>
          <internalNodes>
            0 -1 93 4.2934017255902290e-03</internalNodes>
          <leafValues>
            1.0915983468294144e-01 -8.0681985616683960e-01</leafValues></_>
        <_>
          <internalNodes>
            0 -1 116 6.9680431624874473e-04</internalNodes>
          <leafValues>
            -2.7598965167999268e-01 3.3548671007156372e-01</leafValues></_></weakClassifiers></_>
    <!-- stage 5 -->
    <_>
      <maxWeakCount>13</maxWeakCount>
      <stageThreshold>-1.5225027799606323e+00</stageThreshold>
      <weakClassifiers>
        <_>
          <internalNodes>
            0 -1 138 1.4425328001379967e-02</internalNodes>
          <leafValues>
            -8.1598514318466187e-01 -4.5454546809196472e-02</leafValues></_>
        <_>
          <internalNodes>
            0 -1 111 -1.2017556000500917e-03</internalNodes>
          <leafValues>
            1.5577934682369232e-01 -4.6665981411933899e-01</leafValues></_>
        <_>
          <internalNodes>
            0 -1 7 7.7253103256225586e-02</internalNodes>
          <leafValues>
            8.0737531185150146e-02 -9.1804015636444092e-01</leafValues></_>
        <_>
          <internalNodes>
            0 -1 139 8.3773806691169739e-03</internalNodes>
          <leafValues>
            -1.4583170413970947e-01 5.3436839580535889e-01</leafValues></_>
        <_>
          <internalNodes>
            0 -1 43 6.5746799111366272e-02</internalNodes>
          <leafValues>
            9.1637037694454193e-02 -1.</leafValues></_>
        <_>
          <internalNodes>
            0 -1 60 1.7818408086895943e-02</internalNodes>
          <leafValues>
            1.4465770125389099e-01 -5.3494662046432495e-01</leafValues></_>
        <_>
          <internalNodes>
            0 -1 129 7.1337139233946800e-03</internalNodes>
          <leafValues>
            -1.7044442892074585e-01 4.9951058626174927e-01</leafValues></_>
        <_>
          <internalNodes>
            0 -1 103 4.8184995539486408e-03</internalNodes>
          <leafValues>
            -3.7151882052421570e-01 2.3779153823852539e-01</leafValues></_>
        <_>
          <internalNodes>
            0 -1 31 7.8855436295270920e-03</internalNodes>
          <leafValues>
            -1.4260803163051605e-01 6.2825196981430054e-01</leafValues></_>
        <_>
          <internalNodes>
            0 -1 61 -6.7351367324590683e-03</internalNodes>
          <leafValues>
            -7.7077430486679077e-01 1.1396678537130356e-01</leafValues></_>
        <_>
          <internalNodes>
            0 -1 13 3.3087573945522308e-02</internalNodes>
          <leafValues>
            1.5285900235176086e-01 -5.4459112882614136e-01</leafValues></_>
        <_>
          <internalNodes>
            0 -1 98 8.3762104623019695e-04</internalNodes>
          <leafValues>
            -2.4555385112762451e-01 3.6726769804954529e-01</leafValues></_>
        <_>
          <internalNodes>
            0 -1 112 7.7218568185344338e-04</internalNodes>
          <leafValues>
            -2.4669952690601349e-01 3.7072759866714478e-01</leafValues></_></weakClassifiers></_>
    <!-- stage 6 -->
    <_>
      <maxWeakCount>11</maxWeakCount>
      <stageThreshold>-1.5708665847778320e+00</stageThreshold>
      <weakClassifiers>
        <_>
          <internalNodes>
            0 -1 58 -2.4903871119022369e-02</internalNodes>
          <leafValues>
            1.8518517911434174e-01 -8.0969810485839844e-01</leafValues></_>
        <_>
          <internalNodes>
            0 -1 113 -1.9310522824525833e-02</internalNodes>
          <leafValues>
            -9.8619021475315094e-02 -6.8408799171447754e-01</leafValues></_>
        <_>
          <internalNodes>
            0 -1 102 -2.0158395171165466e-02</internalNodes>
          <leafValues>
            3.7448119372129440e-02 -1.</leafValues></_>
        <_>
          <internalNodes>
            0 -1 22 1.7103491351008415e-02</internalNodes>
          <leafValues>
            8.5492014884948730e-02 -9.0573900938034058e-01</leafValues></_>
        <_>
          <internalNodes>
            0 -1 15 5.7555418461561203e-03</internalNodes>
          <leafValues>
            9.3853689730167389e-02 -6.8686550855636597e-01</leafValues></_>
        <_>
          <internalNodes>
            0 -1 88 -8.2527729682624340e-04</internalNodes>
          <leafValues>
            2.2504267096519470e-01 -3.0570203065872192e-01</leafValues></_>
        <_>
          <internalNodes>
            0 -1 54 2.2719588130712509e-02</internalNodes>
          <leafValues>
            1.0087800025939941e-01 -6.9720166921615601e-01</leafValues></_>
        <_>
          <internalNodes>
            0 -1 35 -1.3534670695662498e-02</internalNodes>
          <leafValues>
            -6.1608290672302246e-01 1.1431878060102463e-01</leafValues></_>
        <_>
          <internalNodes>
            0 -1 70 -3.2317277509719133e-03</internalNodes>
          <leafValues>
            4.9113199114799500e-01 -1.6023339331150055e-01</leafValues></_>
        <_>
          <internalNodes>
            0 -1 46 -8.0530960112810135e-03</internalNodes>
          <leafValues>
            -7.5933921337127686e-01 1.0873467475175858e-01</leafValues></_>
        <_>
          <internalNodes>
            0 -1 66 6.4696171320974827e-03</internalNodes>
          <leafValues>
            4.7786682844161987e-02 -1.</leafValues></_></weakClassifiers></_>
    <!-- stage 7 -->
    <_>
      <maxWeakCount>12</maxWeakCount>
      <stageThreshold>-1.4351562261581421e+00</stageThreshold>
      <weakClassifiers>
        <_>
          <internalNodes>
            0 -1 48 -3.5132978111505508e-02</internalNodes>
          <leafValues>
            6.3636362552642822e-01 -7.9981964826583862e-01</leafValues></_>
        <_>
          <internalNodes>
            0 -1 74 2.8996989130973816e-03</internalNodes>
          <leafValues>
            -3.9820599555969238e-01 2.7366921305656433e-01</leafValues></_>
        <_>
          <internalNodes>
            0 -1 75 1.2861183495260775e-04</internalNodes>
          <leafValues>
            -4.7420907020568848e-01 1.5105909109115601e-01</leafValues></_>
        <_>
          <internalNodes>
            0 -1 78 7.5998564716428518e-04</internalNodes>
          <leafValues>
            -3.8726323843002319e-01 2.0356300473213196e-01</leafValues></_>
        <_>
          <internalNodes>
            0 -1 77 4.9208998680114746e-02</internalNodes>
          <leafValues>
            1.2509118020534515e-01 -8.4439313411712646e-01</leafValues></_>
        <_>
          <internalNodes>
            0 -1 62 -8.3934608846902847e-04</internalNodes>
          <leafValues>
            2.2176927328109741e-01 -3.8685756921768188e-01</leafValues></_>
        <_>
          <internalNodes>
            0 -1 119 2.7513033710420132e-03</internalNodes>
          <leafValues>
            -2.1344600617885590e-01 3.7168908119201660e-01</leafValues></_>
        <_>
          <internalNodes>
            0 -1 63 -2.0830173045396805e-02</internalNodes>
          <leafValues>
            -5.9681856632232666e-01 1.4757080376148224e-01</leafValues></_>
        <_>
          <internalNodes>
            0 -1 47 -3.6661262856796384e-04</internalNodes>
          <leafValues>
            -4.2797836661338806e-01 1.4676450192928314e-01</leafValues></_>
        <_>
          <internalNodes>
            0 -1 32 5.2835997194051743e-03</internalNodes>
          <leafValues>
            -2.3335911333560944e-01 2.7923446893692017e-01</leafValues></_>
        <_>
          <internalNodes>
            0 -1 45 1.0533089749515057e-02</internalNodes>
          <leafValues>
            7.8639373183250427e-02 -8.7494897842407227e-01</leafValues></_>
        <_>
          <internalNodes>
            0 -1 90 -1.0908027179539204e-02</internalNodes>
          <leafValues>
            3.8766944408416748e-01 -1.9400654733181000e-01</leafValues></_></weakClassifiers></_>
    <!-- stage 8 -->
    <_>
      <maxWeakCount>15</maxWeakCount>
      <stageThreshold>-1.5623160600662231e+00</stageThreshold>
      <weakClassifiers>
        <_>
          <internalNodes>
            0 -1 49 -6.5573647618293762e-02</internalNodes>
          <leafValues>
            4.1176471114158630e-01 -8.0417042970657349e-01</leafValues></_>
        <_>
          <internalNodes>
            0 -1 1 4.3312743306159973e-02</internalNodes>
          <leafValues>
            -3.6364564299583435e-01 3.7518310546875000e-01</leafValues></_>
        <_>
          <internalNodes>
            0 -1 97 6.3304556533694267e-03</internalNodes>
          <leafValues>
            6.1796724796295166e-02 -8.7774121761322021e-01</leafValues></_>
        <_>
          <internalNodes>
            0 -1 28 -1.9196517765522003e-02</internalNodes>
          <leafValues>
            -6.9437354803085327e-01 1.0511115193367004e-01</leafValues></_>
        <_>
          <internalNodes>
            0 -1 4 1.2877169065177441e-03</internalNodes>
          <leafValues>
            -3.5528808832168579e-01 2.0805583894252777e-01</leafValues></_>
        <_>
          <internalNodes>
            0 -1 6 -1.0088959243148565e-03</internalNodes>
          <leafValues>
            2.1885512769222260e-01 -2.9093843698501587e-01</leafValues></_>
        <_>
          <internalNodes>
            0 -1 68 4.0572760626673698e-03</internalNodes>
          <leafValues>
            1.3671866059303284e-01 -5.5954986810684204e-01</leafValues></_>
        <_>
          <internalNodes>
            0 -1 16 3.9818690856918693e-04</internalNodes>
          <leafValues>
            -2.4103453755378723e-01 3.3219125866889954e-01</leafValues></_>
        <_>
          <internalNodes>
            0 -1 51 4.3590306304395199e-03</internalNodes>
          <leafValues>
            -1.3033275306224823e-01 5.1435333490371704e-01</leafValues></_>
        <_>
          <internalNodes>
            0 -1 57 -5.2761699771508574e-04</internalNodes>
          <leafValues>
            2.8446650505065918e-01 -2.1787194907665253e-01</leafValues></_>
        <_>
          <internalNodes>
            0 -1 104 -4.6831004321575165e-02</internalNodes>
          <leafValues>
            -7.8780376911163330e-01 6.6628359258174896e-02</leafValues></_>
        <_>
          <internalNodes>
            0 -1 95 -6.4240884967148304e-03</internalNodes>
          <leafValues>
            2.7303901314735413e-01 -2.4967975914478302e-01</leafValues></_>
        <_>
          <internalNodes>
            0 -1 120 2.9839610680937767e-02</internalNodes>
          <leafValues>
            -2.1965113282203674e-01 3.7161749601364136e-01</leafValues></_>
        <_>
          <internalNodes>
            0 -1 12 3.9666024968028069e-03</internalNodes>
          <leafValues>
            -1.3389272987842560e-01 4.9849227070808411e-01</leafValues></_>
        <_>
          <internalNodes>
            0 -1 23 4.3406905606389046e-03</internalNodes>
          <leafValues>
            1.2383978068828583e-01 -5.9697711467742920e-01</leafValues></_></weakClassifiers></_>
    <!-- stage 9 -->
    <_>
      <maxWeakCount>16</maxWeakCount>
      <stageThreshold>-1.4818849563598633e+00</stageThreshold>
      <weakClassifiers>
        <_>
          <internalNodes>
            0 -1 81 -1.3692604377865791e-02</internalNodes>
          <leafValues>
            -6.2500000000000000e-02 -8.0698531866073608e-01</leafValues></_>
        <_>
          <internalNodes>
            0 -1 34 -5.6189849972724915e-02</internalNodes>
          <leafValues>
            -1. -2.2521749138832092e-01</leafValues></_>
        <_>
          <internalNodes>
            0 -1 71 1.0484213009476662e-02</internalNodes>
          <leafValues>
            1.0214238613843918e-01 -5.7566368579864502e-01</leafValues></_>
        <_>
          <internalNodes>
            0 -1 27 -2.1001284942030907e-02</internalNodes>
          <leafValues>
            -4.7698813676834106e-01 1.2037274986505508e-01</leafValues></_>
        <_>
          <internalNodes>
            0 -1 25 -7.7842024620622396e-04</internalNodes>
          <leafValues>
            2.4288955330848694e-01 -2.7220344543457031e-01</leafValues></_>
        <_>
          <internalNodes>
            0 -1 39 2.2828407585620880e-02</internalNodes>
          <leafValues>
            -1.7315553128719330e-01 4.7399732470512390e-01</leafValues></_>
        <_>
          <internalNodes>
            0 -1 65 6.3910502940416336e-03</internalNodes>
          <leafValues>
            8.7045609951019287e-02 -9.3856769800186157e-01</leafValues></_>
        <_>
          <internalNodes>
            0 -1 64 1.2627296382561326e-04</internalNodes>
          <leafValues>
            -2.7334794402122498e-01 2.1019193530082703e-01</leafValues></_>
        <_>
          <internalNodes>
            0 -1 106 -5.6439184118062258e-04</internalNodes>
          <leafValues>
            3.1098818778991699e-01 -1.9357828795909882e-01</leafValues></_>
        <_>
          <internalNodes>
            0 -1 122 -1.4468033332377672e-03</internalNodes>
          <leafValues>
            -7.6029723882675171e-01 7.8958190977573395e-02</leafValues></_>
        <_>
          <internalNodes>
            0 -1 121 2.0654737018048763e-03</internalNodes>
          <leafValues>
            -2.0001751184463501e-01 3.3481198549270630e-01</leafValues></_>
        <_>
          <internalNodes>
            0 -1 123 -3.0444355215877295e-03</internalNodes>
          <leafValues>
            -7.0275527238845825e-01 9.0031653642654419e-02</leafValues></_>
        <_>
          <internalNodes>
            0 -1 17 8.5252216085791588e-03</internalNodes>
          <leafValues>
            6.6073864698410034e-02 -7.8811675310134888e-01</leafValues></_>
        <_>
          <internalNodes>
            0 -1 0 8.8595901615917683e-04</internalNodes>
          <leafValues>
            -1.7709031701087952e-01 3.8486588001251221e-01</leafValues></_>
        <_>
          <internalNodes>
            0 -1 42 1.2604755349457264e-02</internalNodes>
          <leafValues>
            1.1338955163955688e-01 -5.6190425157546997e-01</leafValues></_>
        <_>
          <internalNodes>
            0 -1 55 2.3074904456734657e-03</internalNodes>
          <leafValues>
            -2.4790945649147034e-01 2.7236926555633545e-01</leafValues></_></weakClassifiers></_>
    <!-- stage 10 -->
    <_>
      <maxWeakCount>15</maxWeakCount>
      <stageThreshold>-1.4503537416458130e+00</stageThreshold>
      <weakClassifiers>
        <_>
          <internalNodes>
            0 -1 2 -9.3063578009605408e-02</internalNodes>
          <leafValues>
            3.8461539149284363e-01 -7.9945796728134155e-01</leafValues></_>
        <_>
          <internalNodes>
            0 -1 125 1.1552579962881282e-04</internalNodes>
          <leafValues>
            -4.7021108865737915e-01 -5.0082076340913773e-02</leafValues></_>
        <_>
          <internalNodes>
            0 -1 67 6.7386645823717117e-03</internalNodes>
          <leafValues>
            5.0270602107048035e-02 -8.6220288276672363e-01</leafValues></_>
        <_>
          <internalNodes>
            0 -1 136 9.8465243354439735e-05</internalNodes>
          <leafValues>
            -2.4535810947418213e-01 2.4873021245002747e-01</leafValues></_>
        <_>
          <internalNodes>
            0 -1 108 -1.9353508250787854e-03</internalNodes>
          <leafValues>
            2.3974318802356720e-01 -2.5453132390975952e-01</leafValues></_>
        <_>
          <internalNodes>
            0 -1 99 -4.1153561323881149e-04</internalNodes>
          <leafValues>
            2.8240919113159180e-01 -2.2673010826110840e-01</leafValues></_>
        <_>
          <internalNodes>
            0 -1 38 -1.8554299604147673e-03</internalNodes>
          <leafValues>
            -3.4511986374855042e-01 1.9141244888305664e-01</leafValues></_>
        <_>
          <internalNodes>
            0 -1 133 -1.0373364057159051e-04</internalNodes>
          <leafValues>
            2.4698561429977417e-01 -2.4471612274646759e-01</leafValues></_>
        <_>
          <internalNodes>
            0 -1 24 -4.4248439371585846e-02</internalNodes>
          <leafValues>
            -9.0070813894271851e-01 4.8713348805904388e-02</leafValues></_>
        <_>
          <internalNodes>
            0 -1 107 -4.0307976305484772e-03</internalNodes>
          <leafValues>
            2.1827480196952820e-01 -2.7723929286003113e-01</leafValues></_>
        <_>
          <internalNodes>
            0 -1 118 9.6226185560226440e-03</internalNodes>
          <leafValues>
            -1.7256382107734680e-01 3.6326116323471069e-01</leafValues></_>
        <_>
          <internalNodes>
            0 -1 132 1.2540046009235084e-04</internalNodes>
          <leafValues>
            -2.3118004202842712e-01 2.6300689578056335e-01</leafValues></_>
        <_>
          <internalNodes>
            0 -1 9 1.7827309202402830e-03</internalNodes>
          <leafValues>
            -2.3269350826740265e-01 2.6948010921478271e-01</leafValues></_>
        <_>
          <internalNodes>
            0 -1 33 -6.0928803868591785e-03</internalNodes>
          <leafValues>
            -6.7772841453552246e-01 9.4542764127254486e-02</leafValues></_>
        <_>
          <internalNodes>
            0 -1 56 1.4761252328753471e-02</internalNodes>
          <leafValues>
            6.5298236906528473e-02 -7.5960004329681396e-01</leafValues></_></weakClassifiers></_>
    <!-- stage 11 -->
    <_>
      <maxWeakCount>14</maxWeakCount>
      <stageThreshold>-1.5368524789810181e+00</stageThreshold>
      <weakClassifiers>
        <_>
          <internalNodes>
            0 -1 84 2.9177444055676460e-02</internalNodes>
          <leafValues>
            -8.0327868461608887e-01 9.0909093618392944e-02</leafValues></_>
        <_>
          <internalNodes>
            0 -1 76 -5.4877309594303370e-04</internalNodes>
          <leafValues>
            -6.8300890922546387e-01 -1.4412011206150055e-01</leafValues></_>
        <_>
          <internalNodes>
            0 -1 128 2.3915437050163746e-03</internalNodes>
          <leafValues>
            2.5672975927591324e-02 -1.</leafValues></_>
        <_>
          <internalNodes>
            0 -1 135 2.2165360860526562e-03</internalNodes>
          <leafValues>
            8.5636235773563385e-02 -6.9569152593612671e-01</leafValues></_>
        <_>
          <internalNodes>
            0 -1 20 -4.4315694831311703e-03</internalNodes>
          <leafValues>
            -8.0691671371459961e-01 6.8540602922439575e-02</leafValues></_>
        <_>
          <internalNodes>
            0 -1 140 -1.0603284463286400e-03</internalNodes>
          <leafValues>
            2.9903212189674377e-01 -1.9096559286117554e-01</leafValues></_>
        <_>
          <internalNodes>
            0 -1 127 -1.7280913889408112e-03</internalNodes>
          <leafValues>
            3.7018680572509766e-01 -1.9740499556064606e-01</leafValues></_>
        <_>
          <internalNodes>
            0 -1 110 1.2546051584649831e-04</internalNodes>
          <leafValues>
            -2.8223231434822083e-01 2.1845656633377075e-01</leafValues></_>
        <_>
          <internalNodes>
            0 -1 21 4.7421142458915710e-02</internalNodes>
          <leafValues>
            1.0297632217407227e-01 -5.9365016222000122e-01</leafValues></_>
        <_>
          <internalNodes>
            0 -1 79 -4.4525414705276489e-04</internalNodes>
          <leafValues>
            3.0996274948120117e-01 -2.3752801120281219e-01</leafValues></_>
        <_>
          <internalNodes>
            0 -1 29 -3.3308327198028564e-02</internalNodes>
          <leafValues>
            -7.1119076013565063e-01 9.9635154008865356e-02</leafValues></_>
        <_>
          <internalNodes>
            0 -1 5 1.0013153776526451e-02</internalNodes>
          <leafValues>
            -2.1876251697540283e-01 3.0513963103294373e-01</leafValues></_>
        <_>
          <internalNodes>
            0 -1 101 8.8880036491900682e-04</internalNodes>
          <leafValues>
            -2.3162692785263062e-01 3.1793361902236938e-01</leafValues></_>
        <_>
          <internalNodes>
            0 -1 115 -3.2289470545947552e-03</internalNodes>
          <leafValues>
            5.3951311111450195e-01 -1.3729678094387054e-01</leafValues></_></weakClassifiers></_></stages>
  <features>
    <_>
      <rects>
        <_>
          0 0 1 2 -1.</_>
        <_>
          0 1 1 1 2.</_></rects>
      <tilted>0</tilted></_>
    <_>
      <rects>
        <_>
          0 0 1 24 -1.</_>
        <_>
          0 12 1 12 2.</_></rects>
      <tilted>0</tilted></_>
    <_>
      <rects>
        <_>
          0 0 2 22 -1.</_>
        <_>
          0 11 2 11 2.</_></rects>
      <tilted>0</tilted></_>
    <_>
      <rects>
        <_>
          0 3 4 19 -1.</_>
        <_>
          2 3 2 19 2.</_></rects>
      <tilted>0</tilted></_>
    <_>
      <rects>
        <_>
          0 4 13 2 -1.</_>
        <_>
          0 5 13 1 2.</_></rects>
      <tilted>0</tilted></_>
    <_>
      <rects>
        <_>
          0 6 6 14 -1.</_>
        <_>
          0 6 3 7 2.</_>
        <_>
          3 13 3 7 2.</_></rects>
      <tilted>0</tilted></_>
    <_>
      <rects>
        <_>
          0 7 6 4 -1.</_>
        <_>
          3 7 3 4 2.</_></rects>
      <tilted>0</tilted></_>
    <_>
      <rects>
        <_>
          0 10 20 14 -1.</_>
        <_>
          0 10 10 7 2.</_>
        <_>
          10 17 10 7 2.</_></rects>
      <tilted>0</tilted></_>
    <_>
      <rects>
        <_>
          1 0 19 10 -1.</_>
        <_>
          1 5 19 5 2.</_></rects>
      <tilted>0</tilted></_>
    <_>
      <rects>
        <_>
          1 1 4 5 -1.</_>
        <_>
          3 1 2 5 2.</_></rects>
      <tilted>0</tilted></_>
    <_>
      <rects>
        <_>
          1 2 1 20 -1.</_>
        <_>
          1 12 1 10 2.</_></rects>
      <tilted>0</tilted></_>
    <_>
      <rects>
        <_>
          1 2 10 2 -1.</_>
        <_>
          1 3 10 1 2.</_></rects>
      <tilted>0</tilted></_>
    <_>
      <rects>
        <_>
          1 3 2 4 -1.</_>
        <_>
          2 3 1 4 2.</_></rects>
      <tilted>0</tilted></_>
    <_>
      <rects>
        <_>
          1 3 12 19 -1.</_>
        <_>
          7 3 6 19 2.</_></rects>
      <tilted>0</tilted></_>
    <_>
      <rects>
        <_>
          1 5 2 15 -1.</_>
        <_>
          2 5 1 15 2.</_></rects>
      <tilted>0</tilted></_>
    <_>
      <rects>
        <_>
          1 9 16 2 -1.</_>
        <_>
          1 9 8 1 2.</_>
        <_>
          9 10 8 1 2.</_></rects>
      <tilted>0</tilted></_>
    <_>
      <rects>
        <_>
          1 11 2 1 -1.</_>
        <_>
          2 11 1 1 2.</_></rects>
      <tilted>0</tilted></_>
    <_>
      <rects>
        <_>
          1 12 18 2 -1.</_>
        <_>
          1 12 9 1 2.</_>
        <_>
          10 13 9 1 2.</_></rects>
      <tilted>0</tilted></_>
    <_>
      <rects>
        <_>
          1 15 2 2 -1.</_>
        <_>
          1 15 1 1 2.</_>
        <_>
          2 16 1 1 2.</_></rects>
      <tilted>0</tilted></_>
    <_>
      <rects>
        <_>
          2 1 2 8 -1.</_>
        <_>
          2 1 1 4 2.</_>
        <_>
          3 5 1 4 2.</_></rects>
      <tilted>0</tilted></_>
    <_>
      <rects>
        <_>
          2 3 2 4 -1.</_>
        <_>
          2 3 1 2 2.</_>
        <_>
          3 5 1 2 2.</_></rects>
      <tilted>0</tilted></_>
    <_>
      <rects>
        <_>
          2 3 8 19 -1.</_>
        <_>
          6 3 4 19 2.</_></rects>
      <tilted>0</tilted></_>
    <_>
      <rects>
        <_>
          2 3 14 4 -1.</_>
        <_>
          2 3 7 2 2.</_>
        <_>
          9 5 7 2 2.</_></rects>
      <tilted>0</tilted></_>
    <_>
      <rects>
        <_>
          2 11 18 2 -1.</_>
        <_>
          2 11 9 1 2.</_>
        <_>
          11 12 9 1 2.</_></rects>
      <tilted>0</tilted></_>
    <_>
      <rects>
        <_>
          2 16 13 6 -1.</_>
        <_>
          2 19 13 3 2.</_></rects>
      <tilted>0</tilted></_>
    <_>
      <rects>
        <_>
          2 21 21 2 -1.</_>
        <_>
          2 22 21 1 2.</_></rects>
      <tilted>0</tilted></_>
    <_>
      <rects>
        <_>
          3 0 19 24 -1.</_>
        <_>
          3 8 19 8 2.</_></rects>
      <tilted>0</tilted></_>
    <_>
      <rects>
        <_>
          3 1 8 8 -1.</_>
        <_>
          7 1 4 8 2.</_></rects>
      <tilted>0</tilted></_>
    <_>
      <rects>
        <_>
          3 3 20 4 -1.</_>
        <_>
          3 3 10 2 2.</_>
        <_>
          13 5 10 2 2.</_></rects>
      <tilted>0</tilted></_>
    <_>
      <rects>
        <_>
          3 4 10 6 -1.</_>
        <_>
          8 4 5 6 2.</_></rects>
      <tilted>0</tilted></_>
    <_>
      <rects>
        <_>
          3 4 21 20 -1.</_>
        <_>
          10 4 7 20 2.</_></rects>
      <tilted>0</tilted></_>
    <_>
      <rects>
        <_>
          3 6 2 10 -1.</_>
        <_>
          3 6 1 5 2.</_>
        <_>
          4 11 1 5 2.</_></rects>
      <tilted>0</tilted></_>
    <_>
      <rects>
        <_>
          3 8 13 4 -1.</_>
        <_>
          3 10 13 2 2.</_></rects>
      <tilted>0</tilted></_>
    <_>
      <rects>
        <_>
          3 16 14 2 -1.</_>
        <_>
          3 16 7 1 2.</_>
        <_>
          10 17 7 1 2.</_></rects>
      <tilted>0</tilted></_>
    <_>
      <rects>
        <_>
          4 1 8 18 -1.</_>
        <_>
          4 1 4 9 2.</_>
        <_>
          8 10 4 9 2.</_></rects>
      <tilted>0</tilted></_>
    <_>
      <rects>
        <_>
          4 3 16 4 -1.</_>
        <_>
          4 3 8 2 2.</_>
        <_>
          12 5 8 2 2.</_></rects>
      <tilted>0</tilted></_>
    <_>
      <rects>
        <_>
          4 9 6 4 -1.</_>
        <_>
          6 9 2 4 2.</_></rects>
      <tilted>0</tilted></_>
    <_>
      <rects>
        <_>
          4 11 2 4 -1.</_>
        <_>
          5 11 1 4 2.</_></rects>
      <tilted>0</tilted></_>
    <_>
      <rects>
        <_>
          4 18 16 2 -1.</_>
        <_>
          4 18 8 1 2.</_>
        <_>
          12 19 8 1 2.</_></rects>
      <tilted>0</tilted></_>
    <_>
      <rects>
        <_>
          4 20 14 4 -1.</_>
        <_>
          4 22 14 2 2.</_></rects>
      <tilted>0</tilted></_>
    <_>
      <rects>
        <_>
          5 2 5 8 -1.</_>
        <_>
          5 6 5 4 2.</_></rects>
      <tilted>0</tilted></_>
    <_>
      <rects>
        <_>
          5 3 2 2 -1.</_>
        <_>
          5 4 2 1 2.</_></rects>
      <tilted>0</tilted></_>
    <_>
      <rects>
        <_>
          5 3 14 6 -1.</_>
        <_>
          5 3 7 3 2.</_>
        <_>
          12 6 7 3 2.</_></rects>
      <tilted>0</tilted></_>
    <_>
      <rects>
        <_>
          5 3 7 10 -1.</_>
        <_>
          5 8 7 5 2.</_></rects>
      <tilted>0</tilted></_>
    <_>
      <rects>
        <_>
          5 4 2 6 -1.</_>
        <_>
          5 6 2 2 2.</_></rects>
      <tilted>0</tilted></_>
    <_>
      <rects>
        <_>
          5 9 5 4 -1.</_>
        <_>
          5 11 5 2 2.</_></rects>
      <tilted>0</tilted></_>
    <_>
      <rects>
        <_>
          5 19 18 2 -1.</_>
        <_>
          5 19 9 1 2.</_>
        <_>
          14 20 9 1 2.</_></rects>
      <tilted>0</tilted></_>
    <_>
      <rects>
        <_>
          6 1 2 2 -1.</_>
        <_>
          6 2 2 1 2.</_></rects>
      <tilted>0</tilted></_>
    <_>
      <rects>
        <_>
          6 1 4 6 -1.</_>
        <_>
          6 4 4 3 2.</_></rects>
      <tilted>0</tilted></_>
    <_>
      <rects>
        <_>
          6 1 15 6 -1.</_>
        <_>
          6 4 15 3 2.</_></rects>
      <tilted>0</tilted></_>
    <_>
      <rects>
        <_>
          6 3 2 4 -1.</_>
        <_>
          6 3 1 2 2.</_>
        <_>
          7 5 1 2 2.</_></rects>
      <tilted>0</tilted></_>
    <_>
      <rects>
        <_>
          6 8 2 6 -1.</_>
        <_>
          6 8 1 3 2.</_>
        <_>
          7 11 1 3 2.</_></rects>
      <tilted>0</tilted></_>
    <_>
      <rects>
        <_>
          6 8 8 12 -1.</_>
        <_>
          6 8 4 6 2.</_>
        <_>
          10 14 4 6 2.</_></rects>
      <tilted>0</tilted></_>
    <_>
      <rects>
        <_>
          6 8 10 6 -1.</_>
        <_>
          6 8 5 3 2.</_>
        <_>
          11 11 5 3 2.</_></rects>
      <tilted>0</tilted></_>
    <_>
      <rects>
        <_>
          6 8 10 5 -1.</_>
        <_>
          11 8 5 5 2.</_></rects>
      <tilted>0</tilted></_>
    <_>
      <rects>
        <_>
          6 8 6 4 -1.</_>
        <_>
          6 10 6 2 2.</_></rects>
      <tilted>0</tilted></_>
    <_>
      <rects>
        <_>
          6 16 8 3 -1.</_>
        <_>
          10 16 4 3 2.</_></rects>
      <tilted>0</tilted></_>
    <_>
      <rects>
        <_>
          6 20 2 2 -1.</_>
        <_>
          7 20 1 2 2.</_></rects>
      <tilted>0</tilted></_>
    <_>
      <rects>
        <_>
          7 4 2 19 -1.</_>
        <_>
          8 4 1 19 2.</_></rects>
      <tilted>0</tilted></_>
    <_>
      <rects>
        <_>
          7 8 14 2 -1.</_>
        <_>
          7 9 14 1 2.</_></rects>
      <tilted>0</tilted></_>
    <_>
      <rects>
        <_>
          7 9 8 10 -1.</_>
        <_>
          7 14 8 5 2.</_></rects>
      <tilted>0</tilted></_>
    <_>
      <rects>
        <_>
          7 11 10 1 -1.</_>
        <_>
          12 11 5 1 2.</_></rects>
      <tilted>0</tilted></_>
    <_>
      <rects>
        <_>
          7 13 5 8 -1.</_>
        <_>
          7 17 5 4 2.</_></rects>
      <tilted>0</tilted></_>
    <_>
      <rects>
        <_>
          7 13 9 6 -1.</_>
        <_>
          7 16 9 3 2.</_></rects>
      <tilted>0</tilted></_>
    <_>
      <rects>
        <_>
          7 15 3 2 -1.</_>
        <_>
          7 16 3 1 2.</_></rects>
      <tilted>0</tilted></_>
    <_>
      <rects>
        <_>
          7 17 10 2 -1.</_>
        <_>
          7 17 5 1 2.</_>
        <_>
          12 18 5 1 2.</_></rects>
      <tilted>0</tilted></_>
    <_>
      <rects>
        <_>
          8 1 4 2 -1.</_>
        <_>
          8 2 4 1 2.</_></rects>
      <tilted>0</tilted></_>
    <_>
      <rects>
        <_>
          8 3 8 1 -1.</_>
        <_>
          12 3 4 1 2.</_></rects>
      <tilted>0</tilted></_>
    <_>
      <rects>
        <_>
          8 3 12 2 -1.</_>
        <_>
          8 3 6 1 2.</_>
        <_>
          14 4 6 1 2.</_></rects>
      <tilted>0</tilted></_>
    <_>
      <rects>
        <_>
          8 8 12 4 -1.</_>
        <_>
          8 8 6 2 2.</_>
        <_>
          14 10 6 2 2.</_></rects>
      <tilted>0</tilted></_>
    <_>
      <rects>
        <_>
          8 13 2 3 -1.</_>
        <_>
          9 13 1 3 2.</_></rects>
      <tilted>0</tilted></_>
    <_>
      <rects>
        <_>
          8 13 14 4 -1.</_>
        <_>
          8 15 14 2 2.</_></rects>
      <tilted>0</tilted></_>
    <_>
      <rects>
        <_>
          8 17 2 1 -1.</_>
        <_>
          9 17 1 1 2.</_></rects>
      <tilted>0</tilted></_>
    <_>
      <rects>
        <_>
          9 1 14 4 -1.</_>
        <_>
          9 3 14 2 2.</_></rects>
      <tilted>0</tilted></_>
    <_>
      <rects>
        <_>
          9 9 2 3 -1.</_>
        <_>
          10 9 1 3 2.</_></rects>
      <tilted>0</tilted></_>
    <_>
      <rects>
        <_>
          10 0 1 6 -1.</_>
        <_>
          10 3 1 3 2.</_></rects>
      <tilted>0</tilted></_>
    <_>
      <rects>
        <_>
          10 2 6 2 -1.</_>
        <_>
          10 3 6 1 2.</_></rects>
      <tilted>0</tilted></_>
    <_>
      <rects>
        <_>
          10 2 7 8 -1.</_>
        <_>
          10 6 7 4 2.</_></rects>
      <tilted>0</tilted></_>
    <_>
      <rects>
        <_>
          10 3 2 6 -1.</_>
        <_>
          10 6 2 3 2.</_></rects>
      <tilted>0</tilted></_>
    <_>
      <rects>
        <_>
          10 6 2 1 -1.</_>
        <_>
          11 6 1 1 2.</_></rects>
      <tilted>0</tilted></_>
    <_>
      <rects>
        <_>
          10 8 8 11 -1.</_>
        <_>
          14 8 4 11 2.</_></rects>
      <tilted>0</tilted></_>
    <_>
      <rects>
        <_>
          10 12 2 9 -1.</_>
        <_>
          11 12 1 9 2.</_></rects>
      <tilted>0</tilted></_>
    <_>
      <rects>
        <_>
          10 12 12 10 -1.</_>
        <_>
          10 17 12 5 2.</_></rects>
      <tilted>0</tilted></_>
    <_>
      <rects>
        <_>
          10 18 2 6 -1.</_>
        <_>
          10 18 1 3 2.</_>
        <_>
          11 21 1 3 2.</_></rects>
      <tilted>0</tilted></_>
    <_>
      <rects>
        <_>
          10 20 5 4 -1.</_>
        <_>
          10 22 5 2 2.</_></rects>
      <tilted>0</tilted></_>
    <_>
      <rects>
        <_>
          11 0 1 6 -1.</_>
        <_>
          11 2 1 2 2.</_></rects>
      <tilted>0</tilted></_>
    <_>
      <rects>
        <_>
          11 9 2 2 -1.</_>
        <_>
          11 10 2 1 2.</_></rects>
      <tilted>0</tilted></_>
    <_>
      <rects>
        <_>
          11 13 2 2 -1.</_>
        <_>
          12 13 1 2 2.</_></rects>
      <tilted>0</tilted></_>
    <_>
      <rects>
        <_>
          11 16 12 8 -1.</_>
        <_>
          11 20 12 4 2.</_></rects>
      <tilted>0</tilted></_>
    <_>
      <rects>
        <_>
          11 17 2 2 -1.</_>
        <_>
          11 17 1 1 2.</_>
        <_>
          12 18 1 1 2.</_></rects>
      <tilted>0</tilted></_>
    <_>
      <rects>
        <_>
          12 2 4 14 -1.</_>
        <_>
          12 2 2 7 2.</_>
        <_>
          14 9 2 7 2.</_></rects>
      <tilted>0</tilted></_>
    <_>
      <rects>
        <_>
          12 3 9 8 -1.</_>
        <_>
          12 7 9 4 2.</_></rects>
      <tilted>0</tilted></_>
    <_>
      <rects>
        <_>
          12 6 3 10 -1.</_>
        <_>
          12 11 3 5 2.</_></rects>
      <tilted>0</tilted></_>
    <_>
      <rects>
        <_>
          12 15 8 2 -1.</_>
        <_>
          12 15 4 1 2.</_>
        <_>
          16 16 4 1 2.</_></rects>
      <tilted>0</tilted></_>
    <_>
      <rects>
        <_>
          13 0 8 4 -1.</_>
        <_>
          13 2 8 2 2.</_></rects>
      <tilted>0</tilted></_>
    <_>
      <rects>
        <_>
          13 2 10 10 -1.</_>
        <_>
          18 2 5 10 2.</_></rects>
      <tilted>0</tilted></_>
    <_>
      <rects>
        <_>
          13 6 2 2 -1.</_>
        <_>
          14 6 1 2 2.</_></rects>
      <tilted>0</tilted></_>
    <_>
      <rects>
        <_>
          13 7 10 2 -1.</_>
        <_>
          13 7 5 1 2.</_>
        <_>
          18 8 5 1 2.</_></rects>
      <tilted>0</tilted></_>
    <_>
      <rects>
        <_>
          13 10 1 4 -1.</_>
        <_>
          13 12 1 2 2.</_></rects>
      <tilted>0</tilted></_>
    <_>
      <rects>
        <_>
          13 19 2 1 -1.</_>
        <_>
          14 19 1 1 2.</_></rects>
      <tilted>0</tilted></_>
    <_>
      <rects>
        <_>
          13 20 3 3 -1.</_>
        <_>
          13 21 3 1 2.</_></rects>
      <tilted>0</tilted></_>
    <_>
      <rects>
        <_>
          14 0 2 2 -1.</_>
        <_>
          14 1 2 1 2.</_></rects>
      <tilted>0</tilted></_>
    <_>
      <rects>
        <_>
          14 0 3 6 -1.</_>
        <_>
          14 2 3 2 2.</_></rects>
      <tilted>0</tilted></_>
    <_>
      <rects>
        <_>
          14 0 3 10 -1.</_>
        <_>
          14 5 3 5 2.</_></rects>
      <tilted>0</tilted></_>
    <_>
      <rects>
        <_>
          14 1 6 21 -1.</_>
        <_>
          17 1 3 21 2.</_></rects>
      <tilted>0</tilted></_>
    <_>
      <rects>
        <_>
          14 8 2 5 -1.</_>
        <_>
          15 8 1 5 2.</_></rects>
      <tilted>0</tilted></_>
    <_>
      <rects>
        <_>
          14 10 2 1 -1.</_>
        <_>
          15 10 1 1 2.</_></rects>
      <tilted>0</tilted></_>
    <_>
      <rects>
        <_>
          14 14 10 6 -1.</_>
        <_>
          14 17 10 3 2.</_></rects>
      <tilted>0</tilted></_>
    <_>
      <rects>
        <_>
          14 18 6 6 -1.</_>
        <_>
          14 21 6 3 2.</_></rects>
      <tilted>0</tilted></_>
    <_>
      <rects>
        <_>
          15 0 9 4 -1.</_>
        <_>
          15 2 9 2 2.</_></rects>
      <tilted>0</tilted></_>
    <_>
      <rects>
        <_>
          15 1 1 2 -1.</_>
        <_>
          15 2 1 1 2.</_></rects>
      <tilted>0</tilted></_>
    <_>
      <rects>
        <_>
          15 2 2 2 -1.</_>
        <_>
          16 2 1 2 2.</_></rects>
      <tilted>0</tilted></_>
    <_>
      <rects>
        <_>
          15 20 2 4 -1.</_>
        <_>
          15 20 1 2 2.</_>
        <_>
          16 22 1 2 2.</_></rects>
      <tilted>0</tilted></_>
    <_>
      <rects>
        <_>
          15 23 9 1 -1.</_>
        <_>
          18 23 3 1 2.</_></rects>
      <tilted>0</tilted></_>
    <_>
      <rects>
        <_>
          16 5 3 12 -1.</_>
        <_>
          16 11 3 6 2.</_></rects>
      <tilted>0</tilted></_>
    <_>
      <rects>
        <_>
          16 18 2 4 -1.</_>
        <_>
          17 18 1 4 2.</_></rects>
      <tilted>0</tilted></_>
    <_>
      <rects>
        <_>
          16 18 4 2 -1.</_>
        <_>
          16 18 2 1 2.</_>
        <_>
          18 19 2 1 2.</_></rects>
      <tilted>0</tilted></_>
    <_>
      <rects>
        <_>
          17 0 3 2 -1.</_>
        <_>
          17 1 3 1 2.</_></rects>
      <tilted>0</tilted></_>
    <_>
      <rects>
        <_>
          17 0 6 8 -1.</_>
        <_>
          17 0 3 4 2.</_>
        <_>
          20 4 3 4 2.</_></rects>
      <tilted>0</tilted></_>
    <_>
      <rects>
        <_>
          17 5 2 6 -1.</_>
        <_>
          17 5 1 3 2.</_>
        <_>
          18 8 1 3 2.</_></rects>
      <tilted>0</tilted></_>
    <_>
      <rects>
        <_>
          17 7 6 15 -1.</_>
        <_>
          20 7 3 15 2.</_></rects>
      <tilted>0</tilted></_>
    <_>
      <rects>
        <_>
          17 16 2 6 -1.</_>
        <_>
          18 16 1 6 2.</_></rects>
      <tilted>0</tilted></_>
    <_>
      <rects>
        <_>
          17 19 2 2 -1.</_>
        <_>
          17 19 1 1 2.</_>
        <_>
          18 20 1 1 2.</_></rects>
      <tilted>0</tilted></_>
    <_>
      <rects>
        <_>
          17 22 4 2 -1.</_>
        <_>
          17 23 4 1 2.</_></rects>
      <tilted>0</tilted></_>
    <_>
      <rects>
        <_>
          18 2 2 7 -1.</_>
        <_>
          19 2 1 7 2.</_></rects>
      <tilted>0</tilted></_>
    <_>
      <rects>
        <_>
          18 3 1 2 -1.</_>
        <_>
          18 4 1 1 2.</_></rects>
      <tilted>0</tilted></_>
    <_>
      <rects>
        <_>
          18 12 6 12 -1.</_>
        <_>
          21 12 3 12 2.</_></rects>
      <tilted>0</tilted></_>
    <_>
      <rects>
        <_>
          18 14 2 6 -1.</_>
        <_>
          18 14 1 3 2.</_>
        <_>
          19 17 1 3 2.</_></rects>
      <tilted>0</tilted></_>
    <_>
      <rects>
        <_>
          19 17 2 2 -1.</_>
        <_>
          19 17 1 1 2.</_>
        <_>
          20 18 1 1 2.</_></rects>
      <tilted>0</tilted></_>
    <_>
      <rects>
        <_>
          19 20 4 2 -1.</_>
        <_>
          21 20 2 2 2.</_></rects>
      <tilted>0</tilted></_>
    <_>
      <rects>
        <_>
          20 5 4 18 -1.</_>
        <_>
          22 5 2 18 2.</_></rects>
      <tilted>0</tilted></_>
    <_>
      <rects>
        <_>
          20 6 4 18 -1.</_>
        <_>
          22 6 2 18 2.</_></rects>
      <tilted>0</tilted></_>
    <_>
      <rects>
        <_>
          20 7 1 2 -1.</_>
        <_>
          20 8 1 1 2.</_></rects>
      <tilted>0</tilted></_>
    <_>
      <rects>
        <_>
          20 11 2 1 -1.</_>
        <_>
          21 11 1 1 2.</_></rects>
      <tilted>0</tilted></_>
    <_>
      <rects>
        <_>
          20 14 4 4 -1.</_>
        <_>
          22 14 2 4 2.</_></rects>
      <tilted>0</tilted></_>
    <_>
      <rects>
        <_>
          21 4 2 2 -1.</_>
        <_>
          21 5 2 1 2.</_></rects>
      <tilted>0</tilted></_>
    <_>
      <rects>
        <_>
          22 0 1 2 -1.</_>
        <_>
          22 1 1 1 2.</_></rects>
      <tilted>0</tilted></_>
    <_>
      <rects>
        <_>
          22 1 2 3 -1.</_>
        <_>
          22 2 2 1 2.</_></rects>
      <tilted>0</tilted></_>
    <_>
      <rects>
        <_>
          22 8 2 9 -1.</_>
        <_>
          23 8 1 9 2.</_></rects>
      <tilted>0</tilted></_>
    <_>
      <rects>
        <_>
          22 9 2 14 -1.</_>
        <_>
          22 9 1 7 2.</_>
        <_>
          23 16 1 7 2.</_></rects>
      <tilted>0</tilted></_>
    <_>
      <rects>
        <_>
          22 11 1 4 -1.</_>
        <_>
          22 13 1 2 2.</_></rects>
      <tilted>0</tilted></_>
    <_>
      <rects>
        <_>
          22 12 2 1 -1.</_>
        <_>
          23 12 1 1 2.</_></rects>
      <tilted>0</tilted></_>
    <_>
      <rects>
        <_>
          23 1 1 20 -1.</_>
        <_>
          23 11 1 10 2.</_></rects>
      <tilted>0</tilted></_></features></cascade>
</opencv_storage>
