<?xml version="1.0"?>
<opencv_storage>
<cascade>
  <stageType>BOOST</stageType>
  <featureType>HAAR</featureType>
  <height>24</height>
  <width>24</width>
  <stageParams>
    <boostType>GAB</boostType>
    <minHitRate>9.9900001287460327e-01</minHitRate>
    <maxFalseAlarm>4.0000000596046448e-01</maxFalseAlarm>
    <weightTrimRate>9.4999999999999996e-01</weightTrimRate>
    <maxDepth>1</maxDepth>
    <maxWeakCount>100</maxWeakCount></stageParams>
  <featureParams>
    <maxCatCount>0</maxCatCount>
    <featSize>1</featSize>
    <mode>BASIC</mode></featureParams>
  <stageNum>19</stageNum>
  <stages>
    <!-- stage 0 -->
    <_>
      <maxWeakCount>8</maxWeakCount>
      <stageThreshold>-1.7805398702621460e+00</stageThreshold>
      <weakClassifiers>
        <_>
          <internalNodes>
            0 -1 199 7.8567005693912506e-02</internalNodes>
          <leafValues>
            -8.2656824588775635e-01 4.4444444775581360e-01</leafValues></_>
        <_>
          <internalNodes>
            0 -1 156 2.6946482248604298e-03</internalNodes>
          <leafValues>
            -6.8464452028274536e-01 6.5693512558937073e-02</leafValues></_>
        <_>
          <internalNodes>
            0 -1 45 -1.5781718492507935e+00</internalNodes>
          <leafValues>
            -8.5525208711624146e-01 1.3216616213321686e-01</leafValues></_>
        <_>
          <internalNodes>
            0 -1 218 -7.4553540907800198e-03</internalNodes>
          <leafValues>
            2.5113907456398010e-01 -9.3893104791641235e-01</leafValues></_>
        <_>
          <internalNodes>
            0 -1 209 2.1251730620861053e-02</internalNodes>
          <leafValues>
            -3.3033582568168640e-01 5.5136519670486450e-01</leafValues></_>
        <_>
          <internalNodes>
            0 -1 136 -1.8775813281536102e-02</internalNodes>
          <leafValues>
            -5.9885275363922119e-01 2.2793868184089661e-01</leafValues></_>
        <_>
          <internalNodes>
            0 -1 133 -1.1399497278034687e-02</internalNodes>
          <leafValues>
            3.4161168336868286e-01 -4.6687796711921692e-01</leafValues></_>
        <_>
          <internalNodes>
            0 -1 32 -1.2157456949353218e-03</internalNodes>
          <leafValues>
            -8.7620997428894043e-01 1.7202481627464294e-01</leafValues></_></weakClassifiers></_>
    <!-- stage 1 -->
    <_>
      <maxWeakCount>9</maxWeakCount>
      <stageThreshold>-1.5561728477478027e+00</stageThreshold>
      <weakClassifiers>
        <_>
          <internalNodes>
            0 -1 4 -6.9222584366798401e-02</internalNodes>
          <leafValues>
            4.0740740299224854e-01 -8.1518757343292236e-01</leafValues></_>
        <_>
          <internalNodes>
            0 -1 18 6.4465746283531189e-02</internalNodes>
          <leafValues>
            -6.1940681934356689e-01 1.5927638113498688e-01</leafValues></_>
        <_>
          <internalNodes>
            0 -1 163 -2.8357133269309998e-02</internalNodes>
          <leafValues>
            -6.5854179859161377e-01 1.9348731637001038e-01</leafValues></_>
        <_>
          <internalNodes>
            0 -1 23 5.7940301485359669e-04</internalNodes>
          <leafValues>
            -4.4467100501060486e-01 2.4976783990859985e-01</leafValues></_>
        <_>
          <internalNodes>
            0 -1 212 3.3125365152955055e-03</internalNodes>
          <leafValues>
            -3.1984335184097290e-01 4.1182526946067810e-01</leafValues></_>
        <_>
          <internalNodes>
            0 -1 173 7.1714678779244423e-03</internalNodes>
          <leafValues>
            -3.2398182153701782e-01 3.4698331356048584e-01</leafValues></_>
        <_>
          <internalNodes>
            0 -1 138 -1.8817507661879063e-03</internalNodes>
          <leafValues>
            -7.5653046369552612e-01 1.4351017773151398e-01</leafValues></_>
        <_>
          <internalNodes>
            0 -1 131 1.8292706459760666e-02</internalNodes>
          <leafValues>
            1.4099816977977753e-01 -7.3804533481597900e-01</leafValues></_>
        <_>
          <internalNodes>
            0 -1 141 -1.1076454538851976e-03</internalNodes>
          <leafValues>
            -8.1636458635330200e-01 9.6904605627059937e-02</leafValues></_></weakClassifiers></_>
    <!-- stage 2 -->
    <_>
      <maxWeakCount>12</maxWeakCount>
      <stageThreshold>-1.4453579187393188e+00</stageThreshold>
      <weakClassifiers>
        <_>
          <internalNodes>
            0 -1 224 3.6067806184291840e-02</internalNodes>
          <leafValues>
            -8.2986766099929810e-01 -3.2258063554763794e-02</leafValues></_>
        <_>
          <internalNodes>
            0 -1 136 -1.8755109980702400e-02</internalNodes>
          <leafValues>
            -8.0724978446960449e-01 -3.8201648741960526e-02</leafValues></_>
        <_>
          <internalNodes>
            0 -1 62 -2.5178720243275166e-03</internalNodes>
          <leafValues>
            4.9282121658325195e-01 -2.9321411252021790e-01</leafValues></_>
        <_>
          <internalNodes>
            0 -1 73 -4.8843991011381149e-02</internalNodes>
          <leafValues>
            -9.1270172595977783e-01 1.4183826744556427e-01</leafValues></_>
        <_>
          <internalNodes>
            0 -1 67 6.4046243205666542e-03</internalNodes>
          <leafValues>
            -3.9187270402908325e-01 3.5347211360931396e-01</leafValues></_>
        <_>
          <internalNodes>
            0 -1 84 -1.0675103403627872e-03</internalNodes>
          <leafValues>
            4.1672930121421814e-01 -3.1017169356346130e-01</leafValues></_>
        <_>
          <internalNodes>
            0 -1 28 -1.2490734457969666e-02</internalNodes>
          <leafValues>
            7.2729623317718506e-01 -1.4355960488319397e-01</leafValues></_>
        <_>
          <internalNodes>
            0 -1 114 6.5395906567573547e-03</internalNodes>
          <leafValues>
            -3.7611326575279236e-01 3.3257412910461426e-01</leafValues></_>
        <_>
          <internalNodes>
            0 -1 195 -2.1710474975407124e-03</internalNodes>
          <leafValues>
            4.1959723830223083e-01 -2.8122007846832275e-01</leafValues></_>
        <_>
          <internalNodes>
            0 -1 208 2.2073607891798019e-02</internalNodes>
          <leafValues>
            -2.7212804555892944e-01 5.0804865360260010e-01</leafValues></_>
        <_>
          <internalNodes>
            0 -1 60 -6.4041696488857269e-02</internalNodes>
          <leafValues>
            -3.4372434020042419e-01 3.3725857734680176e-01</leafValues></_>
        <_>
          <internalNodes>
            0 -1 159 -1.3262878637760878e-03</internalNodes>
          <leafValues>
            5.4581475257873535e-01 -2.2281008958816528e-01</leafValues></_></weakClassifiers></_>
    <!-- stage 3 -->
    <_>
      <maxWeakCount>8</maxWeakCount>
      <stageThreshold>-1.8008879423141479e+00</stageThreshold>
      <weakClassifiers>
        <_>
          <internalNodes>
            0 -1 134 2.2036065347492695e-03</internalNodes>
          <leafValues>
            -8.5549736022949219e-01 -3.8181817531585693e-01</leafValues></_>
        <_>
          <internalNodes>
            0 -1 49 -8.9999413490295410e-01</internalNodes>
          <leafValues>
            -3.7378739565610886e-02 -7.9000556468963623e-01</leafValues></_>
        <_>
          <internalNodes>
            0 -1 223 -3.7807336775586009e-04</internalNodes>
          <leafValues>
            4.4765785336494446e-01 -3.2038956880569458e-01</leafValues></_>
        <_>
          <internalNodes>
            0 -1 164 2.7320525259710848e-04</internalNodes>
          <leafValues>
            -3.3319315314292908e-01 3.4655791521072388e-01</leafValues></_>
        <_>
          <internalNodes>
            0 -1 112 -3.6812946200370789e-04</internalNodes>
          <leafValues>
            4.7432529926300049e-01 -2.4832330644130707e-01</leafValues></_>
        <_>
          <internalNodes>
            0 -1 35 -2.8771476354449987e-03</internalNodes>
          <leafValues>
            5.7299858331680298e-01 -1.5716427564620972e-01</leafValues></_>
        <_>
          <internalNodes>
            0 -1 139 -1.2989342212677002e-03</internalNodes>
          <leafValues>
            4.9559414386749268e-01 -2.2797627747058868e-01</leafValues></_>
        <_>
          <internalNodes>
            0 -1 69 2.5245471624657512e-04</internalNodes>
          <leafValues>
            -3.4453567862510681e-01 3.2267889380455017e-01</leafValues></_></weakClassifiers></_>
    <!-- stage 4 -->
    <_>
      <maxWeakCount>12</maxWeakCount>
      <stageThreshold>-1.5928033590316772e+00</stageThreshold>
      <weakClassifiers>
        <_>
          <internalNodes>
            0 -1 21 3.5644762217998505e-02</internalNodes>
          <leafValues>
            -8.2119816541671753e-01 3.1428572535514832e-01</leafValues></_>
        <_>
          <internalNodes>
            0 -1 146 -1.5586093068122864e-03</internalNodes>
          <leafValues>
            -6.7097640037536621e-01 -5.6252669543027878e-02</leafValues></_>
        <_>
          <internalNodes>
            0 -1 150 -5.8093722909688950e-03</internalNodes>
          <leafValues>
            -5.7248264551162720e-01 1.7657469213008881e-01</leafValues></_>
        <_>
          <internalNodes>
            0 -1 108 -9.6603240817785263e-03</internalNodes>
          <leafValues>
            -6.6377115249633789e-01 1.2290892004966736e-01</leafValues></_>
        <_>
          <internalNodes>
            0 -1 87 1.7173718661069870e-02</internalNodes>
          <leafValues>
            1.4632134139537811e-01 -8.0097973346710205e-01</leafValues></_>
        <_>
          <internalNodes>
            0 -1 168 -6.0915020294487476e-03</internalNodes>
          <leafValues>
            6.3918393850326538e-01 -1.6724623739719391e-01</leafValues></_>
        <_>
          <internalNodes>
            0 -1 86 -3.2429385930299759e-02</internalNodes>
          <leafValues>
            -8.7461143732070923e-01 1.2974427640438080e-01</leafValues></_>
        <_>
          <internalNodes>
            0 -1 181 2.8532516211271286e-02</internalNodes>
          <leafValues>
            6.8209782242774963e-02 -9.2880970239639282e-01</leafValues></_>
        <_>
          <internalNodes>
            0 -1 94 -5.8479891158640385e-03</internalNodes>
          <leafValues>
            -7.3546767234802246e-01 1.0174350440502167e-01</leafValues></_>
        <_>
          <internalNodes>
            0 -1 186 2.9912480385974050e-04</internalNodes>
          <leafValues>
            -3.3685156702995300e-01 2.7111864089965820e-01</leafValues></_>
        <_>
          <internalNodes>
            0 -1 154 4.2934017255902290e-03</internalNodes>
          <leafValues>
            1.0915983468294144e-01 -8.0681985616683960e-01</leafValues></_>
        <_>
          <internalNodes>
            0 -1 184 6.9680431624874473e-04</internalNodes>
          <leafValues>
            -2.7598965167999268e-01 3.3548671007156372e-01</leafValues></_></weakClassifiers></_>
    <!-- stage 5 -->
    <_>
      <maxWeakCount>13</maxWeakCount>
      <stageThreshold>-1.5225027799606323e+00</stageThreshold>
      <weakClassifiers>
        <_>
          <internalNodes>
            0 -1 219 1.4425328001379967e-02</internalNodes>
          <leafValues>
            -8.1598514318466187e-01 -4.5454546809196472e-02</leafValues></_>
        <_>
          <internalNodes>
            0 -1 175 -1.2017556000500917e-03</internalNodes>
          <leafValues>
            1.5577934682369232e-01 -4.6665981411933899e-01</leafValues></_>
        <_>
          <internalNodes>
            0 -1 12 7.7253103256225586e-02</internalNodes>
          <leafValues>
            8.0737531185150146e-02 -9.1804015636444092e-01</leafValues></_>
        <_>
          <internalNodes>
            0 -1 220 8.3773806691169739e-03</internalNodes>
          <leafValues>
            -1.4583170413970947e-01 5.3436839580535889e-01</leafValues></_>
        <_>
          <internalNodes>
            0 -1 71 6.5746799111366272e-02</internalNodes>
          <leafValues>
            9.1637037694454193e-02 -1.</leafValues></_>
        <_>
          <internalNodes>
            0 -1 95 1.7818408086895943e-02</internalNodes>
          <leafValues>
            1.4465770125389099e-01 -5.3494662046432495e-01</leafValues></_>
        <_>
          <internalNodes>
            0 -1 205 7.1337139233946800e-03</internalNodes>
          <leafValues>
            -1.7044442892074585e-01 4.9951058626174927e-01</leafValues></_>
        <_>
          <internalNodes>
            0 -1 166 4.8184995539486408e-03</internalNodes>
          <leafValues>
            -3.7151882052421570e-01 2.3779153823852539e-01</leafValues></_>
        <_>
          <internalNodes>
            0 -1 50 7.8855436295270920e-03</internalNodes>
          <leafValues>
            -1.4260803163051605e-01 6.2825196981430054e-01</leafValues></_>
        <_>
          <internalNodes>
            0 -1 97 -6.7351367324590683e-03</internalNodes>
          <leafValues>
            -7.7077430486679077e-01 1.1396678537130356e-01</leafValues></_>
        <_>
          <internalNodes>
            0 -1 26 3.3087573945522308e-02</internalNodes>
          <leafValues>
            1.5285900235176086e-01 -5.4459112882614136e-01</leafValues></_>
        <_>
          <internalNodes>
            0 -1 161 8.3762104623019695e-04</internalNodes>
          <leafValues>
            -2.4555385112762451e-01 3.6726769804954529e-01</leafValues></_>
        <_>
          <internalNodes>
            0 -1 178 7.7218568185344338e-04</internalNodes>
          <leafValues>
            -2.4669952690601349e-01 3.7072759866714478e-01</leafValues></_></weakClassifiers></_>
    <!-- stage 6 -->
    <_>
      <maxWeakCount>11</maxWeakCount>
      <stageThreshold>-1.5708665847778320e+00</stageThreshold>
      <weakClassifiers>
        <_>
          <internalNodes>
            0 -1 93 -2.4903871119022369e-02</internalNodes>
          <leafValues>
            1.8518517911434174e-01 -8.0969810485839844e-01</leafValues></_>
        <_>
          <internalNodes>
            0 -1 179 -1.9310522824525833e-02</internalNodes>
          <leafValues>
            -9.8619021475315094e-02 -6.8408799171447754e-01</leafValues></_>
        <_>
          <internalNodes>
            0 -1 165 -2.0158395171165466e-02</internalNodes>
          <leafValues>
            3.7448119372129440e-02 -1.</leafValues></_>
        <_>
          <internalNodes>
            0 -1 38 1.7103491351008415e-02</internalNodes>
          <leafValues>
            8.5492014884948730e-02 -9.0573900938034058e-01</leafValues></_>
        <_>
          <internalNodes>
            0 -1 29 5.7555418461561203e-03</internalNodes>
          <leafValues>
            9.3853689730167389e-02 -6.8686550855636597e-01</leafValues></_>
        <_>
          <internalNodes>
            0 -1 140 -8.2527729682624340e-04</internalNodes>
          <leafValues>
            2.2504267096519470e-01 -3.0570203065872192e-01</leafValues></_>
        <_>
          <internalNodes>
            0 -1 88 2.2719588130712509e-02</internalNodes>
          <leafValues>
            1.0087800025939941e-01 -6.9720166921615601e-01</leafValues></_>
        <_>
          <internalNodes>
            0 -1 58 -1.3534670695662498e-02</internalNodes>
          <leafValues>
            -6.1608290672302246e-01 1.1431878060102463e-01</leafValues></_>
        <_>
          <internalNodes>
            0 -1 109 -3.2317277509719133e-03</internalNodes>
          <leafValues>
            4.9113199114799500e-01 -1.6023339331150055e-01</leafValues></_>
        <_>
          <internalNodes>
            0 -1 78 -8.0530960112810135e-03</internalNodes>
          <leafValues>
            -7.5933921337127686e-01 1.0873467475175858e-01</leafValues></_>
        <_>
          <internalNodes>
            0 -1 103 6.4696171320974827e-03</internalNodes>
          <leafValues>
            4.7786682844161987e-02 -1.</leafValues></_></weakClassifiers></_>
    <!-- stage 7 -->
    <_>
      <maxWeakCount>12</maxWeakCount>
      <stageThreshold>-1.4351562261581421e+00</stageThreshold>
      <weakClassifiers>
        <_>
          <internalNodes>
            0 -1 82 -3.5132978111505508e-02</internalNodes>
          <leafValues>
            6.3636362552642822e-01 -7.9981964826583862e-01</leafValues></_>
        <_>
          <internalNodes>
            0 -1 118 2.8996989130973816e-03</internalNodes>
          <leafValues>
            -3.9820599555969238e-01 2.7366921305656433e-01</leafValues></_>
        <_>
          <internalNodes>
            0 -1 121 1.2861183495260775e-04</internalNodes>
          <leafValues>
            -4.7420907020568848e-01 1.5105909109115601e-01</leafValues></_>
        <_>
          <internalNodes>
            0 -1 125 7.5998564716428518e-04</internalNodes>
          <leafValues>
            -3.8726323843002319e-01 2.0356300473213196e-01</leafValues></_>
        <_>
          <internalNodes>
            0 -1 124 4.9208998680114746e-02</internalNodes>
          <leafValues>
            1.2509118020534515e-01 -8.4439313411712646e-01</leafValues></_>
        <_>
          <internalNodes>
            0 -1 98 -8.3934608846902847e-04</internalNodes>
          <leafValues>
            2.2176927328109741e-01 -3.8685756921768188e-01</leafValues></_>
        <_>
          <internalNodes>
            0 -1 188 2.7513033710420132e-03</internalNodes>
          <leafValues>
            -2.1344600617885590e-01 3.7168908119201660e-01</leafValues></_>
        <_>
          <internalNodes>
            0 -1 99 -2.0830173045396805e-02</internalNodes>
          <leafValues>
            -5.9681856632232666e-01 1.4757080376148224e-01</leafValues></_>
        <_>
          <internalNodes>
            0 -1 81 -3.6661262856796384e-04</internalNodes>
          <leafValues>
            -4.2797836661338806e-01 1.4676450192928314e-01</leafValues></_>
        <_>
          <internalNodes>
            0 -1 52 5.2835997194051743e-03</internalNodes>
          <leafValues>
            -2.3335911333560944e-01 2.7923446893692017e-01</leafValues></_>
        <_>
          <internalNodes>
            0 -1 76 1.0533089749515057e-02</internalNodes>
          <leafValues>
            7.8639373183250427e-02 -8.7494897842407227e-01</leafValues></_>
        <_>
          <internalNodes>
            0 -1 144 -1.0908027179539204e-02</internalNodes>
          <leafValues>
            3.8766944408416748e-01 -1.9400654733181000e-01</leafValues></_></weakClassifiers></_>
    <!-- stage 8 -->
    <_>
      <maxWeakCount>15</maxWeakCount>
      <stageThreshold>-1.5623160600662231e+00</stageThreshold>
      <weakClassifiers>
        <_>
          <internalNodes>
            0 -1 83 -6.5573647618293762e-02</internalNodes>
          <leafValues>
            4.1176471114158630e-01 -8.0417042970657349e-01</leafValues></_>
        <_>
          <internalNodes>
            0 -1 1 4.3312743306159973e-02</internalNodes>
          <leafValues>
            -3.6364564299583435e-01 3.7518310546875000e-01</leafValues></_>
        <_>
          <internalNodes>
            0 -1 160 6.3304556533694267e-03</internalNodes>
          <leafValues>
            6.1796724796295166e-02 -8.7774121761322021e-01</leafValues></_>
        <_>
          <internalNodes>
            0 -1 47 -1.9196517765522003e-02</internalNodes>
          <leafValues>
            -6.9437354803085327e-01 1.0511115193367004e-01</leafValues></_>
        <_>
          <internalNodes>
            0 -1 7 1.2877169065177441e-03</internalNodes>
          <leafValues>
            -3.5528808832168579e-01 2.0805583894252777e-01</leafValues></_>
        <_>
          <internalNodes>
            0 -1 11 -1.0088959243148565e-03</internalNodes>
          <leafValues>
            2.1885512769222260e-01 -2.9093843698501587e-01</leafValues></_>
        <_>
          <internalNodes>
            0 -1 107 4.0572760626673698e-03</internalNodes>
          <leafValues>
            1.3671866059303284e-01 -5.5954986810684204e-01</leafValues></_>
        <_>
          <internalNodes>
            0 -1 30 3.9818690856918693e-04</internalNodes>
          <leafValues>
            -2.4103453755378723e-01 3.3219125866889954e-01</leafValues></_>
        <_>
          <internalNodes>
            0 -1 85 4.3590306304395199e-03</internalNodes>
          <leafValues>
            -1.3033275306224823e-01 5.1435333490371704e-01</leafValues></_>
        <_>
          <internalNodes>
            0 -1 92 -5.2761699771508574e-04</internalNodes>
          <leafValues>
            2.8446650505065918e-01 -2.1787194907665253e-01</leafValues></_>
        <_>
          <internalNodes>
            0 -1 167 -4.6831004321575165e-02</internalNodes>
          <leafValues>
            -7.8780376911163330e-01 6.6628359258174896e-02</leafValues></_>
        <_>
          <internalNodes>
            0 -1 157 -6.4240884967148304e-03</internalNodes>
          <leafValues>
            2.7303901314735413e-01 -2.4967975914478302e-01</leafValues></_>
        <_>
          <internalNodes>
            0 -1 189 2.9839610680937767e-02</internalNodes>
          <leafValues>
            -2.1965113282203674e-01 3.7161749601364136e-01</leafValues></_>
        <_>
          <internalNodes>
            0 -1 24 3.9666024968028069e-03</internalNodes>
          <leafValues>
            -1.3389272987842560e-01 4.9849227070808411e-01</leafValues></_>
        <_>
          <internalNodes>
            0 -1 40 4.3406905606389046e-03</internalNodes>
          <leafValues>
            1.2383978068828583e-01 -5.9697711467742920e-01</leafValues></_></weakClassifiers></_>
    <!-- stage 9 -->
    <_>
      <maxWeakCount>16</maxWeakCount>
      <stageThreshold>-1.4818849563598633e+00</stageThreshold>
      <weakClassifiers>
        <_>
          <internalNodes>
            0 -1 132 -1.3692604377865791e-02</internalNodes>
          <leafValues>
            -6.2500000000000000e-02 -8.0698531866073608e-01</leafValues></_>
        <_>
          <internalNodes>
            0 -1 57 -5.6189849972724915e-02</internalNodes>
          <leafValues>
            -1. -2.2521749138832092e-01</leafValues></_>
        <_>
          <internalNodes>
            0 -1 110 1.0484213009476662e-02</internalNodes>
          <leafValues>
            1.0214238613843918e-01 -5.7566368579864502e-01</leafValues></_>
        <_>
          <internalNodes>
            0 -1 46 -2.1001284942030907e-02</internalNodes>
          <leafValues>
            -4.7698813676834106e-01 1.2037274986505508e-01</leafValues></_>
        <_>
          <internalNodes>
            0 -1 44 -7.7842024620622396e-04</internalNodes>
          <leafValues>
            2.4288955330848694e-01 -2.7220344543457031e-01</leafValues></_>
        <_>
          <internalNodes>
            0 -1 64 2.2828407585620880e-02</internalNodes>
          <leafValues>
            -1.7315553128719330e-01 4.7399732470512390e-01</leafValues></_>
        <_>
          <internalNodes>
            0 -1 102 6.3910502940416336e-03</internalNodes>
          <leafValues>
            8.7045609951019287e-02 -9.3856769800186157e-01</leafValues></_>
        <_>
          <internalNodes>
            0 -1 100 1.2627296382561326e-04</internalNodes>
          <leafValues>
            -2.7334794402122498e-01 2.1019193530082703e-01</leafValues></_>
        <_>
          <internalNodes>
            0 -1 169 -5.6439184118062258e-04</internalNodes>
          <leafValues>
            3.1098818778991699e-01 -1.9357828795909882e-01</leafValues></_>
        <_>
          <internalNodes>
            0 -1 192 -1.4468033332377672e-03</internalNodes>
          <leafValues>
            -7.6029723882675171e-01 7.8958190977573395e-02</leafValues></_>
        <_>
          <internalNodes>
            0 -1 191 2.0654737018048763e-03</internalNodes>
          <leafValues>
            -2.0001751184463501e-01 3.3481198549270630e-01</leafValues></_>
        <_>
          <internalNodes>
            0 -1 194 -3.0444355215877295e-03</internalNodes>
          <leafValues>
            -7.0275527238845825e-01 9.0031653642654419e-02</leafValues></_>
        <_>
          <internalNodes>
            0 -1 31 8.5252216085791588e-03</internalNodes>
          <leafValues>
            6.6073864698410034e-02 -7.8811675310134888e-01</leafValues></_>
        <_>
          <internalNodes>
            0 -1 0 8.8595901615917683e-04</internalNodes>
          <leafValues>
            -1.7709031701087952e-01 3.8486588001251221e-01</leafValues></_>
        <_>
          <internalNodes>
            0 -1 70 1.2604755349457264e-02</internalNodes>
          <leafValues>
            1.1338955163955688e-01 -5.6190425157546997e-01</leafValues></_>
        <_>
          <internalNodes>
            0 -1 89 2.3074904456734657e-03</internalNodes>
          <leafValues>
            -2.4790945649147034e-01 2.7236926555633545e-01</leafValues></_></weakClassifiers></_>
    <!-- stage 10 -->
    <_>
      <maxWeakCount>15</maxWeakCount>
      <stageThreshold>-1.4503537416458130e+00</stageThreshold>
      <weakClassifiers>
        <_>
          <internalNodes>
            0 -1 2 -9.3063578009605408e-02</internalNodes>
          <leafValues>
            3.8461539149284363e-01 -7.9945796728134155e-01</leafValues></_>
        <_>
          <internalNodes>
            0 -1 197 1.1552579962881282e-04</internalNodes>
          <leafValues>
            -4.7021108865737915e-01 -5.0082076340913773e-02</leafValues></_>
        <_>
          <internalNodes>
            0 -1 106 6.7386645823717117e-03</internalNodes>
          <leafValues>
            5.0270602107048035e-02 -8.6220288276672363e-01</leafValues></_>
        <_>
          <internalNodes>
            0 -1 217 9.8465243354439735e-05</internalNodes>
          <leafValues>
            -2.4535810947418213e-01 2.4873021245002747e-01</leafValues></_>
        <_>
          <internalNodes>
            0 -1 172 -1.9353508250787854e-03</internalNodes>
          <leafValues>
            2.3974318802356720e-01 -2.5453132390975952e-01</leafValues></_>
        <_>
          <internalNodes>
            0 -1 162 -4.1153561323881149e-04</internalNodes>
          <leafValues>
            2.8240919113159180e-01 -2.2673010826110840e-01</leafValues></_>
        <_>
          <internalNodes>
            0 -1 63 -1.8554299604147673e-03</internalNodes>
          <leafValues>
            -3.4511986374855042e-01 1.9141244888305664e-01</leafValues></_>
        <_>
          <internalNodes>
            0 -1 211 -1.0373364057159051e-04</internalNodes>
          <leafValues>
            2.4698561429977417e-01 -2.4471612274646759e-01</leafValues></_>
        <_>
          <internalNodes>
            0 -1 43 -4.4248439371585846e-02</internalNodes>
          <leafValues>
            -9.0070813894271851e-01 4.8713348805904388e-02</leafValues></_>
        <_>
          <internalNodes>
            0 -1 171 -4.0307976305484772e-03</internalNodes>
          <leafValues>
            2.1827480196952820e-01 -2.7723929286003113e-01</leafValues></_>
        <_>
          <internalNodes>
            0 -1 187 9.6226185560226440e-03</internalNodes>
          <leafValues>
            -1.7256382107734680e-01 3.6326116323471069e-01</leafValues></_>
        <_>
          <internalNodes>
            0 -1 210 1.2540046009235084e-04</internalNodes>
          <leafValues>
            -2.3118004202842712e-01 2.6300689578056335e-01</leafValues></_>
        <_>
          <internalNodes>
            0 -1 19 1.7827309202402830e-03</internalNodes>
          <leafValues>
            -2.3269350826740265e-01 2.6948010921478271e-01</leafValues></_>
        <_>
          <internalNodes>
            0 -1 54 -6.0928803868591785e-03</internalNodes>
          <leafValues>
            -6.7772841453552246e-01 9.4542764127254486e-02</leafValues></_>
        <_>
          <internalNodes>
            0 -1 91 1.4761252328753471e-02</internalNodes>
          <leafValues>
            6.5298236906528473e-02 -7.5960004329681396e-01</leafValues></_></weakClassifiers></_>
    <!-- stage 11 -->
    <_>
      <maxWeakCount>14</maxWeakCount>
      <stageThreshold>-1.5368524789810181e+00</stageThreshold>
      <weakClassifiers>
        <_>
          <internalNodes>
            0 -1 135 2.9177444055676460e-02</internalNodes>
          <leafValues>
            -8.0327868461608887e-01 9.0909093618392944e-02</leafValues></_>
        <_>
          <internalNodes>
            0 -1 123 -5.4877309594303370e-04</internalNodes>
          <leafValues>
            -6.8300890922546387e-01 -1.4412011206150055e-01</leafValues></_>
        <_>
          <internalNodes>
            0 -1 203 2.3915437050163746e-03</internalNodes>
          <leafValues>
            2.5672975927591324e-02 -1.</leafValues></_>
        <_>
          <internalNodes>
            0 -1 216 2.2165360860526562e-03</internalNodes>
          <leafValues>
            8.5636235773563385e-02 -6.9569152593612671e-01</leafValues></_>
        <_>
          <internalNodes>
            0 -1 36 -4.4315694831311703e-03</internalNodes>
          <leafValues>
            -8.0691671371459961e-01 6.8540602922439575e-02</leafValues></_>
        <_>
          <internalNodes>
            0 -1 222 -1.0603284463286400e-03</internalNodes>
          <leafValues>
            2.9903212189674377e-01 -1.9096559286117554e-01</leafValues></_>
        <_>
          <internalNodes>
            0 -1 200 -1.7280913889408112e-03</internalNodes>
          <leafValues>
            3.7018680572509766e-01 -1.9740499556064606e-01</leafValues></_>
        <_>
          <internalNodes>
            0 -1 174 1.2546051584649831e-04</internalNodes>
          <leafValues>
            -2.8223231434822083e-01 2.1845656633377075e-01</leafValues></_>
        <_>
          <internalNodes>
            0 -1 37 4.7421142458915710e-02</internalNodes>
          <leafValues>
            1.0297632217407227e-01 -5.9365016222000122e-01</leafValues></_>
        <_>
          <internalNodes>
            0 -1 129 -4.4525414705276489e-04</internalNodes>
          <leafValues>
            3.0996274948120117e-01 -2.3752801120281219e-01</leafValues></_>
        <_>
          <internalNodes>
            0 -1 48 -3.3308327198028564e-02</internalNodes>
          <leafValues>
            -7.1119076013565063e-01 9.9635154008865356e-02</leafValues></_>
        <_>
          <internalNodes>
            0 -1 9 1.0013153776526451e-02</internalNodes>
          <leafValues>
            -2.1876251697540283e-01 3.0513963103294373e-01</leafValues></_>
        <_>
          <internalNodes>
            0 -1 164 8.8880036491900682e-04</internalNodes>
          <leafValues>
            -2.3162692785263062e-01 3.1793361902236938e-01</leafValues></_>
        <_>
          <internalNodes>
            0 -1 183 -3.2289470545947552e-03</internalNodes>
          <leafValues>
            5.3951311111450195e-01 -1.3729678094387054e-01</leafValues></_></weakClassifiers></_>
    <!-- stage 12 -->
    <_>
      <maxWeakCount>15</maxWeakCount>
      <stageThreshold>-1.5351529121398926e+00</stageThreshold>
      <weakClassifiers>
        <_>
          <internalNodes>
            0 -1 8 3.7944000214338303e-02</internalNodes>
          <leafValues>
            -7.9819822311401367e-01 6.0000002384185791e-01</leafValues></_>
        <_>
          <internalNodes>
            0 -1 126 7.0071951486170292e-03</internalNodes>
          <leafValues>
            -3.7843301892280579e-01 2.5975236296653748e-01</leafValues></_>
        <_>
          <internalNodes>
            0 -1 90 3.9089270867407322e-03</internalNodes>
          <leafValues>
            8.4814757108688354e-02 -5.4740297794342041e-01</leafValues></_>
        <_>
          <internalNodes>
            0 -1 155 -2.6742874179035425e-03</internalNodes>
          <leafValues>
            2.0910148322582245e-01 -2.8333213925361633e-01</leafValues></_>
        <_>
          <internalNodes>
            0 -1 101 -3.3220984041690826e-02</internalNodes>
          <leafValues>
            -6.7213445901870728e-01 1.0474179685115814e-01</leafValues></_>
        <_>
          <internalNodes>
            0 -1 17 -1.3599501550197601e-01</internalNodes>
          <leafValues>
            2.6232573390007019e-01 -2.8579673171043396e-01</leafValues></_>
        <_>
          <internalNodes>
            0 -1 42 -2.1790780592709780e-03</internalNodes>
          <leafValues>
            -3.3281451463699341e-01 1.7769901454448700e-01</leafValues></_>
        <_>
          <internalNodes>
            0 -1 145 3.6735325120389462e-03</internalNodes>
          <leafValues>
            1.7010770738124847e-01 -3.3355462551116943e-01</leafValues></_>
        <_>
          <internalNodes>
            0 -1 202 8.0415448173880577e-03</internalNodes>
          <leafValues>
            1.2732127308845520e-01 -6.1206316947937012e-01</leafValues></_>
        <_>
          <internalNodes>
            0 -1 137 5.7868342846632004e-03</internalNodes>
          <leafValues>
            -3.2131004333496094e-01 1.9074289500713348e-01</leafValues></_>
        <_>
          <internalNodes>
            0 -1 65 -4.1166234761476517e-02</internalNodes>
          <leafValues>
            7.0222282409667969e-01 -1.0740802437067032e-01</leafValues></_>
        <_>
          <internalNodes>
            0 -1 120 -2.1212710998952389e-03</internalNodes>
          <leafValues>
            -5.7234102487564087e-01 1.2468473613262177e-01</leafValues></_>
        <_>
          <internalNodes>
            0 -1 117 -6.3575685024261475e-02</internalNodes>
          <leafValues>
            -3.1981530785560608e-01 2.0366309583187103e-01</leafValues></_>
        <_>
          <internalNodes>
            0 -1 130 -1.3203728944063187e-02</internalNodes>
          <leafValues>
            4.9784785509109497e-01 -1.4813968539237976e-01</leafValues></_>
        <_>
          <internalNodes>
            0 -1 185 -1.0068421252071857e-03</internalNodes>
          <leafValues>
            3.0859419703483582e-01 -2.1809929609298706e-01</leafValues></_></weakClassifiers></_>
    <!-- stage 13 -->
    <_>
      <maxWeakCount>15</maxWeakCount>
      <stageThreshold>-1.4019043445587158e+00</stageThreshold>
      <weakClassifiers>
        <_>
          <internalNodes>
            0 -1 116 -1.2213704176247120e-02</internalNodes>
          <leafValues>
            5.5555558204650879e-01 -7.9657965898513794e-01</leafValues></_>
        <_>
          <internalNodes>
            0 -1 177 -4.1405963711440563e-03</internalNodes>
          <leafValues>
            2.0258238911628723e-01 -4.1613224148750305e-01</leafValues></_>
        <_>
          <internalNodes>
            0 -1 213 -1.5447802841663361e-02</internalNodes>
          <leafValues>
            1.8957440555095673e-01 -3.1531053781509399e-01</leafValues></_>
        <_>
          <internalNodes>
            0 -1 20 -1.4369575679302216e-01</internalNodes>
          <leafValues>
            5.3076952695846558e-01 -1.2906727194786072e-01</leafValues></_>
        <_>
          <internalNodes>
            0 -1 59 -9.7003544215112925e-04</internalNodes>
          <leafValues>
            -4.7011628746986389e-01 1.8153868615627289e-01</leafValues></_>
        <_>
          <internalNodes>
            0 -1 147 -2.4957355111837387e-02</internalNodes>
          <leafValues>
            -9.0762996673583984e-01 8.2606196403503418e-02</leafValues></_>
        <_>
          <internalNodes>
            0 -1 77 3.5593151114881039e-03</internalNodes>
          <leafValues>
            8.9551977813243866e-02 -7.0356076955795288e-01</leafValues></_>
        <_>
          <internalNodes>
            0 -1 14 -7.7827805653214455e-03</internalNodes>
          <leafValues>
            4.8835846781730652e-01 -1.4796979725360870e-01</leafValues></_>
        <_>
          <internalNodes>
            0 -1 151 -1.2345912400633097e-03</internalNodes>
          <leafValues>
            3.1307324767112732e-01 -2.1344055235385895e-01</leafValues></_>
        <_>
          <internalNodes>
            0 -1 128 -1.4095282182097435e-02</internalNodes>
          <leafValues>
            -3.3083581924438477e-01 1.9623921811580658e-01</leafValues></_>
        <_>
          <internalNodes>
            0 -1 51 -1.4392457902431488e-01</internalNodes>
          <leafValues>
            6.4523333311080933e-01 -1.5849944949150085e-01</leafValues></_>
        <_>
          <internalNodes>
            0 -1 225 3.0999120324850082e-02</internalNodes>
          <leafValues>
            -7.5697652995586395e-02 7.0740419626235962e-01</leafValues></_>
        <_>
          <internalNodes>
            0 -1 5 -4.9918144941329956e-03</internalNodes>
          <leafValues>
            7.5327020883560181e-01 -8.1268265843391418e-02</leafValues></_>
        <_>
          <internalNodes>
            0 -1 142 -8.7898719357326627e-04</internalNodes>
          <leafValues>
            3.9213904738426208e-01 -1.7326733469963074e-01</leafValues></_>
        <_>
          <internalNodes>
            0 -1 207 7.6977082062512636e-04</internalNodes>
          <leafValues>
            -2.4777916073799133e-01 3.1437245011329651e-01</leafValues></_></weakClassifiers></_>
    <!-- stage 14 -->
    <_>
      <maxWeakCount>14</maxWeakCount>
      <stageThreshold>-1.4701902866363525e+00</stageThreshold>
      <weakClassifiers>
        <_>
          <internalNodes>
            0 -1 33 5.7243090122938156e-02</internalNodes>
          <leafValues>
            -7.9856115579605103e-01 1.</leafValues></_>
        <_>
          <internalNodes>
            0 -1 22 -3.2453306019306183e-02</internalNodes>
          <leafValues>
            2.7873408794403076e-01 -3.7935248017311096e-01</leafValues></_>
        <_>
          <internalNodes>
            0 -1 66 2.0577521063387394e-03</internalNodes>
          <leafValues>
            -3.2618421316146851e-01 1.7983962595462799e-01</leafValues></_>
        <_>
          <internalNodes>
            0 -1 149 8.9963339269161224e-03</internalNodes>
          <leafValues>
            1.6212044656276703e-01 -3.7107694149017334e-01</leafValues></_>
        <_>
          <internalNodes>
            0 -1 74 3.0613350681960583e-03</internalNodes>
          <leafValues>
            1.1245773732662201e-01 -8.3282715082168579e-01</leafValues></_>
        <_>
          <internalNodes>
            0 -1 25 -2.2798809222877026e-03</internalNodes>
          <leafValues>
            3.0149379372596741e-01 -2.1574217081069946e-01</leafValues></_>
        <_>
          <internalNodes>
            0 -1 206 -1.5716527123004198e-03</internalNodes>
          <leafValues>
            -7.5776982307434082e-01 1.1657436937093735e-01</leafValues></_>
        <_>
          <internalNodes>
            0 -1 61 7.3244869709014893e-03</internalNodes>
          <leafValues>
            -2.2580027580261230e-01 3.4568053483963013e-01</leafValues></_>
        <_>
          <internalNodes>
            0 -1 182 -3.6456901580095291e-04</internalNodes>
          <leafValues>
            3.6560225486755371e-01 -1.6098195314407349e-01</leafValues></_>
        <_>
          <internalNodes>
            0 -1 39 1.7483539413660765e-03</internalNodes>
          <leafValues>
            8.5766427218914032e-02 -7.0475023984909058e-01</leafValues></_>
        <_>
          <internalNodes>
            0 -1 3 3.1692627817392349e-03</internalNodes>
          <leafValues>
            -1.9199945032596588e-01 3.8204821944236755e-01</leafValues></_>
        <_>
          <internalNodes>
            0 -1 75 2.8295854572206736e-03</internalNodes>
          <leafValues>
            8.4921449422836304e-02 -8.6889427900314331e-01</leafValues></_>
        <_>
          <internalNodes>
            0 -1 204 -6.4909807406365871e-04</internalNodes>
          <leafValues>
            -5.4131239652633667e-01 1.0009593516588211e-01</leafValues></_>
        <_>
          <internalNodes>
            0 -1 201 -7.9796649515628815e-03</internalNodes>
          <leafValues>
            3.0594685673713684e-01 -2.3591688275337219e-01</leafValues></_></weakClassifiers></_>
    <!-- stage 15 -->
    <_>
      <maxWeakCount>16</maxWeakCount>
      <stageThreshold>-1.5745441913604736e+00</stageThreshold>
      <weakClassifiers>
        <_>
          <internalNodes>
            0 -1 127 -1.0901356115937233e-02</internalNodes>
          <leafValues>
            1. -7.9856115579605103e-01</leafValues></_>
        <_>
          <internalNodes>
            0 -1 176 -2.9582399874925613e-03</internalNodes>
          <leafValues>
            -7.5080984830856323e-01 -1.2901790440082550e-01</leafValues></_>
        <_>
          <internalNodes>
            0 -1 68 -2.3593511432409286e-02</internalNodes>
          <leafValues>
            -2.9204416275024414e-01 2.0918715000152588e-01</leafValues></_>
        <_>
          <internalNodes>
            0 -1 224 3.6287046968936920e-02</internalNodes>
          <leafValues>
            -1.1409670859575272e-01 5.3326356410980225e-01</leafValues></_>
        <_>
          <internalNodes>
            0 -1 221 1.2693268945440650e-04</internalNodes>
          <leafValues>
            3.1237444281578064e-01 -2.6163187623023987e-01</leafValues></_>
        <_>
          <internalNodes>
            0 -1 119 8.2253385335206985e-03</internalNodes>
          <leafValues>
            -1.0590045154094696e-01 7.7078860998153687e-01</leafValues></_>
        <_>
          <internalNodes>
            0 -1 170 2.4174959398806095e-03</internalNodes>
          <leafValues>
            -1.5442349016666412e-01 4.3008586764335632e-01</leafValues></_>
        <_>
          <internalNodes>
            0 -1 56 9.9457446485757828e-03</internalNodes>
          <leafValues>
            1.1371272057294846e-01 -8.0422407388687134e-01</leafValues></_>
        <_>
          <internalNodes>
            0 -1 96 3.9803534746170044e-03</internalNodes>
          <leafValues>
            -1.9482526183128357e-01 4.1847792267799377e-01</leafValues></_>
        <_>
          <internalNodes>
            0 -1 214 6.9054453633725643e-03</internalNodes>
          <leafValues>
            -1.5381680428981781e-01 4.8514321446418762e-01</leafValues></_>
        <_>
          <internalNodes>
            0 -1 79 9.4532908406108618e-05</internalNodes>
          <leafValues>
            -2.8027471899986267e-01 2.6710245013237000e-01</leafValues></_>
        <_>
          <internalNodes>
            0 -1 113 -2.2213442716747522e-03</internalNodes>
          <leafValues>
            -3.9596226811408997e-01 2.0460501313209534e-01</leafValues></_>
        <_>
          <internalNodes>
            0 -1 13 -2.8543029911816120e-03</internalNodes>
          <leafValues>
            4.1163828969001770e-01 -2.4215127527713776e-01</leafValues></_>
        <_>
          <internalNodes>
            0 -1 41 2.5334418751299381e-04</internalNodes>
          <leafValues>
            -2.8773459792137146e-01 3.6473947763442993e-01</leafValues></_>
        <_>
          <internalNodes>
            0 -1 34 1.0964373126626015e-02</internalNodes>
          <leafValues>
            -1.0251345485448837e-01 8.0233794450759888e-01</leafValues></_>
        <_>
          <internalNodes>
            0 -1 105 1.0927540279226378e-04</internalNodes>
          <leafValues>
            -3.3571702241897583e-01 2.3936499655246735e-01</leafValues></_></weakClassifiers></_>
    <!-- stage 16 -->
    <_>
      <maxWeakCount>10</maxWeakCount>
      <stageThreshold>-1.4574246406555176e+00</stageThreshold>
      <weakClassifiers>
        <_>
          <internalNodes>
            0 -1 72 -7.3449332267045975e-03</internalNodes>
          <leafValues>
            1. -8.0831825733184814e-01</leafValues></_>
        <_>
          <internalNodes>
            0 -1 196 2.7096763253211975e-02</internalNodes>
          <leafValues>
            -3.9024361968040466e-01 6.3008224964141846e-01</leafValues></_>
        <_>
          <internalNodes>
            0 -1 148 8.4786082152277231e-04</internalNodes>
          <leafValues>
            2.7271082997322083e-01 -3.6805638670921326e-01</leafValues></_>
        <_>
          <internalNodes>
            0 -1 115 3.1536638736724854e-02</internalNodes>
          <leafValues>
            -1.6453395783901215e-01 5.4742765426635742e-01</leafValues></_>
        <_>
          <internalNodes>
            0 -1 55 6.0199364088475704e-04</internalNodes>
          <leafValues>
            -2.2628803551197052e-01 4.7527202963829041e-01</leafValues></_>
        <_>
          <internalNodes>
            0 -1 53 6.4960433519445360e-05</internalNodes>
          <leafValues>
            -2.8051376342773438e-01 3.6699318885803223e-01</leafValues></_>
        <_>
          <internalNodes>
            0 -1 6 -2.7783727273344994e-03</internalNodes>
          <leafValues>
            5.1497459411621094e-01 -1.8062421679496765e-01</leafValues></_>
        <_>
          <internalNodes>
            0 -1 215 1.6666421433910728e-03</internalNodes>
          <leafValues>
            -2.4911054968833923e-01 6.2536931037902832e-01</leafValues></_>
        <_>
          <internalNodes>
            0 -1 10 -4.4699432328343391e-03</internalNodes>
          <leafValues>
            5.9379100799560547e-01 -1.9145822525024414e-01</leafValues></_>
        <_>
          <internalNodes>
            0 -1 193 2.6167207397520542e-03</internalNodes>
          <leafValues>
            2.2900497913360596e-01 -5.8811187744140625e-01</leafValues></_></weakClassifiers></_>
    <!-- stage 17 -->
    <_>
      <maxWeakCount>10</maxWeakCount>
      <stageThreshold>-1.6452422142028809e+00</stageThreshold>
      <weakClassifiers>
        <_>
          <internalNodes>
            0 -1 158 1.5110121108591557e-02</internalNodes>
          <leafValues>
            -8.2648402452468872e-01 1.</leafValues></_>
        <_>
          <internalNodes>
            0 -1 180 -5.8140205219388008e-03</internalNodes>
          <leafValues>
            -5.3036803007125854e-01 5.3096079826354980e-01</leafValues></_>
        <_>
          <internalNodes>
            0 -1 15 2.2624649573117495e-03</internalNodes>
          <leafValues>
            3.7765431404113770e-01 -5.3942227363586426e-01</leafValues></_>
        <_>
          <internalNodes>
            0 -1 16 2.5861840695142746e-03</internalNodes>
          <leafValues>
            -3.1760051846504211e-01 6.2217903137207031e-01</leafValues></_>
        <_>
          <internalNodes>
            0 -1 153 -1.2657719664275646e-02</internalNodes>
          <leafValues>
            -4.7339272499084473e-01 4.1967704892158508e-01</leafValues></_>
        <_>
          <internalNodes>
            0 -1 190 4.2901671258732677e-04</internalNodes>
          <leafValues>
            5.9154534339904785e-01 -3.8099089264869690e-01</leafValues></_>
        <_>
          <internalNodes>
            0 -1 198 -4.1914158500730991e-03</internalNodes>
          <leafValues>
            8.0481326580047607e-01 -2.8201937675476074e-01</leafValues></_>
        <_>
          <internalNodes>
            0 -1 80 -2.1160728647373617e-04</internalNodes>
          <leafValues>
            5.3043425083160400e-01 -3.6586147546768188e-01</leafValues></_>
        <_>
          <internalNodes>
            0 -1 152 -2.4841342121362686e-02</internalNodes>
          <leafValues>
            -3.7720265984535217e-01 5.7220709323883057e-01</leafValues></_>
        <_>
          <internalNodes>
            0 -1 122 5.9622357366606593e-04</internalNodes>
          <leafValues>
            -3.1380191445350647e-01 7.0870369672775269e-01</leafValues></_></weakClassifiers></_>
    <!-- stage 18 -->
    <_>
      <maxWeakCount>4</maxWeakCount>
      <stageThreshold>-1.3002429008483887e+00</stageThreshold>
      <weakClassifiers>
        <_>
          <internalNodes>
            0 -1 143 -9.0067535638809204e-03</internalNodes>
          <leafValues>
            -9.1204589605331421e-01 1.</leafValues></_>
        <_>
          <internalNodes>
            0 -1 27 -1.2911409139633179e-03</internalNodes>
          <leafValues>
            1. -8.2989740371704102e-01</leafValues></_>
        <_>
          <internalNodes>
            0 -1 111 -4.0818257257342339e-03</internalNodes>
          <leafValues>
            -5.5829966068267822e-01 1.</leafValues></_>
        <_>
          <internalNodes>
            0 -1 104 -1.2392996577546000e-03</internalNodes>
          <leafValues>
            -5.0285029411315918e-01 1.</leafValues></_></weakClassifiers></_></stages>
  <features>
    <_>
      <rects>
        <_>
          0 0 1 2 -1.</_>
        <_>
          0 1 1 1 2.</_></rects>
      <tilted>0</tilted></_>
    <_>
      <rects>
        <_>
          0 0 1 24 -1.</_>
        <_>
          0 12 1 12 2.</_></rects>
      <tilted>0</tilted></_>
    <_>
      <rects>
        <_>
          0 0 2 22 -1.</_>
        <_>
          0 11 2 11 2.</_></rects>
      <tilted>0</tilted></_>
    <_>
      <rects>
        <_>
          0 3 2 8 -1.</_>
        <_>
          0 3 1 4 2.</_>
        <_>
          1 7 1 4 2.</_></rects>
      <tilted>0</tilted></_>
    <_>
      <rects>
        <_>
          0 3 4 19 -1.</_>
        <_>
          2 3 2 19 2.</_></rects>
      <tilted>0</tilted></_>
    <_>
      <rects>
        <_>
          0 4 1 4 -1.</_>
        <_>
          0 6 1 2 2.</_></rects>
      <tilted>0</tilted></_>
    <_>
      <rects>
        <_>
          0 4 2 10 -1.</_>
        <_>
          1 4 1 10 2.</_></rects>
      <tilted>0</tilted></_>
    <_>
      <rects>
        <_>
          0 4 13 2 -1.</_>
        <_>
          0 5 13 1 2.</_></rects>
      <tilted>0</tilted></_>
    <_>
      <rects>
        <_>
          0 5 18 4 -1.</_>
        <_>
          0 5 9 2 2.</_>
        <_>
          9 7 9 2 2.</_></rects>
      <tilted>0</tilted></_>
    <_>
      <rects>
        <_>
          0 6 6 14 -1.</_>
        <_>
          0 6 3 7 2.</_>
        <_>
          3 13 3 7 2.</_></rects>
      <tilted>0</tilted></_>
    <_>
      <rects>
        <_>
          0 7 2 8 -1.</_>
        <_>
          0 7 1 4 2.</_>
        <_>
          1 11 1 4 2.</_></rects>
      <tilted>0</tilted></_>
    <_>
      <rects>
        <_>
          0 7 6 4 -1.</_>
        <_>
          3 7 3 4 2.</_></rects>
      <tilted>0</tilted></_>
    <_>
      <rects>
        <_>
          0 10 20 14 -1.</_>
        <_>
          0 10 10 7 2.</_>
        <_>
          10 17 10 7 2.</_></rects>
      <tilted>0</tilted></_>
    <_>
      <rects>
        <_>
          0 11 4 4 -1.</_>
        <_>
          0 11 2 2 2.</_>
        <_>
          2 13 2 2 2.</_></rects>
      <tilted>0</tilted></_>
    <_>
      <rects>
        <_>
          0 16 19 2 -1.</_>
        <_>
          0 17 19 1 2.</_></rects>
      <tilted>0</tilted></_>
    <_>
      <rects>
        <_>
          0 17 15 2 -1.</_>
        <_>
          0 18 15 1 2.</_></rects>
      <tilted>0</tilted></_>
    <_>
      <rects>
        <_>
          0 20 20 2 -1.</_>
        <_>
          0 21 20 1 2.</_></rects>
      <tilted>0</tilted></_>
    <_>
      <rects>
        <_>
          0 22 24 2 -1.</_>
        <_>
          8 22 8 2 2.</_></rects>
      <tilted>0</tilted></_>
    <_>
      <rects>
        <_>
          1 0 19 10 -1.</_>
        <_>
          1 5 19 5 2.</_></rects>
      <tilted>0</tilted></_>
    <_>
      <rects>
        <_>
          1 1 4 5 -1.</_>
        <_>
          3 1 2 5 2.</_></rects>
      <tilted>0</tilted></_>
    <_>
      <rects>
        <_>
          1 1 23 18 -1.</_>
        <_>
          1 10 23 9 2.</_></rects>
      <tilted>0</tilted></_>
    <_>
      <rects>
        <_>
          1 2 1 20 -1.</_>
        <_>
          1 12 1 10 2.</_></rects>
      <tilted>0</tilted></_>
    <_>
      <rects>
        <_>
          1 2 4 20 -1.</_>
        <_>
          1 2 2 10 2.</_>
        <_>
          3 12 2 10 2.</_></rects>
      <tilted>0</tilted></_>
    <_>
      <rects>
        <_>
          1 2 10 2 -1.</_>
        <_>
          1 3 10 1 2.</_></rects>
      <tilted>0</tilted></_>
    <_>
      <rects>
        <_>
          1 3 2 4 -1.</_>
        <_>
          2 3 1 4 2.</_></rects>
      <tilted>0</tilted></_>
    <_>
      <rects>
        <_>
          1 3 2 6 -1.</_>
        <_>
          2 3 1 6 2.</_></rects>
      <tilted>0</tilted></_>
    <_>
      <rects>
        <_>
          1 3 12 19 -1.</_>
        <_>
          7 3 6 19 2.</_></rects>
      <tilted>0</tilted></_>
    <_>
      <rects>
        <_>
          1 4 14 4 -1.</_>
        <_>
          1 4 7 2 2.</_>
        <_>
          8 6 7 2 2.</_></rects>
      <tilted>0</tilted></_>
    <_>
      <rects>
        <_>
          1 5 2 15 -1.</_>
        <_>
          2 5 1 15 2.</_></rects>
      <tilted>0</tilted></_>
    <_>
      <rects>
        <_>
          1 9 16 2 -1.</_>
        <_>
          1 9 8 1 2.</_>
        <_>
          9 10 8 1 2.</_></rects>
      <tilted>0</tilted></_>
    <_>
      <rects>
        <_>
          1 11 2 1 -1.</_>
        <_>
          2 11 1 1 2.</_></rects>
      <tilted>0</tilted></_>
    <_>
      <rects>
        <_>
          1 12 18 2 -1.</_>
        <_>
          1 12 9 1 2.</_>
        <_>
          10 13 9 1 2.</_></rects>
      <tilted>0</tilted></_>
    <_>
      <rects>
        <_>
          1 15 2 2 -1.</_>
        <_>
          1 15 1 1 2.</_>
        <_>
          2 16 1 1 2.</_></rects>
      <tilted>0</tilted></_>
    <_>
      <rects>
        <_>
          1 17 14 4 -1.</_>
        <_>
          8 17 7 4 2.</_></rects>
      <tilted>0</tilted></_>
    <_>
      <rects>
        <_>
          1 23 16 1 -1.</_>
        <_>
          9 23 8 1 2.</_></rects>
      <tilted>0</tilted></_>
    <_>
      <rects>
        <_>
          2 1 2 8 -1.</_>
        <_>
          2 1 1 4 2.</_>
        <_>
          3 5 1 4 2.</_></rects>
      <tilted>0</tilted></_>
    <_>
      <rects>
        <_>
          2 3 2 4 -1.</_>
        <_>
          2 3 1 2 2.</_>
        <_>
          3 5 1 2 2.</_></rects>
      <tilted>0</tilted></_>
    <_>
      <rects>
        <_>
          2 3 8 19 -1.</_>
        <_>
          6 3 4 19 2.</_></rects>
      <tilted>0</tilted></_>
    <_>
      <rects>
        <_>
          2 3 14 4 -1.</_>
        <_>
          2 3 7 2 2.</_>
        <_>
          9 5 7 2 2.</_></rects>
      <tilted>0</tilted></_>
    <_>
      <rects>
        <_>
          2 9 2 2 -1.</_>
        <_>
          2 9 1 1 2.</_>
        <_>
          3 10 1 1 2.</_></rects>
      <tilted>0</tilted></_>
    <_>
      <rects>
        <_>
          2 11 18 2 -1.</_>
        <_>
          2 11 9 1 2.</_>
        <_>
          11 12 9 1 2.</_></rects>
      <tilted>0</tilted></_>
    <_>
      <rects>
        <_>
          2 12 2 2 -1.</_>
        <_>
          2 13 2 1 2.</_></rects>
      <tilted>0</tilted></_>
    <_>
      <rects>
        <_>
          2 16 4 4 -1.</_>
        <_>
          4 16 2 4 2.</_></rects>
      <tilted>0</tilted></_>
    <_>
      <rects>
        <_>
          2 16 13 6 -1.</_>
        <_>
          2 19 13 3 2.</_></rects>
      <tilted>0</tilted></_>
    <_>
      <rects>
        <_>
          2 21 21 2 -1.</_>
        <_>
          2 22 21 1 2.</_></rects>
      <tilted>0</tilted></_>
    <_>
      <rects>
        <_>
          3 0 19 24 -1.</_>
        <_>
          3 8 19 8 2.</_></rects>
      <tilted>0</tilted></_>
    <_>
      <rects>
        <_>
          3 1 8 8 -1.</_>
        <_>
          7 1 4 8 2.</_></rects>
      <tilted>0</tilted></_>
    <_>
      <rects>
        <_>
          3 3 20 4 -1.</_>
        <_>
          3 3 10 2 2.</_>
        <_>
          13 5 10 2 2.</_></rects>
      <tilted>0</tilted></_>
    <_>
      <rects>
        <_>
          3 4 10 6 -1.</_>
        <_>
          8 4 5 6 2.</_></rects>
      <tilted>0</tilted></_>
    <_>
      <rects>
        <_>
          3 4 21 20 -1.</_>
        <_>
          10 4 7 20 2.</_></rects>
      <tilted>0</tilted></_>
    <_>
      <rects>
        <_>
          3 6 2 10 -1.</_>
        <_>
          3 6 1 5 2.</_>
        <_>
          4 11 1 5 2.</_></rects>
      <tilted>0</tilted></_>
    <_>
      <rects>
        <_>
          3 8 16 14 -1.</_>
        <_>
          11 8 8 14 2.</_></rects>
      <tilted>0</tilted></_>
    <_>
      <rects>
        <_>
          3 8 13 4 -1.</_>
        <_>
          3 10 13 2 2.</_></rects>
      <tilted>0</tilted></_>
    <_>
      <rects>
        <_>
          3 12 2 2 -1.</_>
        <_>
          3 12 1 1 2.</_>
        <_>
          4 13 1 1 2.</_></rects>
      <tilted>0</tilted></_>
    <_>
      <rects>
        <_>
          3 16 14 2 -1.</_>
        <_>
          3 16 7 1 2.</_>
        <_>
          10 17 7 1 2.</_></rects>
      <tilted>0</tilted></_>
    <_>
      <rects>
        <_>
          3 20 3 2 -1.</_>
        <_>
          3 21 3 1 2.</_></rects>
      <tilted>0</tilted></_>
    <_>
      <rects>
        <_>
          4 0 2 16 -1.</_>
        <_>
          4 0 1 8 2.</_>
        <_>
          5 8 1 8 2.</_></rects>
      <tilted>0</tilted></_>
    <_>
      <rects>
        <_>
          4 1 8 18 -1.</_>
        <_>
          4 1 4 9 2.</_>
        <_>
          8 10 4 9 2.</_></rects>
      <tilted>0</tilted></_>
    <_>
      <rects>
        <_>
          4 3 16 4 -1.</_>
        <_>
          4 3 8 2 2.</_>
        <_>
          12 5 8 2 2.</_></rects>
      <tilted>0</tilted></_>
    <_>
      <rects>
        <_>
          4 6 5 2 -1.</_>
        <_>
          4 7 5 1 2.</_></rects>
      <tilted>0</tilted></_>
    <_>
      <rects>
        <_>
          4 9 6 4 -1.</_>
        <_>
          6 9 2 4 2.</_></rects>
      <tilted>0</tilted></_>
    <_>
      <rects>
        <_>
          4 9 8 8 -1.</_>
        <_>
          4 9 4 4 2.</_>
        <_>
          8 13 4 4 2.</_></rects>
      <tilted>0</tilted></_>
    <_>
      <rects>
        <_>
          4 11 2 4 -1.</_>
        <_>
          5 11 1 4 2.</_></rects>
      <tilted>0</tilted></_>
    <_>
      <rects>
        <_>
          4 18 16 2 -1.</_>
        <_>
          4 18 8 1 2.</_>
        <_>
          12 19 8 1 2.</_></rects>
      <tilted>0</tilted></_>
    <_>
      <rects>
        <_>
          4 20 14 4 -1.</_>
        <_>
          4 22 14 2 2.</_></rects>
      <tilted>0</tilted></_>
    <_>
      <rects>
        <_>
          5 1 6 12 -1.</_>
        <_>
          5 7 6 6 2.</_></rects>
      <tilted>0</tilted></_>
    <_>
      <rects>
        <_>
          5 2 3 6 -1.</_>
        <_>
          5 5 3 3 2.</_></rects>
      <tilted>0</tilted></_>
    <_>
      <rects>
        <_>
          5 2 5 8 -1.</_>
        <_>
          5 6 5 4 2.</_></rects>
      <tilted>0</tilted></_>
    <_>
      <rects>
        <_>
          5 2 16 22 -1.</_>
        <_>
          5 2 8 11 2.</_>
        <_>
          13 13 8 11 2.</_></rects>
      <tilted>0</tilted></_>
    <_>
      <rects>
        <_>
          5 3 2 2 -1.</_>
        <_>
          5 4 2 1 2.</_></rects>
      <tilted>0</tilted></_>
    <_>
      <rects>
        <_>
          5 3 14 6 -1.</_>
        <_>
          5 3 7 3 2.</_>
        <_>
          12 6 7 3 2.</_></rects>
      <tilted>0</tilted></_>
    <_>
      <rects>
        <_>
          5 3 7 10 -1.</_>
        <_>
          5 8 7 5 2.</_></rects>
      <tilted>0</tilted></_>
    <_>
      <rects>
        <_>
          5 4 4 2 -1.</_>
        <_>
          7 4 2 2 2.</_></rects>
      <tilted>0</tilted></_>
    <_>
      <rects>
        <_>
          5 4 2 6 -1.</_>
        <_>
          5 6 2 2 2.</_></rects>
      <tilted>0</tilted></_>
    <_>
      <rects>
        <_>
          5 6 2 2 -1.</_>
        <_>
          5 7 2 1 2.</_></rects>
      <tilted>0</tilted></_>
    <_>
      <rects>
        <_>
          5 9 2 2 -1.</_>
        <_>
          5 10 2 1 2.</_></rects>
      <tilted>0</tilted></_>
    <_>
      <rects>
        <_>
          5 9 5 4 -1.</_>
        <_>
          5 11 5 2 2.</_></rects>
      <tilted>0</tilted></_>
    <_>
      <rects>
        <_>
          5 16 8 2 -1.</_>
        <_>
          5 16 4 1 2.</_>
        <_>
          9 17 4 1 2.</_></rects>
      <tilted>0</tilted></_>
    <_>
      <rects>
        <_>
          5 19 18 2 -1.</_>
        <_>
          5 19 9 1 2.</_>
        <_>
          14 20 9 1 2.</_></rects>
      <tilted>0</tilted></_>
    <_>
      <rects>
        <_>
          6 0 1 2 -1.</_>
        <_>
          6 1 1 1 2.</_></rects>
      <tilted>0</tilted></_>
    <_>
      <rects>
        <_>
          6 1 2 9 -1.</_>
        <_>
          7 1 1 9 2.</_></rects>
      <tilted>0</tilted></_>
    <_>
      <rects>
        <_>
          6 1 2 2 -1.</_>
        <_>
          6 2 2 1 2.</_></rects>
      <tilted>0</tilted></_>
    <_>
      <rects>
        <_>
          6 1 4 6 -1.</_>
        <_>
          6 4 4 3 2.</_></rects>
      <tilted>0</tilted></_>
    <_>
      <rects>
        <_>
          6 1 15 6 -1.</_>
        <_>
          6 4 15 3 2.</_></rects>
      <tilted>0</tilted></_>
    <_>
      <rects>
        <_>
          6 3 2 4 -1.</_>
        <_>
          6 3 1 2 2.</_>
        <_>
          7 5 1 2 2.</_></rects>
      <tilted>0</tilted></_>
    <_>
      <rects>
        <_>
          6 8 2 6 -1.</_>
        <_>
          6 8 1 3 2.</_>
        <_>
          7 11 1 3 2.</_></rects>
      <tilted>0</tilted></_>
    <_>
      <rects>
        <_>
          6 8 8 12 -1.</_>
        <_>
          6 8 4 6 2.</_>
        <_>
          10 14 4 6 2.</_></rects>
      <tilted>0</tilted></_>
    <_>
      <rects>
        <_>
          6 8 10 6 -1.</_>
        <_>
          6 8 5 3 2.</_>
        <_>
          11 11 5 3 2.</_></rects>
      <tilted>0</tilted></_>
    <_>
      <rects>
        <_>
          6 8 10 5 -1.</_>
        <_>
          11 8 5 5 2.</_></rects>
      <tilted>0</tilted></_>
    <_>
      <rects>
        <_>
          6 8 6 4 -1.</_>
        <_>
          6 10 6 2 2.</_></rects>
      <tilted>0</tilted></_>
    <_>
      <rects>
        <_>
          6 14 12 2 -1.</_>
        <_>
          6 14 6 1 2.</_>
        <_>
          12 15 6 1 2.</_></rects>
      <tilted>0</tilted></_>
    <_>
      <rects>
        <_>
          6 16 8 3 -1.</_>
        <_>
          10 16 4 3 2.</_></rects>
      <tilted>0</tilted></_>
    <_>
      <rects>
        <_>
          6 20 2 2 -1.</_>
        <_>
          7 20 1 2 2.</_></rects>
      <tilted>0</tilted></_>
    <_>
      <rects>
        <_>
          7 4 2 19 -1.</_>
        <_>
          8 4 1 19 2.</_></rects>
      <tilted>0</tilted></_>
    <_>
      <rects>
        <_>
          7 8 14 2 -1.</_>
        <_>
          7 9 14 1 2.</_></rects>
      <tilted>0</tilted></_>
    <_>
      <rects>
        <_>
          7 9 8 10 -1.</_>
        <_>
          7 14 8 5 2.</_></rects>
      <tilted>0</tilted></_>
    <_>
      <rects>
        <_>
          7 10 2 12 -1.</_>
        <_>
          7 10 1 6 2.</_>
        <_>
          8 16 1 6 2.</_></rects>
      <tilted>0</tilted></_>
    <_>
      <rects>
        <_>
          7 11 10 1 -1.</_>
        <_>
          12 11 5 1 2.</_></rects>
      <tilted>0</tilted></_>
    <_>
      <rects>
        <_>
          7 13 5 8 -1.</_>
        <_>
          7 17 5 4 2.</_></rects>
      <tilted>0</tilted></_>
    <_>
      <rects>
        <_>
          7 13 9 6 -1.</_>
        <_>
          7 16 9 3 2.</_></rects>
      <tilted>0</tilted></_>
    <_>
      <rects>
        <_>
          7 15 3 2 -1.</_>
        <_>
          7 16 3 1 2.</_></rects>
      <tilted>0</tilted></_>
    <_>
      <rects>
        <_>
          7 16 3 3 -1.</_>
        <_>
          7 17 3 1 2.</_></rects>
      <tilted>0</tilted></_>
    <_>
      <rects>
        <_>
          7 17 10 2 -1.</_>
        <_>
          7 17 5 1 2.</_>
        <_>
          12 18 5 1 2.</_></rects>
      <tilted>0</tilted></_>
    <_>
      <rects>
        <_>
          8 1 4 2 -1.</_>
        <_>
          8 2 4 1 2.</_></rects>
      <tilted>0</tilted></_>
    <_>
      <rects>
        <_>
          8 2 4 5 -1.</_>
        <_>
          10 2 2 5 2.</_></rects>
      <tilted>0</tilted></_>
    <_>
      <rects>
        <_>
          8 3 3 2 -1.</_>
        <_>
          8 4 3 1 2.</_></rects>
      <tilted>0</tilted></_>
    <_>
      <rects>
        <_>
          8 3 8 1 -1.</_>
        <_>
          12 3 4 1 2.</_></rects>
      <tilted>0</tilted></_>
    <_>
      <rects>
        <_>
          8 3 12 2 -1.</_>
        <_>
          8 3 6 1 2.</_>
        <_>
          14 4 6 1 2.</_></rects>
      <tilted>0</tilted></_>
    <_>
      <rects>
        <_>
          8 8 12 4 -1.</_>
        <_>
          8 8 6 2 2.</_>
        <_>
          14 10 6 2 2.</_></rects>
      <tilted>0</tilted></_>
    <_>
      <rects>
        <_>
          8 13 2 3 -1.</_>
        <_>
          9 13 1 3 2.</_></rects>
      <tilted>0</tilted></_>
    <_>
      <rects>
        <_>
          8 13 14 4 -1.</_>
        <_>
          8 15 14 2 2.</_></rects>
      <tilted>0</tilted></_>
    <_>
      <rects>
        <_>
          8 13 16 4 -1.</_>
        <_>
          8 15 16 2 2.</_></rects>
      <tilted>0</tilted></_>
    <_>
      <rects>
        <_>
          8 17 2 1 -1.</_>
        <_>
          9 17 1 1 2.</_></rects>
      <tilted>0</tilted></_>
    <_>
      <rects>
        <_>
          9 0 8 1 -1.</_>
        <_>
          13 0 4 1 2.</_></rects>
      <tilted>0</tilted></_>
    <_>
      <rects>
        <_>
          9 1 14 4 -1.</_>
        <_>
          9 3 14 2 2.</_></rects>
      <tilted>0</tilted></_>
    <_>
      <rects>
        <_>
          9 3 14 6 -1.</_>
        <_>
          9 6 14 3 2.</_></rects>
      <tilted>0</tilted></_>
    <_>
      <rects>
        <_>
          9 5 4 4 -1.</_>
        <_>
          9 5 2 2 2.</_>
        <_>
          11 7 2 2 2.</_></rects>
      <tilted>0</tilted></_>
    <_>
      <rects>
        <_>
          9 7 3 8 -1.</_>
        <_>
          10 7 1 8 2.</_></rects>
      <tilted>0</tilted></_>
    <_>
      <rects>
        <_>
          9 9 2 3 -1.</_>
        <_>
          10 9 1 3 2.</_></rects>
      <tilted>0</tilted></_>
    <_>
      <rects>
        <_>
          9 9 2 10 -1.</_>
        <_>
          9 9 1 5 2.</_>
        <_>
          10 14 1 5 2.</_></rects>
      <tilted>0</tilted></_>
    <_>
      <rects>
        <_>
          9 14 6 2 -1.</_>
        <_>
          9 14 3 1 2.</_>
        <_>
          12 15 3 1 2.</_></rects>
      <tilted>0</tilted></_>
    <_>
      <rects>
        <_>
          10 0 1 6 -1.</_>
        <_>
          10 3 1 3 2.</_></rects>
      <tilted>0</tilted></_>
    <_>
      <rects>
        <_>
          10 2 4 2 -1.</_>
        <_>
          10 2 2 1 2.</_>
        <_>
          12 3 2 1 2.</_></rects>
      <tilted>0</tilted></_>
    <_>
      <rects>
        <_>
          10 2 6 2 -1.</_>
        <_>
          10 3 6 1 2.</_></rects>
      <tilted>0</tilted></_>
    <_>
      <rects>
        <_>
          10 2 7 8 -1.</_>
        <_>
          10 6 7 4 2.</_></rects>
      <tilted>0</tilted></_>
    <_>
      <rects>
        <_>
          10 3 2 6 -1.</_>
        <_>
          10 6 2 3 2.</_></rects>
      <tilted>0</tilted></_>
    <_>
      <rects>
        <_>
          10 4 2 16 -1.</_>
        <_>
          11 4 1 16 2.</_></rects>
      <tilted>0</tilted></_>
    <_>
      <rects>
        <_>
          10 4 12 2 -1.</_>
        <_>
          10 4 6 1 2.</_>
        <_>
          16 5 6 1 2.</_></rects>
      <tilted>0</tilted></_>
    <_>
      <rects>
        <_>
          10 5 6 17 -1.</_>
        <_>
          13 5 3 17 2.</_></rects>
      <tilted>0</tilted></_>
    <_>
      <rects>
        <_>
          10 6 2 1 -1.</_>
        <_>
          11 6 1 1 2.</_></rects>
      <tilted>0</tilted></_>
    <_>
      <rects>
        <_>
          10 6 4 14 -1.</_>
        <_>
          10 6 2 7 2.</_>
        <_>
          12 13 2 7 2.</_></rects>
      <tilted>0</tilted></_>
    <_>
      <rects>
        <_>
          10 8 8 11 -1.</_>
        <_>
          14 8 4 11 2.</_></rects>
      <tilted>0</tilted></_>
    <_>
      <rects>
        <_>
          10 12 2 9 -1.</_>
        <_>
          11 12 1 9 2.</_></rects>
      <tilted>0</tilted></_>
    <_>
      <rects>
        <_>
          10 12 12 10 -1.</_>
        <_>
          10 17 12 5 2.</_></rects>
      <tilted>0</tilted></_>
    <_>
      <rects>
        <_>
          10 18 2 6 -1.</_>
        <_>
          10 18 1 3 2.</_>
        <_>
          11 21 1 3 2.</_></rects>
      <tilted>0</tilted></_>
    <_>
      <rects>
        <_>
          10 20 5 4 -1.</_>
        <_>
          10 22 5 2 2.</_></rects>
      <tilted>0</tilted></_>
    <_>
      <rects>
        <_>
          11 0 1 6 -1.</_>
        <_>
          11 2 1 2 2.</_></rects>
      <tilted>0</tilted></_>
    <_>
      <rects>
        <_>
          11 3 7 8 -1.</_>
        <_>
          11 7 7 4 2.</_></rects>
      <tilted>0</tilted></_>
    <_>
      <rects>
        <_>
          11 9 2 2 -1.</_>
        <_>
          11 10 2 1 2.</_></rects>
      <tilted>0</tilted></_>
    <_>
      <rects>
        <_>
          11 13 2 2 -1.</_>
        <_>
          12 13 1 2 2.</_></rects>
      <tilted>0</tilted></_>
    <_>
      <rects>
        <_>
          11 16 12 8 -1.</_>
        <_>
          11 20 12 4 2.</_></rects>
      <tilted>0</tilted></_>
    <_>
      <rects>
        <_>
          11 17 2 2 -1.</_>
        <_>
          11 17 1 1 2.</_>
        <_>
          12 18 1 1 2.</_></rects>
      <tilted>0</tilted></_>
    <_>
      <rects>
        <_>
          11 22 3 2 -1.</_>
        <_>
          11 23 3 1 2.</_></rects>
      <tilted>0</tilted></_>
    <_>
      <rects>
        <_>
          12 0 8 24 -1.</_>
        <_>
          12 0 4 12 2.</_>
        <_>
          16 12 4 12 2.</_></rects>
      <tilted>0</tilted></_>
    <_>
      <rects>
        <_>
          12 2 4 14 -1.</_>
        <_>
          12 2 2 7 2.</_>
        <_>
          14 9 2 7 2.</_></rects>
      <tilted>0</tilted></_>
    <_>
      <rects>
        <_>
          12 3 12 2 -1.</_>
        <_>
          18 3 6 2 2.</_></rects>
      <tilted>0</tilted></_>
    <_>
      <rects>
        <_>
          12 3 9 8 -1.</_>
        <_>
          12 7 9 4 2.</_></rects>
      <tilted>0</tilted></_>
    <_>
      <rects>
        <_>
          12 4 10 3 -1.</_>
        <_>
          17 4 5 3 2.</_></rects>
      <tilted>0</tilted></_>
    <_>
      <rects>
        <_>
          12 4 12 2 -1.</_>
        <_>
          12 4 6 1 2.</_>
        <_>
          18 5 6 1 2.</_></rects>
      <tilted>0</tilted></_>
    <_>
      <rects>
        <_>
          12 5 6 19 -1.</_>
        <_>
          15 5 3 19 2.</_></rects>
      <tilted>0</tilted></_>
    <_>
      <rects>
        <_>
          12 6 3 10 -1.</_>
        <_>
          12 11 3 5 2.</_></rects>
      <tilted>0</tilted></_>
    <_>
      <rects>
        <_>
          12 7 2 7 -1.</_>
        <_>
          13 7 1 7 2.</_></rects>
      <tilted>0</tilted></_>
    <_>
      <rects>
        <_>
          12 8 3 3 -1.</_>
        <_>
          13 8 1 3 2.</_></rects>
      <tilted>0</tilted></_>
    <_>
      <rects>
        <_>
          12 9 5 8 -1.</_>
        <_>
          12 13 5 4 2.</_></rects>
      <tilted>0</tilted></_>
    <_>
      <rects>
        <_>
          12 15 8 2 -1.</_>
        <_>
          12 15 4 1 2.</_>
        <_>
          16 16 4 1 2.</_></rects>
      <tilted>0</tilted></_>
    <_>
      <rects>
        <_>
          12 16 5 6 -1.</_>
        <_>
          12 19 5 3 2.</_></rects>
      <tilted>0</tilted></_>
    <_>
      <rects>
        <_>
          13 0 8 4 -1.</_>
        <_>
          13 2 8 2 2.</_></rects>
      <tilted>0</tilted></_>
    <_>
      <rects>
        <_>
          13 2 10 10 -1.</_>
        <_>
          18 2 5 10 2.</_></rects>
      <tilted>0</tilted></_>
    <_>
      <rects>
        <_>
          13 5 6 14 -1.</_>
        <_>
          13 5 3 7 2.</_>
        <_>
          16 12 3 7 2.</_></rects>
      <tilted>0</tilted></_>
    <_>
      <rects>
        <_>
          13 6 2 2 -1.</_>
        <_>
          14 6 1 2 2.</_></rects>
      <tilted>0</tilted></_>
    <_>
      <rects>
        <_>
          13 7 10 2 -1.</_>
        <_>
          13 7 5 1 2.</_>
        <_>
          18 8 5 1 2.</_></rects>
      <tilted>0</tilted></_>
    <_>
      <rects>
        <_>
          13 10 1 4 -1.</_>
        <_>
          13 12 1 2 2.</_></rects>
      <tilted>0</tilted></_>
    <_>
      <rects>
        <_>
          13 19 2 1 -1.</_>
        <_>
          14 19 1 1 2.</_></rects>
      <tilted>0</tilted></_>
    <_>
      <rects>
        <_>
          13 20 3 3 -1.</_>
        <_>
          13 21 3 1 2.</_></rects>
      <tilted>0</tilted></_>
    <_>
      <rects>
        <_>
          14 0 2 2 -1.</_>
        <_>
          14 1 2 1 2.</_></rects>
      <tilted>0</tilted></_>
    <_>
      <rects>
        <_>
          14 0 3 6 -1.</_>
        <_>
          14 2 3 2 2.</_></rects>
      <tilted>0</tilted></_>
    <_>
      <rects>
        <_>
          14 0 3 10 -1.</_>
        <_>
          14 5 3 5 2.</_></rects>
      <tilted>0</tilted></_>
    <_>
      <rects>
        <_>
          14 1 6 21 -1.</_>
        <_>
          17 1 3 21 2.</_></rects>
      <tilted>0</tilted></_>
    <_>
      <rects>
        <_>
          14 8 2 5 -1.</_>
        <_>
          15 8 1 5 2.</_></rects>
      <tilted>0</tilted></_>
    <_>
      <rects>
        <_>
          14 10 2 1 -1.</_>
        <_>
          15 10 1 1 2.</_></rects>
      <tilted>0</tilted></_>
    <_>
      <rects>
        <_>
          14 11 1 8 -1.</_>
        <_>
          14 15 1 4 2.</_></rects>
      <tilted>0</tilted></_>
    <_>
      <rects>
        <_>
          14 14 10 6 -1.</_>
        <_>
          14 17 10 3 2.</_></rects>
      <tilted>0</tilted></_>
    <_>
      <rects>
        <_>
          14 18 6 6 -1.</_>
        <_>
          14 21 6 3 2.</_></rects>
      <tilted>0</tilted></_>
    <_>
      <rects>
        <_>
          15 0 9 4 -1.</_>
        <_>
          15 2 9 2 2.</_></rects>
      <tilted>0</tilted></_>
    <_>
      <rects>
        <_>
          15 1 1 2 -1.</_>
        <_>
          15 2 1 1 2.</_></rects>
      <tilted>0</tilted></_>
    <_>
      <rects>
        <_>
          15 2 2 2 -1.</_>
        <_>
          16 2 1 2 2.</_></rects>
      <tilted>0</tilted></_>
    <_>
      <rects>
        <_>
          15 3 3 4 -1.</_>
        <_>
          15 5 3 2 2.</_></rects>
      <tilted>0</tilted></_>
    <_>
      <rects>
        <_>
          15 4 2 10 -1.</_>
        <_>
          15 4 1 5 2.</_>
        <_>
          16 9 1 5 2.</_></rects>
      <tilted>0</tilted></_>
    <_>
      <rects>
        <_>
          15 20 2 4 -1.</_>
        <_>
          15 20 1 2 2.</_>
        <_>
          16 22 1 2 2.</_></rects>
      <tilted>0</tilted></_>
    <_>
      <rects>
        <_>
          15 23 9 1 -1.</_>
        <_>
          18 23 3 1 2.</_></rects>
      <tilted>0</tilted></_>
    <_>
      <rects>
        <_>
          16 2 3 1 -1.</_>
        <_>
          17 2 1 1 2.</_></rects>
      <tilted>0</tilted></_>
    <_>
      <rects>
        <_>
          16 5 3 12 -1.</_>
        <_>
          16 11 3 6 2.</_></rects>
      <tilted>0</tilted></_>
    <_>
      <rects>
        <_>
          16 13 1 2 -1.</_>
        <_>
          16 14 1 1 2.</_></rects>
      <tilted>0</tilted></_>
    <_>
      <rects>
        <_>
          16 18 2 4 -1.</_>
        <_>
          17 18 1 4 2.</_></rects>
      <tilted>0</tilted></_>
    <_>
      <rects>
        <_>
          16 18 4 2 -1.</_>
        <_>
          16 18 2 1 2.</_>
        <_>
          18 19 2 1 2.</_></rects>
      <tilted>0</tilted></_>
    <_>
      <rects>
        <_>
          16 20 3 4 -1.</_>
        <_>
          16 22 3 2 2.</_></rects>
      <tilted>0</tilted></_>
    <_>
      <rects>
        <_>
          17 0 3 2 -1.</_>
        <_>
          17 1 3 1 2.</_></rects>
      <tilted>0</tilted></_>
    <_>
      <rects>
        <_>
          17 0 6 8 -1.</_>
        <_>
          17 0 3 4 2.</_>
        <_>
          20 4 3 4 2.</_></rects>
      <tilted>0</tilted></_>
    <_>
      <rects>
        <_>
          17 5 2 6 -1.</_>
        <_>
          17 5 1 3 2.</_>
        <_>
          18 8 1 3 2.</_></rects>
      <tilted>0</tilted></_>
    <_>
      <rects>
        <_>
          17 7 6 15 -1.</_>
        <_>
          20 7 3 15 2.</_></rects>
      <tilted>0</tilted></_>
    <_>
      <rects>
        <_>
          17 9 4 3 -1.</_>
        <_>
          19 9 2 3 2.</_></rects>
      <tilted>0</tilted></_>
    <_>
      <rects>
        <_>
          17 16 2 6 -1.</_>
        <_>
          18 16 1 6 2.</_></rects>
      <tilted>0</tilted></_>
    <_>
      <rects>
        <_>
          17 19 2 2 -1.</_>
        <_>
          17 19 1 1 2.</_>
        <_>
          18 20 1 1 2.</_></rects>
      <tilted>0</tilted></_>
    <_>
      <rects>
        <_>
          17 19 6 2 -1.</_>
        <_>
          17 19 3 1 2.</_>
        <_>
          20 20 3 1 2.</_></rects>
      <tilted>0</tilted></_>
    <_>
      <rects>
        <_>
          17 22 4 2 -1.</_>
        <_>
          17 23 4 1 2.</_></rects>
      <tilted>0</tilted></_>
    <_>
      <rects>
        <_>
          18 2 2 7 -1.</_>
        <_>
          19 2 1 7 2.</_></rects>
      <tilted>0</tilted></_>
    <_>
      <rects>
        <_>
          18 2 4 10 -1.</_>
        <_>
          20 2 2 10 2.</_></rects>
      <tilted>0</tilted></_>
    <_>
      <rects>
        <_>
          18 3 1 2 -1.</_>
        <_>
          18 4 1 1 2.</_></rects>
      <tilted>0</tilted></_>
    <_>
      <rects>
        <_>
          18 11 6 6 -1.</_>
        <_>
          18 11 3 3 2.</_>
        <_>
          21 14 3 3 2.</_></rects>
      <tilted>0</tilted></_>
    <_>
      <rects>
        <_>
          18 12 6 12 -1.</_>
        <_>
          21 12 3 12 2.</_></rects>
      <tilted>0</tilted></_>
    <_>
      <rects>
        <_>
          18 14 2 6 -1.</_>
        <_>
          18 14 1 3 2.</_>
        <_>
          19 17 1 3 2.</_></rects>
      <tilted>0</tilted></_>
    <_>
      <rects>
        <_>
          18 16 6 6 -1.</_>
        <_>
          18 19 6 3 2.</_></rects>
      <tilted>0</tilted></_>
    <_>
      <rects>
        <_>
          19 6 1 12 -1.</_>
        <_>
          19 12 1 6 2.</_></rects>
      <tilted>0</tilted></_>
    <_>
      <rects>
        <_>
          19 17 2 2 -1.</_>
        <_>
          19 17 1 1 2.</_>
        <_>
          20 18 1 1 2.</_></rects>
      <tilted>0</tilted></_>
    <_>
      <rects>
        <_>
          19 18 1 2 -1.</_>
        <_>
          19 19 1 1 2.</_></rects>
      <tilted>0</tilted></_>
    <_>
      <rects>
        <_>
          19 20 4 2 -1.</_>
        <_>
          21 20 2 2 2.</_></rects>
      <tilted>0</tilted></_>
    <_>
      <rects>
        <_>
          20 3 2 2 -1.</_>
        <_>
          20 3 1 1 2.</_>
        <_>
          21 4 1 1 2.</_></rects>
      <tilted>0</tilted></_>
    <_>
      <rects>
        <_>
          20 3 4 1 -1.</_>
        <_>
          22 3 2 1 2.</_></rects>
      <tilted>0</tilted></_>
    <_>
      <rects>
        <_>
          20 5 4 18 -1.</_>
        <_>
          22 5 2 18 2.</_></rects>
      <tilted>0</tilted></_>
    <_>
      <rects>
        <_>
          20 6 4 18 -1.</_>
        <_>
          22 6 2 18 2.</_></rects>
      <tilted>0</tilted></_>
    <_>
      <rects>
        <_>
          20 7 1 2 -1.</_>
        <_>
          20 8 1 1 2.</_></rects>
      <tilted>0</tilted></_>
    <_>
      <rects>
        <_>
          20 11 2 1 -1.</_>
        <_>
          21 11 1 1 2.</_></rects>
      <tilted>0</tilted></_>
    <_>
      <rects>
        <_>
          20 14 4 4 -1.</_>
        <_>
          22 14 2 4 2.</_></rects>
      <tilted>0</tilted></_>
    <_>
      <rects>
        <_>
          20 16 3 2 -1.</_>
        <_>
          21 16 1 2 2.</_></rects>
      <tilted>0</tilted></_>
    <_>
      <rects>
        <_>
          20 16 4 8 -1.</_>
        <_>
          20 16 2 4 2.</_>
        <_>
          22 20 2 4 2.</_></rects>
      <tilted>0</tilted></_>
    <_>
      <rects>
        <_>
          20 18 2 4 -1.</_>
        <_>
          20 18 1 2 2.</_>
        <_>
          21 20 1 2 2.</_></rects>
      <tilted>0</tilted></_>
    <_>
      <rects>
        <_>
          21 4 2 2 -1.</_>
        <_>
          21 5 2 1 2.</_></rects>
      <tilted>0</tilted></_>
    <_>
      <rects>
        <_>
          22 0 1 2 -1.</_>
        <_>
          22 1 1 1 2.</_></rects>
      <tilted>0</tilted></_>
    <_>
      <rects>
        <_>
          22 1 2 3 -1.</_>
        <_>
          22 2 2 1 2.</_></rects>
      <tilted>0</tilted></_>
    <_>
      <rects>
        <_>
          22 8 2 9 -1.</_>
        <_>
          23 8 1 9 2.</_></rects>
      <tilted>0</tilted></_>
    <_>
      <rects>
        <_>
          22 9 2 14 -1.</_>
        <_>
          22 9 1 7 2.</_>
        <_>
          23 16 1 7 2.</_></rects>
      <tilted>0</tilted></_>
    <_>
      <rects>
        <_>
          22 10 2 4 -1.</_>
        <_>
          22 12 2 2 2.</_></rects>
      <tilted>0</tilted></_>
    <_>
      <rects>
        <_>
          22 11 1 4 -1.</_>
        <_>
          22 13 1 2 2.</_></rects>
      <tilted>0</tilted></_>
    <_>
      <rects>
        <_>
          22 12 2 1 -1.</_>
        <_>
          23 12 1 1 2.</_></rects>
      <tilted>0</tilted></_>
    <_>
      <rects>
        <_>
          23 1 1 20 -1.</_>
        <_>
          23 11 1 10 2.</_></rects>
      <tilted>0</tilted></_>
    <_>
      <rects>
        <_>
          23 5 1 16 -1.</_>
        <_>
          23 13 1 8 2.</_></rects>
      <tilted>0</tilted></_></features></cascade>
</opencv_storage>
