<?xml version="1.0"?>
<opencv_storage>
<stage16>
  <maxWeakCount>10</maxWeakCount>
  <stageThreshold>-1.4574246406555176e+00</stageThreshold>
  <weakClassifiers>
    <_>
      <internalNodes>
        0 -1 63640 -7.3449332267045975e-03</internalNodes>
      <leafValues>
        1. -8.0831825733184814e-01</leafValues></_>
    <_>
      <internalNodes>
        0 -1 152532 2.7096763253211975e-02</internalNodes>
      <leafValues>
        -3.9024361968040466e-01 6.3008224964141846e-01</leafValues></_>
    <_>
      <internalNodes>
        0 -1 123697 8.4786082152277231e-04</internalNodes>
      <leafValues>
        2.7271082997322083e-01 -3.6805638670921326e-01</leafValues></_>
    <_>
      <internalNodes>
        0 -1 101105 3.1536638736724854e-02</internalNodes>
      <leafValues>
        -1.6453395783901215e-01 5.4742765426635742e-01</leafValues></_>
    <_>
      <internalNodes>
        0 -1 49167 6.0199364088475704e-04</internalNodes>
      <leafValues>
        -2.2628803551197052e-01 4.7527202963829041e-01</leafValues></_>
    <_>
      <internalNodes>
        0 -1 46576 6.4960433519445360e-05</internalNodes>
      <leafValues>
        -2.8051376342773438e-01 3.6699318885803223e-01</leafValues></_>
    <_>
      <internalNodes>
        0 -1 4122 -2.7783727273344994e-03</internalNodes>
      <leafValues>
        5.1497459411621094e-01 -1.8062421679496765e-01</leafValues></_>
    <_>
      <internalNodes>
        0 -1 159604 1.6666421433910728e-03</internalNodes>
      <leafValues>
        -2.4911054968833923e-01 6.2536931037902832e-01</leafValues></_>
    <_>
      <internalNodes>
        0 -1 6679 -4.4699432328343391e-03</internalNodes>
      <leafValues>
        5.9379100799560547e-01 -1.9145822525024414e-01</leafValues></_>
    <_>
      <internalNodes>
        0 -1 151761 2.6167207397520542e-03</internalNodes>
      <leafValues>
        2.2900497913360596e-01 -5.8811187744140625e-01</leafValues></_></weakClassifiers></stage16>
</opencv_storage>
