<?xml version="1.0"?>
<opencv_storage>
<stage4>
  <maxWeakCount>25</maxWeakCount>
  <stageThreshold>-8.9417284727096558e-01</stageThreshold>
  <weakClassifiers>
    <_>
      <internalNodes>
        0 -1 133837 3.5451562143862247e-04</internalNodes>
      <leafValues>
        -4.6820810437202454e-01 2.8096675872802734e-01</leafValues></_>
    <_>
      <internalNodes>
        0 -1 61795 4.1633946821093559e-03</internalNodes>
      <leafValues>
        -4.3065193295478821e-01 2.5867906212806702e-01</leafValues></_>
    <_>
      <internalNodes>
        0 -1 106448 -4.0803151205182076e-04</internalNodes>
      <leafValues>
        3.8764566183090210e-01 -2.5442004203796387e-01</leafValues></_>
    <_>
      <internalNodes>
        0 -1 161998 -3.1963852234184742e-04</internalNodes>
      <leafValues>
        4.9936327338218689e-01 -1.9089931249618530e-01</leafValues></_>
    <_>
      <internalNodes>
        0 -1 156412 -4.4929783325642347e-04</internalNodes>
      <leafValues>
        4.8616191744804382e-01 -1.9952920079231262e-01</leafValues></_>
    <_>
      <internalNodes>
        0 -1 102402 -1.9261887297034264e-02</internalNodes>
      <leafValues>
        -5.8045738935470581e-01 2.2035847604274750e-01</leafValues></_>
    <_>
      <internalNodes>
        0 -1 6665 1.2090646196156740e-03</internalNodes>
      <leafValues>
        -2.3109665513038635e-01 5.3283143043518066e-01</leafValues></_>
    <_>
      <internalNodes>
        0 -1 26285 5.6331732776015997e-04</internalNodes>
      <leafValues>
        -2.5153937935829163e-01 3.4972304105758667e-01</leafValues></_>
    <_>
      <internalNodes>
        0 -1 25615 3.2834021840244532e-04</internalNodes>
      <leafValues>
        -2.5330764055252075e-01 3.4914886951446533e-01</leafValues></_>
    <_>
      <internalNodes>
        0 -1 96432 -1.2712215539067984e-03</internalNodes>
      <leafValues>
        5.0653660297393799e-01 -1.7690753936767578e-01</leafValues></_>
    <_>
      <internalNodes>
        0 -1 70551 3.0022786813788116e-04</internalNodes>
      <leafValues>
        -2.2351785004138947e-01 4.0626445412635803e-01</leafValues></_>
    <_>
      <internalNodes>
        0 -1 13639 -4.4078581035137177e-02</internalNodes>
      <leafValues>
        -2.1809042990207672e-01 3.8970541954040527e-01</leafValues></_>
    <_>
      <internalNodes>
        0 -1 148093 5.8630881831049919e-03</internalNodes>
      <leafValues>
        -2.7507358789443970e-01 3.1757956743240356e-01</leafValues></_>
    <_>
      <internalNodes>
        0 -1 161161 -3.2392356661148369e-04</internalNodes>
      <leafValues>
        4.9386152625083923e-01 -2.0467874407768250e-01</leafValues></_>
    <_>
      <internalNodes>
        0 -1 157630 -1.5317710349336267e-03</internalNodes>
      <leafValues>
        4.3675777316093445e-01 -2.0414836704730988e-01</leafValues></_>
    <_>
      <internalNodes>
        0 -1 115515 1.3935955939814448e-04</internalNodes>
      <leafValues>
        -2.2355282306671143e-01 3.7177804112434387e-01</leafValues></_>
    <_>
      <internalNodes>
        0 -1 34914 -4.4358614832162857e-04</internalNodes>
      <leafValues>
        3.6058682203292847e-01 -2.6053518056869507e-01</leafValues></_>
    <_>
      <internalNodes>
        0 -1 13608 -7.3474296368658543e-04</internalNodes>
      <leafValues>
        -2.7999967336654663e-01 3.1962236762046814e-01</leafValues></_>
    <_>
      <internalNodes>
        0 -1 124471 -3.1364172697067261e-02</internalNodes>
      <leafValues>
        -5.8031576871871948e-01 1.7739345133304596e-01</leafValues></_>
    <_>
      <internalNodes>
        0 -1 161789 4.6230317093431950e-04</internalNodes>
      <leafValues>
        -2.1461132168769836e-01 4.3540921807289124e-01</leafValues></_>
    <_>
      <internalNodes>
        0 -1 84001 8.2916960120201111e-02</internalNodes>
      <leafValues>
        1.2792865931987762e-01 -7.1135139465332031e-01</leafValues></_>
    <_>
      <internalNodes>
        0 -1 103219 2.2148553398437798e-04</internalNodes>
      <leafValues>
        -3.6865159869194031e-01 2.8742668032646179e-01</leafValues></_>
    <_>
      <internalNodes>
        0 -1 14143 -6.6996470093727112e-02</internalNodes>
      <leafValues>
        -5.6682252883911133e-01 1.5297552943229675e-01</leafValues></_>
    <_>
      <internalNodes>
        0 -1 120551 -2.3589039221405983e-02</internalNodes>
      <leafValues>
        -7.7221918106079102e-01 1.0928382724523544e-01</leafValues></_>
    <_>
      <internalNodes>
        0 -1 70026 -2.3125940933823586e-03</internalNodes>
      <leafValues>
        2.7822908759117126e-01 -3.1387275457382202e-01</leafValues></_></weakClassifiers></stage4>
</opencv_storage>
