<?xml version="1.0"?>
<opencv_storage>
<stage6>
  <maxWeakCount>30</maxWeakCount>
  <stageThreshold>-1.0659918785095215e+00</stageThreshold>
  <weakClassifiers>
    <_>
      <internalNodes>
        0 -1 487 -8.6386434733867645e-02</internalNodes>
      <leafValues>
        -4.2672413587570190e-01 1.2435232847929001e-01</leafValues></_>
    <_>
      <internalNodes>
        0 -1 12923 -3.2027399539947510e-01</internalNodes>
      <leafValues>
        2.3201669752597809e-01 -3.2258448004722595e-01</leafValues></_>
    <_>
      <internalNodes>
        0 -1 66362 2.6350915431976318e-02</internalNodes>
      <leafValues>
        1.2904559075832367e-01 -4.7130963206291199e-01</leafValues></_>
    <_>
      <internalNodes>
        0 -1 242 -2.2461513057351112e-02</internalNodes>
      <leafValues>
        -2.0131558179855347e-01 3.5166788101196289e-01</leafValues></_>
    <_>
      <internalNodes>
        0 -1 23116 -6.5321981906890869e-02</internalNodes>
      <leafValues>
        -9.1172927618026733e-01 5.6294839829206467e-02</leafValues></_>
    <_>
      <internalNodes>
        0 -1 129010 -1.4845157973468304e-02</internalNodes>
      <leafValues>
        6.8294906616210938e-01 -1.0879824310541153e-01</leafValues></_>
    <_>
      <internalNodes>
        0 -1 65430 6.7567992955446243e-03</internalNodes>
      <leafValues>
        1.2143644690513611e-01 -5.1088601350784302e-01</leafValues></_>
    <_>
      <internalNodes>
        0 -1 62721 1.9415622577071190e-02</internalNodes>
      <leafValues>
        -2.7728286385536194e-01 2.2272276878356934e-01</leafValues></_>
    <_>
      <internalNodes>
        0 -1 90915 -7.8331366181373596e-02</internalNodes>
      <leafValues>
        -7.0523244142532349e-01 9.2820234596729279e-02</leafValues></_>
    <_>
      <internalNodes>
        0 -1 107114 5.2350563928484917e-03</internalNodes>
      <leafValues>
        2.4001249670982361e-01 -2.8720825910568237e-01</leafValues></_>
    <_>
      <internalNodes>
        0 -1 80123 3.2273805700242519e-03</internalNodes>
      <leafValues>
        -1.4310766756534576e-01 4.6124070882797241e-01</leafValues></_>
    <_>
      <internalNodes>
        0 -1 146665 8.7150670588016510e-03</internalNodes>
      <leafValues>
        -9.0363271534442902e-02 6.2800318002700806e-01</leafValues></_>
    <_>
      <internalNodes>
        0 -1 69691 -8.4374640136957169e-03</internalNodes>
      <leafValues>
        -8.7740164995193481e-01 8.2956477999687195e-02</leafValues></_>
    <_>
      <internalNodes>
        0 -1 160141 4.4211064232513309e-04</internalNodes>
      <leafValues>
        -2.3125733435153961e-01 2.5840938091278076e-01</leafValues></_>
    <_>
      <internalNodes>
        0 -1 96828 -1.8607718870043755e-02</internalNodes>
      <leafValues>
        -1.0486660897731781e-01 5.2937388420104980e-01</leafValues></_>
    <_>
      <internalNodes>
        0 -1 77322 -3.6800824454985559e-04</internalNodes>
      <leafValues>
        3.5959970951080322e-01 -1.8041472136974335e-01</leafValues></_>
    <_>
      <internalNodes>
        0 -1 162281 -2.1257180720567703e-02</internalNodes>
      <leafValues>
        4.5979258418083191e-01 -1.5009877085685730e-01</leafValues></_>
    <_>
      <internalNodes>
        0 -1 150955 -1.5614315867424011e-01</internalNodes>
      <leafValues>
        -6.6845530271530151e-01 1.0365509986877441e-01</leafValues></_>
    <_>
      <internalNodes>
        0 -1 38828 9.1225793585181236e-04</internalNodes>
      <leafValues>
        -2.9438474774360657e-01 1.9905863702297211e-01</leafValues></_>
    <_>
      <internalNodes>
        0 -1 49843 -8.6582615971565247e-02</internalNodes>
      <leafValues>
        -7.7983009815216064e-01 6.9958008825778961e-02</leafValues></_>
    <_>
      <internalNodes>
        0 -1 69687 5.6353742256760597e-03</internalNodes>
      <leafValues>
        1.1858098208904266e-01 -4.7032827138900757e-01</leafValues></_>
    <_>
      <internalNodes>
        0 -1 162334 -9.5461215823888779e-03</internalNodes>
      <leafValues>
        3.6176085472106934e-01 -1.8746218085289001e-01</leafValues></_>
    <_>
      <internalNodes>
        0 -1 143874 -5.7955663651227951e-03</internalNodes>
      <leafValues>
        -7.7795445919036865e-01 8.3334386348724365e-02</leafValues></_>
    <_>
      <internalNodes>
        0 -1 2244 2.6072438806295395e-02</internalNodes>
      <leafValues>
        -8.8316492736339569e-02 7.9908698797225952e-01</leafValues></_>
    <_>
      <internalNodes>
        0 -1 93286 -1.5971474349498749e-02</internalNodes>
      <leafValues>
        -4.2686897516250610e-01 1.5515419840812683e-01</leafValues></_>
    <_>
      <internalNodes>
        0 -1 112819 -5.1285838708281517e-03</internalNodes>
      <leafValues>
        7.5919198989868164e-01 -9.6621297299861908e-02</leafValues></_>
    <_>
      <internalNodes>
        0 -1 134646 1.4329240657389164e-03</internalNodes>
      <leafValues>
        -1.8310649693012238e-01 3.4041038155555725e-01</leafValues></_>
    <_>
      <internalNodes>
        0 -1 141843 -1.0851719975471497e-01</internalNodes>
      <leafValues>
        -3.9066991209983826e-01 1.5831670165061951e-01</leafValues></_>
    <_>
      <internalNodes>
        0 -1 161712 -3.6096654366701841e-03</internalNodes>
      <leafValues>
        4.6966114640235901e-01 -1.4780703186988831e-01</leafValues></_>
    <_>
      <internalNodes>
        0 -1 103292 1.8791113048791885e-02</internalNodes>
      <leafValues>
        1.2271413952112198e-01 -5.3322702646255493e-01</leafValues></_></weakClassifiers></stage6>
</opencv_storage>
