<?xml version="1.0"?>
<opencv_storage>
<stage0>
  <maxWeakCount>8</maxWeakCount>
  <stageThreshold>-1.7805398702621460e+00</stageThreshold>
  <weakClassifiers>
    <_>
      <internalNodes>
        0 -1 154493 7.8567005693912506e-02</internalNodes>
      <leafValues>
        -8.2656824588775635e-01 4.4444444775581360e-01</leafValues></_>
    <_>
      <internalNodes>
        0 -1 128434 2.6946482248604298e-03</internalNodes>
      <leafValues>
        -6.8464452028274536e-01 6.5693512558937073e-02</leafValues></_>
    <_>
      <internalNodes>
        0 -1 38883 -1.5781718492507935e+00</internalNodes>
      <leafValues>
        -8.5525208711624146e-01 1.3216616213321686e-01</leafValues></_>
    <_>
      <internalNodes>
        0 -1 161313 -7.4553540907800198e-03</internalNodes>
      <leafValues>
        2.5113907456398010e-01 -9.3893104791641235e-01</leafValues></_>
    <_>
      <internalNodes>
        0 -1 158630 2.1251730620861053e-02</internalNodes>
      <leafValues>
        -3.3033582568168640e-01 5.5136519670486450e-01</leafValues></_>
    <_>
      <internalNodes>
        0 -1 114420 -1.8775813281536102e-02</internalNodes>
      <leafValues>
        -5.9885275363922119e-01 2.2793868184089661e-01</leafValues></_>
    <_>
      <internalNodes>
        0 -1 112782 -1.1399497278034687e-02</internalNodes>
      <leafValues>
        3.4161168336868286e-01 -4.6687796711921692e-01</leafValues></_>
    <_>
      <internalNodes>
        0 -1 24042 -1.2157456949353218e-03</internalNodes>
      <leafValues>
        -8.7620997428894043e-01 1.7202481627464294e-01</leafValues></_></weakClassifiers></stage0>
</opencv_storage>
