<?xml version="1.0"?>
<opencv_storage>
<stage12>
  <maxWeakCount>41</maxWeakCount>
  <stageThreshold>-8.3493351936340332e-01</stageThreshold>
  <weakClassifiers>
    <_>
      <internalNodes>
        0 -1 104603 -5.5042719841003418e-01</internalNodes>
      <leafValues>
        1.0385756939649582e-01 -3.6062377691268921e-01</leafValues></_>
    <_>
      <internalNodes>
        0 -1 98947 -2.3528067395091057e-02</internalNodes>
      <leafValues>
        -3.6401721835136414e-01 1.3905838131904602e-01</leafValues></_>
    <_>
      <internalNodes>
        0 -1 25615 1.3785531045868993e-03</internalNodes>
      <leafValues>
        -1.1263750493526459e-01 3.5437965393066406e-01</leafValues></_>
    <_>
      <internalNodes>
        0 -1 50023 -1.8429905176162720e-02</internalNodes>
      <leafValues>
        -4.2719325423240662e-01 1.0899113863706589e-01</leafValues></_>
    <_>
      <internalNodes>
        0 -1 52386 -1.1205533519387245e-03</internalNodes>
      <leafValues>
        -3.2795551419258118e-01 1.5847602486610413e-01</leafValues></_>
    <_>
      <internalNodes>
        0 -1 103170 5.5069979280233383e-03</internalNodes>
      <leafValues>
        -1.0315300524234772e-01 6.6661024093627930e-01</leafValues></_>
    <_>
      <internalNodes>
        0 -1 154562 -2.0526397973299026e-02</internalNodes>
      <leafValues>
        -5.1097714900970459e-01 9.5702789723873138e-02</leafValues></_>
    <_>
      <internalNodes>
        0 -1 143343 -1.1974157765507698e-02</internalNodes>
      <leafValues>
        2.6566168665885925e-01 -1.5868975222110748e-01</leafValues></_>
    <_>
      <internalNodes>
        0 -1 127932 -1.1149966157972813e-03</internalNodes>
      <leafValues>
        4.5816409587860107e-01 -1.0431958734989166e-01</leafValues></_>
    <_>
      <internalNodes>
        0 -1 161865 -6.4875543117523193e-02</internalNodes>
      <leafValues>
        4.9425828456878662e-01 -8.5610665380954742e-02</leafValues></_>
    <_>
      <internalNodes>
        0 -1 87341 2.3699512239545584e-03</internalNodes>
      <leafValues>
        1.7663311958312988e-01 -2.2721530497074127e-01</leafValues></_>
    <_>
      <internalNodes>
        0 -1 108036 1.4566229656338692e-02</internalNodes>
      <leafValues>
        8.3086237311363220e-02 -5.8375012874603271e-01</leafValues></_>
    <_>
      <internalNodes>
        0 -1 128775 1.7279752064496279e-03</internalNodes>
      <leafValues>
        -2.6949426531791687e-01 1.7599999904632568e-01</leafValues></_>
    <_>
      <internalNodes>
        0 -1 15022 -5.1763370633125305e-02</internalNodes>
      <leafValues>
        5.0591635704040527e-01 -1.0076931118965149e-01</leafValues></_>
    <_>
      <internalNodes>
        0 -1 43612 -9.3294531106948853e-03</internalNodes>
      <leafValues>
        -4.3067714571952820e-01 1.3012805581092834e-01</leafValues></_>
    <_>
      <internalNodes>
        0 -1 49149 -4.9936596769839525e-04</internalNodes>
      <leafValues>
        2.3897574841976166e-01 -2.0257131755352020e-01</leafValues></_>
    <_>
      <internalNodes>
        0 -1 68164 1.0151092428714037e-03</internalNodes>
      <leafValues>
        1.2012656778097153e-01 -3.7474030256271362e-01</leafValues></_>
    <_>
      <internalNodes>
        0 -1 154528 2.4155434221029282e-03</internalNodes>
      <leafValues>
        5.1555752754211426e-02 -7.7112263441085815e-01</leafValues></_>
    <_>
      <internalNodes>
        0 -1 121234 1.1851482558995485e-03</internalNodes>
      <leafValues>
        -9.7797356545925140e-02 4.9901288747787476e-01</leafValues></_>
    <_>
      <internalNodes>
        0 -1 155340 -2.5915498845279217e-03</internalNodes>
      <leafValues>
        2.4383130669593811e-01 -1.7475256323814392e-01</leafValues></_>
    <_>
      <internalNodes>
        0 -1 70058 2.1057603880763054e-03</internalNodes>
      <leafValues>
        6.2997497618198395e-02 -7.0355433225631714e-01</leafValues></_>
    <_>
      <internalNodes>
        0 -1 128494 1.8396532163023949e-02</internalNodes>
      <leafValues>
        -1.2138818949460983e-01 3.6507019400596619e-01</leafValues></_>
    <_>
      <internalNodes>
        0 -1 28805 8.0681443214416504e-03</internalNodes>
      <leafValues>
        1.1367117613554001e-01 -3.3717140555381775e-01</leafValues></_>
    <_>
      <internalNodes>
        0 -1 118645 -4.7025177627801895e-03</internalNodes>
      <leafValues>
        4.2993974685668945e-01 -9.1557949781417847e-02</leafValues></_>
    <_>
      <internalNodes>
        0 -1 153573 3.6502582952380180e-03</internalNodes>
      <leafValues>
        -1.2843349575996399e-01 3.4301546216011047e-01</leafValues></_>
    <_>
      <internalNodes>
        0 -1 44350 2.2061408963054419e-03</internalNodes>
      <leafValues>
        1.1131568253040314e-01 -3.9522212743759155e-01</leafValues></_>
    <_>
      <internalNodes>
        0 -1 103765 -1.6269203275442123e-02</internalNodes>
      <leafValues>
        -5.9014022350311279e-01 6.7613817751407623e-02</leafValues></_>
    <_>
      <internalNodes>
        0 -1 126077 -4.5055011287331581e-03</internalNodes>
      <leafValues>
        5.5966830253601074e-01 -9.2027679085731506e-02</leafValues></_>
    <_>
      <internalNodes>
        0 -1 153560 6.2574693001806736e-03</internalNodes>
      <leafValues>
        8.2307636737823486e-02 -5.8838695287704468e-01</leafValues></_>
    <_>
      <internalNodes>
        0 -1 105319 1.9790758378803730e-03</internalNodes>
      <leafValues>
        1.3474985957145691e-01 -3.1844070553779602e-01</leafValues></_>
    <_>
      <internalNodes>
        0 -1 119924 -1.7577698454260826e-03</internalNodes>
      <leafValues>
        2.8026047348976135e-01 -1.5344837307929993e-01</leafValues></_>
    <_>
      <internalNodes>
        0 -1 93929 1.0428879410028458e-02</internalNodes>
      <leafValues>
        1.3847021758556366e-01 -3.1010210514068604e-01</leafValues></_>
    <_>
      <internalNodes>
        0 -1 151273 4.3707778677344322e-03</internalNodes>
      <leafValues>
        -1.0096468776464462e-01 4.5573452115058899e-01</leafValues></_>
    <_>
      <internalNodes>
        0 -1 35400 -5.6576274335384369e-02</internalNodes>
      <leafValues>
        -6.1224895715713501e-01 6.9436028599739075e-02</leafValues></_>
    <_>
      <internalNodes>
        0 -1 36372 -5.6744352914392948e-03</internalNodes>
      <leafValues>
        -2.5961780548095703e-01 1.7122595012187958e-01</leafValues></_>
    <_>
      <internalNodes>
        0 -1 9179 1.4810233842581511e-03</internalNodes>
      <leafValues>
        1.4869157969951630e-01 -3.1893786787986755e-01</leafValues></_>
    <_>
      <internalNodes>
        0 -1 85285 -1.7758572939783335e-03</internalNodes>
      <leafValues>
        3.6879879236221313e-01 -1.2196679413318634e-01</leafValues></_>
    <_>
      <internalNodes>
        0 -1 130471 -1.1640847660601139e-03</internalNodes>
      <leafValues>
        -3.3549442887306213e-01 1.3696664571762085e-01</leafValues></_>
    <_>
      <internalNodes>
        0 -1 124128 4.9205292016267776e-03</internalNodes>
      <leafValues>
        7.7276326715946198e-02 -5.9756505489349365e-01</leafValues></_>
    <_>
      <internalNodes>
        0 -1 37567 1.0922363726422191e-03</internalNodes>
      <leafValues>
        1.7674723267555237e-01 -2.4043403565883636e-01</leafValues></_>
    <_>
      <internalNodes>
        0 -1 151379 -1.5487109776586294e-03</internalNodes>
      <leafValues>
        -5.0921463966369629e-01 9.7876533865928650e-02</leafValues></_></weakClassifiers></stage12>
</opencv_storage>
