<?xml version="1.0"?>
<opencv_storage>
<stage3>
  <maxWeakCount>8</maxWeakCount>
  <stageThreshold>-1.8008879423141479e+00</stageThreshold>
  <weakClassifiers>
    <_>
      <internalNodes>
        0 -1 113935 2.2036065347492695e-03</internalNodes>
      <leafValues>
        -8.5549736022949219e-01 -3.8181817531585693e-01</leafValues></_>
    <_>
      <internalNodes>
        0 -1 41944 -8.9999413490295410e-01</internalNodes>
      <leafValues>
        -3.7378739565610886e-02 -7.9000556468963623e-01</leafValues></_>
    <_>
      <internalNodes>
        0 -1 161870 -3.7807336775586009e-04</internalNodes>
      <leafValues>
        4.4765785336494446e-01 -3.2038956880569458e-01</leafValues></_>
    <_>
      <internalNodes>
        0 -1 133837 2.7320525259710848e-04</internalNodes>
      <leafValues>
        -3.3319315314292908e-01 3.4655791521072388e-01</leafValues></_>
    <_>
      <internalNodes>
        0 -1 97888 -3.6812946200370789e-04</internalNodes>
      <leafValues>
        4.7432529926300049e-01 -2.4832330644130707e-01</leafValues></_>
    <_>
      <internalNodes>
        0 -1 26827 -2.8771476354449987e-03</internalNodes>
      <leafValues>
        5.7299858331680298e-01 -1.5716427564620972e-01</leafValues></_>
    <_>
      <internalNodes>
        0 -1 119885 -1.2989342212677002e-03</internalNodes>
      <leafValues>
        4.9559414386749268e-01 -2.2797627747058868e-01</leafValues></_>
    <_>
      <internalNodes>
        0 -1 62911 2.5245471624657512e-04</internalNodes>
      <leafValues>
        -3.4453567862510681e-01 3.2267889380455017e-01</leafValues></_></weakClassifiers></stage3>
</opencv_storage>
