<?xml version="1.0"?>
<opencv_storage>
<stage7>
  <maxWeakCount>33</maxWeakCount>
  <stageThreshold>-9.3093270063400269e-01</stageThreshold>
  <weakClassifiers>
    <_>
      <internalNodes>
        0 -1 154171 -1.7434588074684143e-01</internalNodes>
      <leafValues>
        1.4209115505218506e-01 -4.2557650804519653e-01</leafValues></_>
    <_>
      <internalNodes>
        0 -1 10618 -1.9833836704492569e-02</internalNodes>
      <leafValues>
        6.1554896831512451e-01 -9.6932135522365570e-02</leafValues></_>
    <_>
      <internalNodes>
        0 -1 89683 -1.2509386579040438e-04</internalNodes>
      <leafValues>
        2.5935950875282288e-01 -2.0506785809993744e-01</leafValues></_>
    <_>
      <internalNodes>
        0 -1 98777 4.8218399286270142e-02</internalNodes>
      <leafValues>
        1.0058972984552383e-01 -5.8472186326980591e-01</leafValues></_>
    <_>
      <internalNodes>
        0 -1 14412 3.1192111968994141e-01</internalNodes>
      <leafValues>
        -1.4537073671817780e-01 4.6259400248527527e-01</leafValues></_>
    <_>
      <internalNodes>
        0 -1 146081 1.1686911806464195e-02</internalNodes>
      <leafValues>
        1.3584813475608826e-01 -3.7345874309539795e-01</leafValues></_>
    <_>
      <internalNodes>
        0 -1 129642 3.0981119722127914e-02</internalNodes>
      <leafValues>
        1.1630585789680481e-01 -9.3585366010665894e-01</leafValues></_>
    <_>
      <internalNodes>
        0 -1 31127 -2.5776063557714224e-03</internalNodes>
      <leafValues>
        3.1798434257507324e-01 -1.9378586113452911e-01</leafValues></_>
    <_>
      <internalNodes>
        0 -1 60746 4.2135324329137802e-02</internalNodes>
      <leafValues>
        1.6086180508136749e-01 -3.5379880666732788e-01</leafValues></_>
    <_>
      <internalNodes>
        0 -1 96079 7.6959263533353806e-03</internalNodes>
      <leafValues>
        -1.4363212883472443e-01 5.0387930870056152e-01</leafValues></_>
    <_>
      <internalNodes>
        0 -1 103760 -1.2404099106788635e-02</internalNodes>
      <leafValues>
        -5.4122042655944824e-01 1.2373716384172440e-01</leafValues></_>
    <_>
      <internalNodes>
        0 -1 102425 6.7109293304383755e-03</internalNodes>
      <leafValues>
        1.8791261315345764e-01 -3.2551124691963196e-01</leafValues></_>
    <_>
      <internalNodes>
        0 -1 133627 -1.1285770684480667e-02</internalNodes>
      <leafValues>
        -5.2014273405075073e-01 9.2747591435909271e-02</leafValues></_>
    <_>
      <internalNodes>
        0 -1 154420 5.9192501939833164e-03</internalNodes>
      <leafValues>
        -1.3263107836246490e-01 4.3307703733444214e-01</leafValues></_>
    <_>
      <internalNodes>
        0 -1 120707 8.3866796921938658e-04</internalNodes>
      <leafValues>
        2.1445170044898987e-01 -2.5122481584548950e-01</leafValues></_>
    <_>
      <internalNodes>
        0 -1 121001 3.6801308393478394e-02</internalNodes>
      <leafValues>
        -1.0815680772066116e-01 6.5035867691040039e-01</leafValues></_>
    <_>
      <internalNodes>
        0 -1 25261 1.1840897786896676e-04</internalNodes>
      <leafValues>
        -1.7468854784965515e-01 3.3259895443916321e-01</leafValues></_>
    <_>
      <internalNodes>
        0 -1 26865 5.4301721975207329e-03</internalNodes>
      <leafValues>
        -1.5247076749801636e-01 3.9583528041839600e-01</leafValues></_>
    <_>
      <internalNodes>
        0 -1 20072 -6.5284065902233124e-02</internalNodes>
      <leafValues>
        -5.9642504900693893e-02 8.5301208496093750e-01</leafValues></_>
    <_>
      <internalNodes>
        0 -1 137701 -1.6018328070640564e-01</internalNodes>
      <leafValues>
        1.7537431418895721e-01 -3.1509080529212952e-01</leafValues></_>
    <_>
      <internalNodes>
        0 -1 152522 -1.2373268604278564e-01</internalNodes>
      <leafValues>
        -5.2252179384231567e-01 1.0759137570858002e-01</leafValues></_>
    <_>
      <internalNodes>
        0 -1 93134 -6.5016985172405839e-04</internalNodes>
      <leafValues>
        2.5162264704704285e-01 -2.1856030821800232e-01</leafValues></_>
    <_>
      <internalNodes>
        0 -1 70474 -1.0718086268752813e-03</internalNodes>
      <leafValues>
        2.9490253329277039e-01 -1.8210463225841522e-01</leafValues></_>
    <_>
      <internalNodes>
        0 -1 159733 7.9589677625335753e-05</internalNodes>
      <leafValues>
        -1.9263027608394623e-01 2.4945612251758575e-01</leafValues></_>
    <_>
      <internalNodes>
        0 -1 142829 -1.4409627765417099e-03</internalNodes>
      <leafValues>
        3.8045856356620789e-01 -1.3809300959110260e-01</leafValues></_>
    <_>
      <internalNodes>
        0 -1 161859 1.5518895816057920e-03</internalNodes>
      <leafValues>
        -1.5610519051551819e-01 2.9827779531478882e-01</leafValues></_>
    <_>
      <internalNodes>
        0 -1 118471 -2.5045551359653473e-02</internalNodes>
      <leafValues>
        -9.3284881114959717e-01 5.3521256893873215e-02</leafValues></_>
    <_>
      <internalNodes>
        0 -1 142181 -1.1501491069793701e-02</internalNodes>
      <leafValues>
        7.4502843618392944e-01 -8.5257701575756073e-02</leafValues></_>
    <_>
      <internalNodes>
        0 -1 11686 -1.8274185061454773e-01</internalNodes>
      <leafValues>
        -4.3231643736362457e-02 8.8284319639205933e-01</leafValues></_>
    <_>
      <internalNodes>
        0 -1 97743 -5.7995626702904701e-03</internalNodes>
      <leafValues>
        -4.4203883409500122e-01 1.2027379125356674e-01</leafValues></_>
    <_>
      <internalNodes>
        0 -1 25084 -2.1386516094207764e-01</internalNodes>
      <leafValues>
        3.5848236083984375e-01 -1.5992711484432220e-01</leafValues></_>
    <_>
      <internalNodes>
        0 -1 159710 1.3211420737206936e-03</internalNodes>
      <leafValues>
        -1.4177030324935913e-01 3.9554822444915771e-01</leafValues></_>
    <_>
      <internalNodes>
        0 -1 32449 1.0941406711935997e-02</internalNodes>
      <leafValues>
        6.7595079541206360e-02 -7.4341917037963867e-01</leafValues></_></weakClassifiers></stage7>
</opencv_storage>
