<?xml version="1.0"?>
<opencv_storage>
<stage12>
  <maxWeakCount>15</maxWeakCount>
  <stageThreshold>-1.5351529121398926e+00</stageThreshold>
  <weakClassifiers>
    <_>
      <internalNodes>
        0 -1 5487 3.7944000214338303e-02</internalNodes>
      <leafValues>
        -7.9819822311401367e-01 6.0000002384185791e-01</leafValues></_>
    <_>
      <internalNodes>
        0 -1 109176 7.0071951486170292e-03</internalNodes>
      <leafValues>
        -3.7843301892280579e-01 2.5975236296653748e-01</leafValues></_>
    <_>
      <internalNodes>
        0 -1 79159 3.9089270867407322e-03</internalNodes>
      <leafValues>
        8.4814757108688354e-02 -5.4740297794342041e-01</leafValues></_>
    <_>
      <internalNodes>
        0 -1 127397 -2.6742874179035425e-03</internalNodes>
      <leafValues>
        2.0910148322582245e-01 -2.8333213925361633e-01</leafValues></_>
    <_>
      <internalNodes>
        0 -1 88858 -3.3220984041690826e-02</internalNodes>
      <leafValues>
        -6.7213445901870728e-01 1.0474179685115814e-01</leafValues></_>
    <_>
      <internalNodes>
        0 -1 13343 -1.3599501550197601e-01</internalNodes>
      <leafValues>
        2.6232573390007019e-01 -2.8579673171043396e-01</leafValues></_>
    <_>
      <internalNodes>
        0 -1 36646 -2.1790780592709780e-03</internalNodes>
      <leafValues>
        -3.3281451463699341e-01 1.7769901454448700e-01</leafValues></_>
    <_>
      <internalNodes>
        0 -1 123238 3.6735325120389462e-03</internalNodes>
      <leafValues>
        1.7010770738124847e-01 -3.3355462551116943e-01</leafValues></_>
    <_>
      <internalNodes>
        0 -1 156291 8.0415448173880577e-03</internalNodes>
      <leafValues>
        1.2732127308845520e-01 -6.1206316947937012e-01</leafValues></_>
    <_>
      <internalNodes>
        0 -1 116412 5.7868342846632004e-03</internalNodes>
      <leafValues>
        -3.2131004333496094e-01 1.9074289500713348e-01</leafValues></_>
    <_>
      <internalNodes>
        0 -1 61685 -4.1166234761476517e-02</internalNodes>
      <leafValues>
        7.0222282409667969e-01 -1.0740802437067032e-01</leafValues></_>
    <_>
      <internalNodes>
        0 -1 105435 -2.1212710998952389e-03</internalNodes>
      <leafValues>
        -5.7234102487564087e-01 1.2468473613262177e-01</leafValues></_>
    <_>
      <internalNodes>
        0 -1 102740 -6.3575685024261475e-02</internalNodes>
      <leafValues>
        -3.1981530785560608e-01 2.0366309583187103e-01</leafValues></_>
    <_>
      <internalNodes>
        0 -1 110209 -1.3203728944063187e-02</internalNodes>
      <leafValues>
        4.9784785509109497e-01 -1.4813968539237976e-01</leafValues></_>
    <_>
      <internalNodes>
        0 -1 148207 -1.0068421252071857e-03</internalNodes>
      <leafValues>
        3.0859419703483582e-01 -2.1809929609298706e-01</leafValues></_></weakClassifiers></stage12>
</opencv_storage>
