<?xml version="1.0"?>
<opencv_storage>
<stage2>
  <maxWeakCount>29</maxWeakCount>
  <stageThreshold>-1.0618245601654053e+00</stageThreshold>
  <weakClassifiers>
    <_>
      <internalNodes>
        0 -1 14397 -1.8235537409782410e-01</internalNodes>
      <leafValues>
        -6.3963961601257324e-01 1.2185686826705933e-01</leafValues></_>
    <_>
      <internalNodes>
        0 -1 144197 1.0203073179582134e-04</internalNodes>
      <leafValues>
        -3.1520190834999084e-01 2.4515715241432190e-01</leafValues></_>
    <_>
      <internalNodes>
        0 -1 2870 3.9872862398624420e-03</internalNodes>
      <leafValues>
        -3.0067634582519531e-01 2.5137951970100403e-01</leafValues></_>
    <_>
      <internalNodes>
        0 -1 118664 -7.9111084342002869e-03</internalNodes>
      <leafValues>
        6.5295445919036865e-01 -9.2260673642158508e-02</leafValues></_>
    <_>
      <internalNodes>
        0 -1 53951 6.5671518445014954e-02</internalNodes>
      <leafValues>
        6.6779978573322296e-02 -9.2300015687942505e-01</leafValues></_>
    <_>
      <internalNodes>
        0 -1 89129 -6.0323164798319340e-03</internalNodes>
      <leafValues>
        -6.4144665002822876e-01 8.4096342325210571e-02</leafValues></_>
    <_>
      <internalNodes>
        0 -1 131165 -4.3584108352661133e-03</internalNodes>
      <leafValues>
        -6.1874669790267944e-01 1.2762862443923950e-01</leafValues></_>
    <_>
      <internalNodes>
        0 -1 132319 -8.3163968520238996e-04</internalNodes>
      <leafValues>
        3.7753218412399292e-01 -1.7840772867202759e-01</leafValues></_>
    <_>
      <internalNodes>
        0 -1 149698 3.1105154193937778e-03</internalNodes>
      <leafValues>
        7.3175214231014252e-02 -8.1910377740859985e-01</leafValues></_>
    <_>
      <internalNodes>
        0 -1 152617 4.0133309084922075e-04</internalNodes>
      <leafValues>
        -3.2298234105110168e-01 2.2034023702144623e-01</leafValues></_>
    <_>
      <internalNodes>
        0 -1 125514 5.5537042208015919e-03</internalNodes>
      <leafValues>
        4.7555044293403625e-02 -9.3504244089126587e-01</leafValues></_>
    <_>
      <internalNodes>
        0 -1 113352 6.8688467144966125e-03</internalNodes>
      <leafValues>
        -1.1247833073139191e-01 7.7734732627868652e-01</leafValues></_>
    <_>
      <internalNodes>
        0 -1 47685 5.6821135804057121e-03</internalNodes>
      <leafValues>
        1.4566470682621002e-01 -6.2785422801971436e-01</leafValues></_>
    <_>
      <internalNodes>
        0 -1 135627 1.4518351526930928e-03</internalNodes>
      <leafValues>
        1.8464623391628265e-01 -3.7229174375534058e-01</leafValues></_>
    <_>
      <internalNodes>
        0 -1 128021 9.9942646920681000e-03</internalNodes>
      <leafValues>
        -1.1304049938917160e-01 7.1228110790252686e-01</leafValues></_>
    <_>
      <internalNodes>
        0 -1 78672 -1.5025322791188955e-03</internalNodes>
      <leafValues>
        -5.0479054450988770e-01 1.4585967361927032e-01</leafValues></_>
    <_>
      <internalNodes>
        0 -1 77072 1.1174349114298820e-02</internalNodes>
      <leafValues>
        9.3181997537612915e-02 -6.4959299564361572e-01</leafValues></_>
    <_>
      <internalNodes>
        0 -1 44965 -1.3416857109405100e-04</internalNodes>
      <leafValues>
        3.0216413736343384e-01 -2.3180845379829407e-01</leafValues></_>
    <_>
      <internalNodes>
        0 -1 73273 5.1353294111322612e-05</internalNodes>
      <leafValues>
        -2.8788557648658752e-01 2.3053638637065887e-01</leafValues></_>
    <_>
      <internalNodes>
        0 -1 117417 6.7631695419549942e-03</internalNodes>
      <leafValues>
        1.5083833038806915e-01 -5.6760245561599731e-01</leafValues></_>
    <_>
      <internalNodes>
        0 -1 56125 9.9995825439691544e-03</internalNodes>
      <leafValues>
        -2.2177599370479584e-01 3.2699650526046753e-01</leafValues></_>
    <_>
      <internalNodes>
        0 -1 87777 -2.8095833957195282e-02</internalNodes>
      <leafValues>
        -6.4106839895248413e-01 1.2771429121494293e-01</leafValues></_>
    <_>
      <internalNodes>
        0 -1 149605 7.3847651947289705e-04</internalNodes>
      <leafValues>
        -3.2269921898841858e-01 2.4257576465606689e-01</leafValues></_>
    <_>
      <internalNodes>
        0 -1 93474 9.2587750405073166e-03</internalNodes>
      <leafValues>
        1.6991233825683594e-01 -4.6320164203643799e-01</leafValues></_>
    <_>
      <internalNodes>
        0 -1 75341 1.7997818067669868e-02</internalNodes>
      <leafValues>
        9.1811843216419220e-02 -7.3502999544143677e-01</leafValues></_>
    <_>
      <internalNodes>
        0 -1 161920 5.8161756023764610e-03</internalNodes>
      <leafValues>
        -1.1887118220329285e-01 7.3067551851272583e-01</leafValues></_>
    <_>
      <internalNodes>
        0 -1 148538 3.3905603922903538e-03</internalNodes>
      <leafValues>
        -2.1939337253570557e-01 3.1181669235229492e-01</leafValues></_>
    <_>
      <internalNodes>
        0 -1 89945 -4.0610440075397491e-02</internalNodes>
      <leafValues>
        8.2590043544769287e-01 -7.9522863030433655e-02</leafValues></_>
    <_>
      <internalNodes>
        0 -1 132750 -5.2505623549222946e-02</internalNodes>
      <leafValues>
        5.3735762834548950e-01 -1.1739641427993774e-01</leafValues></_></weakClassifiers></stage2>
</opencv_storage>
