<?xml version="1.0"?>
<opencv_storage>
<stage1>
  <maxWeakCount>9</maxWeakCount>
  <stageThreshold>-1.5561728477478027e+00</stageThreshold>
  <weakClassifiers>
    <_>
      <internalNodes>
        0 -1 3264 -6.9222584366798401e-02</internalNodes>
      <leafValues>
        4.0740740299224854e-01 -8.1518757343292236e-01</leafValues></_>
    <_>
      <internalNodes>
        0 -1 14324 6.4465746283531189e-02</internalNodes>
      <leafValues>
        -6.1940681934356689e-01 1.5927638113498688e-01</leafValues></_>
    <_>
      <internalNodes>
        0 -1 133619 -2.8357133269309998e-02</internalNodes>
      <leafValues>
        -6.5854179859161377e-01 1.9348731637001038e-01</leafValues></_>
    <_>
      <internalNodes>
        0 -1 15979 5.7940301485359669e-04</internalNodes>
      <leafValues>
        -4.4467100501060486e-01 2.4976783990859985e-01</leafValues></_>
    <_>
      <internalNodes>
        0 -1 159402 3.3125365152955055e-03</internalNodes>
      <leafValues>
        -3.1984335184097290e-01 4.1182526946067810e-01</leafValues></_>
    <_>
      <internalNodes>
        0 -1 139614 7.1714678779244423e-03</internalNodes>
      <leafValues>
        -3.2398182153701782e-01 3.4698331356048584e-01</leafValues></_>
    <_>
      <internalNodes>
        0 -1 118675 -1.8817507661879063e-03</internalNodes>
      <leafValues>
        -7.5653046369552612e-01 1.4351017773151398e-01</leafValues></_>
    <_>
      <internalNodes>
        0 -1 111212 1.8292706459760666e-02</internalNodes>
      <leafValues>
        1.4099816977977753e-01 -7.3804533481597900e-01</leafValues></_>
    <_>
      <internalNodes>
        0 -1 120749 -1.1076454538851976e-03</internalNodes>
      <leafValues>
        -8.1636458635330200e-01 9.6904605627059937e-02</leafValues></_></weakClassifiers></stage1>
</opencv_storage>
