<?xml version="1.0"?>
<opencv_storage>
<stage0>
  <maxWeakCount>17</maxWeakCount>
  <stageThreshold>-1.0716882944107056e+00</stageThreshold>
  <weakClassifiers>
    <_>
      <internalNodes>
        0 -1 81461 -1.0107209682464600e+00</internalNodes>
      <leafValues>
        -8.6597937345504761e-01 2.7439024299383163e-02</leafValues></_>
    <_>
      <internalNodes>
        0 -1 152381 -1.7554583027958870e-02</internalNodes>
      <leafValues>
        2.0027704536914825e-01 -7.7871006727218628e-01</leafValues></_>
    <_>
      <internalNodes>
        0 -1 134061 1.7483688425272703e-03</internalNodes>
      <leafValues>
        -4.8322790861129761e-01 2.3342466354370117e-01</leafValues></_>
    <_>
      <internalNodes>
        0 -1 122630 -4.0656026452779770e-02</internalNodes>
      <leafValues>
        -8.1429028511047363e-01 1.9528944790363312e-01</leafValues></_>
    <_>
      <internalNodes>
        0 -1 152098 5.9949081391096115e-02</internalNodes>
      <leafValues>
        -2.2893650829792023e-01 8.0663383007049561e-01</leafValues></_>
    <_>
      <internalNodes>
        0 -1 106962 -7.0562269538640976e-03</internalNodes>
      <leafValues>
        2.0864325761795044e-01 -7.6220190525054932e-01</leafValues></_>
    <_>
      <internalNodes>
        0 -1 152096 -4.6949755400419235e-02</internalNodes>
      <leafValues>
        7.7623337507247925e-01 -1.7457778751850128e-01</leafValues></_>
    <_>
      <internalNodes>
        0 -1 159571 1.2898587156087160e-03</internalNodes>
      <leafValues>
        2.2129440307617188e-01 -5.3977668285369873e-01</leafValues></_>
    <_>
      <internalNodes>
        0 -1 157106 -8.9227221906185150e-04</internalNodes>
      <leafValues>
        -5.4799026250839233e-01 1.9437183439731598e-01</leafValues></_>
    <_>
      <internalNodes>
        0 -1 157106 1.7248617950826883e-03</internalNodes>
      <leafValues>
        5.5650107562541962e-02 -8.1239837408065796e-01</leafValues></_>
    <_>
      <internalNodes>
        0 -1 14238 8.3756521344184875e-03</internalNodes>
      <leafValues>
        -3.4475561976432800e-01 3.0909880995750427e-01</leafValues></_>
    <_>
      <internalNodes>
        0 -1 63763 -4.2581498622894287e-02</internalNodes>
      <leafValues>
        7.5691217184066772e-01 -1.1405308544635773e-01</leafValues></_>
    <_>
      <internalNodes>
        0 -1 121237 1.4351992867887020e-03</internalNodes>
      <leafValues>
        1.8887929618358612e-01 -6.0997611284255981e-01</leafValues></_>
    <_>
      <internalNodes>
        0 -1 105498 5.4090279154479504e-03</internalNodes>
      <leafValues>
        1.0041738301515579e-01 -7.7833801507949829e-01</leafValues></_>
    <_>
      <internalNodes>
        0 -1 99326 -1.3876283774152398e-03</internalNodes>
      <leafValues>
        7.0028461515903473e-02 -9.8395651578903198e-01</leafValues></_>
    <_>
      <internalNodes>
        0 -1 85135 -1.3015513541176915e-03</internalNodes>
      <leafValues>
        -4.4071513414382935e-01 2.2590184211730957e-01</leafValues></_>
    <_>
      <internalNodes>
        0 -1 106542 -9.8153725266456604e-02</internalNodes>
      <leafValues>
        -8.3466458320617676e-01 1.2033593654632568e-01</leafValues></_></weakClassifiers></stage0>
</opencv_storage>
