<?xml version="1.0"?>
<opencv_storage>
<stage8>
  <maxWeakCount>15</maxWeakCount>
  <stageThreshold>-1.5623160600662231e+00</stageThreshold>
  <weakClassifiers>
    <_>
      <internalNodes>
        0 -1 72244 -6.5573647618293762e-02</internalNodes>
      <leafValues>
        4.1176471114158630e-01 -8.0417042970657349e-01</leafValues></_>
    <_>
      <internalNodes>
        0 -1 53 4.3312743306159973e-02</internalNodes>
      <leafValues>
        -3.6364564299583435e-01 3.7518310546875000e-01</leafValues></_>
    <_>
      <internalNodes>
        0 -1 131091 6.3304556533694267e-03</internalNodes>
      <leafValues>
        6.1796724796295166e-02 -8.7774121761322021e-01</leafValues></_>
    <_>
      <internalNodes>
        0 -1 41255 -1.9196517765522003e-02</internalNodes>
      <leafValues>
        -6.9437354803085327e-01 1.0511115193367004e-01</leafValues></_>
    <_>
      <internalNodes>
        0 -1 4792 1.2877169065177441e-03</internalNodes>
      <leafValues>
        -3.5528808832168579e-01 2.0805583894252777e-01</leafValues></_>
    <_>
      <internalNodes>
        0 -1 6785 -1.0088959243148565e-03</internalNodes>
      <leafValues>
        2.1885512769222260e-01 -2.9093843698501587e-01</leafValues></_>
    <_>
      <internalNodes>
        0 -1 92237 4.0572760626673698e-03</internalNodes>
      <leafValues>
        1.3671866059303284e-01 -5.5954986810684204e-01</leafValues></_>
    <_>
      <internalNodes>
        0 -1 22140 3.9818690856918693e-04</internalNodes>
      <leafValues>
        -2.4103453755378723e-01 3.3219125866889954e-01</leafValues></_>
    <_>
      <internalNodes>
        0 -1 76286 4.3590306304395199e-03</internalNodes>
      <leafValues>
        -1.3033275306224823e-01 5.1435333490371704e-01</leafValues></_>
    <_>
      <internalNodes>
        0 -1 80471 -5.2761699771508574e-04</internalNodes>
      <leafValues>
        2.8446650505065918e-01 -2.1787194907665253e-01</leafValues></_>
    <_>
      <internalNodes>
        0 -1 134427 -4.6831004321575165e-02</internalNodes>
      <leafValues>
        -7.8780376911163330e-01 6.6628359258174896e-02</leafValues></_>
    <_>
      <internalNodes>
        0 -1 129253 -6.4240884967148304e-03</internalNodes>
      <leafValues>
        2.7303901314735413e-01 -2.4967975914478302e-01</leafValues></_>
    <_>
      <internalNodes>
        0 -1 150229 2.9839610680937767e-02</internalNodes>
      <leafValues>
        -2.1965113282203674e-01 3.7161749601364136e-01</leafValues></_>
    <_>
      <internalNodes>
        0 -1 16311 3.9666024968028069e-03</internalNodes>
      <leafValues>
        -1.3389272987842560e-01 4.9849227070808411e-01</leafValues></_>
    <_>
      <internalNodes>
        0 -1 34710 4.3406905606389046e-03</internalNodes>
      <leafValues>
        1.2383978068828583e-01 -5.9697711467742920e-01</leafValues></_></weakClassifiers></stage8>
</opencv_storage>
