<?xml version="1.0"?>
<opencv_storage>
<stage2>
  <maxWeakCount>12</maxWeakCount>
  <stageThreshold>-1.4453579187393188e+00</stageThreshold>
  <weakClassifiers>
    <_>
      <internalNodes>
        0 -1 162136 3.6067806184291840e-02</internalNodes>
      <leafValues>
        -8.2986766099929810e-01 -3.2258063554763794e-02</leafValues></_>
    <_>
      <internalNodes>
        0 -1 114420 -1.8755109980702400e-02</internalNodes>
      <leafValues>
        -8.0724978446960449e-01 -3.8201648741960526e-02</leafValues></_>
    <_>
      <internalNodes>
        0 -1 57215 -2.5178720243275166e-03</internalNodes>
      <leafValues>
        4.9282121658325195e-01 -2.9321411252021790e-01</leafValues></_>
    <_>
      <internalNodes>
        0 -1 63643 -4.8843991011381149e-02</internalNodes>
      <leafValues>
        -9.1270172595977783e-01 1.4183826744556427e-01</leafValues></_>
    <_>
      <internalNodes>
        0 -1 62378 6.4046243205666542e-03</internalNodes>
      <leafValues>
        -3.9187270402908325e-01 3.5347211360931396e-01</leafValues></_>
    <_>
      <internalNodes>
        0 -1 73074 -1.0675103403627872e-03</internalNodes>
      <leafValues>
        4.1672930121421814e-01 -3.1017169356346130e-01</leafValues></_>
    <_>
      <internalNodes>
        0 -1 18065 -1.2490734457969666e-02</internalNodes>
      <leafValues>
        7.2729623317718506e-01 -1.4355960488319397e-01</leafValues></_>
    <_>
      <internalNodes>
        0 -1 99913 6.5395906567573547e-03</internalNodes>
      <leafValues>
        -3.7611326575279236e-01 3.3257412910461426e-01</leafValues></_>
    <_>
      <internalNodes>
        0 -1 152446 -2.1710474975407124e-03</internalNodes>
      <leafValues>
        4.1959723830223083e-01 -2.8122007846832275e-01</leafValues></_>
    <_>
      <internalNodes>
        0 -1 158497 2.2073607891798019e-02</internalNodes>
      <leafValues>
        -2.7212804555892944e-01 5.0804865360260010e-01</leafValues></_>
    <_>
      <internalNodes>
        0 -1 56202 -6.4041696488857269e-02</internalNodes>
      <leafValues>
        -3.4372434020042419e-01 3.3725857734680176e-01</leafValues></_>
    <_>
      <internalNodes>
        0 -1 130536 -1.3262878637760878e-03</internalNodes>
      <leafValues>
        5.4581475257873535e-01 -2.2281008958816528e-01</leafValues></_></weakClassifiers></stage2>
</opencv_storage>
