<?xml version="1.0"?>
<opencv_storage>
<stage15>
  <maxWeakCount>16</maxWeakCount>
  <stageThreshold>-1.5745441913604736e+00</stageThreshold>
  <weakClassifiers>
    <_>
      <internalNodes>
        0 -1 109433 -1.0901356115937233e-02</internalNodes>
      <leafValues>
        1. -7.9856115579605103e-01</leafValues></_>
    <_>
      <internalNodes>
        0 -1 140503 -2.9582399874925613e-03</internalNodes>
      <leafValues>
        -7.5080984830856323e-01 -1.2901790440082550e-01</leafValues></_>
    <_>
      <internalNodes>
        0 -1 62598 -2.3593511432409286e-02</internalNodes>
      <leafValues>
        -2.9204416275024414e-01 2.0918715000152588e-01</leafValues></_>
    <_>
      <internalNodes>
        0 -1 162136 3.6287046968936920e-02</internalNodes>
      <leafValues>
        -1.1409670859575272e-01 5.3326356410980225e-01</leafValues></_>
    <_>
      <internalNodes>
        0 -1 161822 1.2693268945440650e-04</internalNodes>
      <leafValues>
        3.1237444281578064e-01 -2.6163187623023987e-01</leafValues></_>
    <_>
      <internalNodes>
        0 -1 103627 8.2253385335206985e-03</internalNodes>
      <leafValues>
        -1.0590045154094696e-01 7.7078860998153687e-01</leafValues></_>
    <_>
      <internalNodes>
        0 -1 137634 2.4174959398806095e-03</internalNodes>
      <leafValues>
        -1.5442349016666412e-01 4.3008586764335632e-01</leafValues></_>
    <_>
      <internalNodes>
        0 -1 49515 9.9457446485757828e-03</internalNodes>
      <leafValues>
        1.1371272057294846e-01 -8.0422407388687134e-01</leafValues></_>
    <_>
      <internalNodes>
        0 -1 86751 3.9803534746170044e-03</internalNodes>
      <leafValues>
        -1.9482526183128357e-01 4.1847792267799377e-01</leafValues></_>
    <_>
      <internalNodes>
        0 -1 159531 6.9054453633725643e-03</internalNodes>
      <leafValues>
        -1.5381680428981781e-01 4.8514321446418762e-01</leafValues></_>
    <_>
      <internalNodes>
        0 -1 70717 9.4532908406108618e-05</internalNodes>
      <leafValues>
        -2.8027471899986267e-01 2.6710245013237000e-01</leafValues></_>
    <_>
      <internalNodes>
        0 -1 98892 -2.2213442716747522e-03</internalNodes>
      <leafValues>
        -3.9596226811408997e-01 2.0460501313209534e-01</leafValues></_>
    <_>
      <internalNodes>
        0 -1 9487 -2.8543029911816120e-03</internalNodes>
      <leafValues>
        4.1163828969001770e-01 -2.4215127527713776e-01</leafValues></_>
    <_>
      <internalNodes>
        0 -1 34945 2.5334418751299381e-04</internalNodes>
      <leafValues>
        -2.8773459792137146e-01 3.6473947763442993e-01</leafValues></_>
    <_>
      <internalNodes>
        0 -1 25800 1.0964373126626015e-02</internalNodes>
      <leafValues>
        -1.0251345485448837e-01 8.0233794450759888e-01</leafValues></_>
    <_>
      <internalNodes>
        0 -1 92028 1.0927540279226378e-04</internalNodes>
      <leafValues>
        -3.3571702241897583e-01 2.3936499655246735e-01</leafValues></_></weakClassifiers></stage15>
</opencv_storage>
