<?xml version="1.0"?>
<opencv_storage>
<stage11>
  <maxWeakCount>38</maxWeakCount>
  <stageThreshold>-7.4311900138854980e-01</stageThreshold>
  <weakClassifiers>
    <_>
      <internalNodes>
        0 -1 62436 2.9656977858394384e-04</internalNodes>
      <leafValues>
        -4.3019944429397583e-01 2.0040080416947603e-03</leafValues></_>
    <_>
      <internalNodes>
        0 -1 113334 3.1596389599144459e-03</internalNodes>
      <leafValues>
        -9.1260656714439392e-02 4.9112188816070557e-01</leafValues></_>
    <_>
      <internalNodes>
        0 -1 119903 4.0546478703618050e-03</internalNodes>
      <leafValues>
        -1.0110247135162354e-01 4.1563177108764648e-01</leafValues></_>
    <_>
      <internalNodes>
        0 -1 121333 9.1460328549146652e-03</internalNodes>
      <leafValues>
        -9.6403703093528748e-02 4.1109961271286011e-01</leafValues></_>
    <_>
      <internalNodes>
        0 -1 153131 1.8395802471786737e-03</internalNodes>
      <leafValues>
        4.4117834419012070e-02 -7.4790859222412109e-01</leafValues></_>
    <_>
      <internalNodes>
        0 -1 126727 -3.2917436212301254e-02</internalNodes>
      <leafValues>
        -5.2120500802993774e-01 9.0249091386795044e-02</leafValues></_>
    <_>
      <internalNodes>
        0 -1 8901 -3.9230892434716225e-03</internalNodes>
      <leafValues>
        -7.3200201988220215e-01 6.5831921994686127e-02</leafValues></_>
    <_>
      <internalNodes>
        0 -1 157008 -2.3603902664035559e-03</internalNodes>
      <leafValues>
        -7.4951881170272827e-01 3.3933907747268677e-02</leafValues></_>
    <_>
      <internalNodes>
        0 -1 121804 1.0236296057701111e-01</internalNodes>
      <leafValues>
        5.2216611802577972e-02 -7.7145463228225708e-01</leafValues></_>
    <_>
      <internalNodes>
        0 -1 127091 2.2315403912216425e-03</internalNodes>
      <leafValues>
        -1.0245434194803238e-01 3.9679008722305298e-01</leafValues></_>
    <_>
      <internalNodes>
        0 -1 127091 -6.2139309011399746e-04</internalNodes>
      <leafValues>
        2.5842982530593872e-01 -1.6132368147373199e-01</leafValues></_>
    <_>
      <internalNodes>
        0 -1 31266 -9.7105448367074132e-04</internalNodes>
      <leafValues>
        2.3229394853115082e-01 -1.6965222358703613e-01</leafValues></_>
    <_>
      <internalNodes>
        0 -1 15482 4.6904329210519791e-02</internalNodes>
      <leafValues>
        -1.0515271872282028e-01 4.6792191267013550e-01</leafValues></_>
    <_>
      <internalNodes>
        0 -1 96895 -5.7685617357492447e-03</internalNodes>
      <leafValues>
        -6.7235422134399414e-01 6.8360857665538788e-02</leafValues></_>
    <_>
      <internalNodes>
        0 -1 138762 -5.3719757124781609e-04</internalNodes>
      <leafValues>
        3.0022326111793518e-01 -1.5358169376850128e-01</leafValues></_>
    <_>
      <internalNodes>
        0 -1 89459 6.5577542409300804e-04</internalNodes>
      <leafValues>
        1.4788153767585754e-01 -2.7007496356964111e-01</leafValues></_>
    <_>
      <internalNodes>
        0 -1 50576 5.3565576672554016e-02</internalNodes>
      <leafValues>
        5.0981786102056503e-02 -9.2020326852798462e-01</leafValues></_>
    <_>
      <internalNodes>
        0 -1 22674 2.7282575611025095e-03</internalNodes>
      <leafValues>
        3.4582883119583130e-02 -7.5302910804748535e-01</leafValues></_>
    <_>
      <internalNodes>
        0 -1 148818 1.7049303278326988e-03</internalNodes>
      <leafValues>
        -2.4627272784709930e-01 1.6057462990283966e-01</leafValues></_>
    <_>
      <internalNodes>
        0 -1 61148 -2.7568144723773003e-02</internalNodes>
      <leafValues>
        6.2545955181121826e-01 -7.6938122510910034e-02</leafValues></_>
    <_>
      <internalNodes>
        0 -1 154397 -6.4551993273198605e-04</internalNodes>
      <leafValues>
        2.2829025983810425e-01 -1.6983592510223389e-01</leafValues></_>
    <_>
      <internalNodes>
        0 -1 153737 1.7261626198887825e-03</internalNodes>
      <leafValues>
        6.4256936311721802e-02 -5.8197867870330811e-01</leafValues></_>
    <_>
      <internalNodes>
        0 -1 148871 2.1609766408801079e-03</internalNodes>
      <leafValues>
        4.8438563942909241e-02 -7.5178748369216919e-01</leafValues></_>
    <_>
      <internalNodes>
        0 -1 63702 -5.1535374950617552e-04</internalNodes>
      <leafValues>
        -3.2733958959579468e-01 1.2293763458728790e-01</leafValues></_>
    <_>
      <internalNodes>
        0 -1 70886 1.4231152832508087e-02</internalNodes>
      <leafValues>
        5.9067916125059128e-02 -6.5734618902206421e-01</leafValues></_>
    <_>
      <internalNodes>
        0 -1 25514 -1.3892117142677307e-01</internalNodes>
      <leafValues>
        -7.2797799110412598e-01 4.5694950968027115e-02</leafValues></_>
    <_>
      <internalNodes>
        0 -1 132633 -8.2812011241912842e-02</internalNodes>
      <leafValues>
        3.2862439751625061e-01 -1.3803853094577789e-01</leafValues></_>
    <_>
      <internalNodes>
        0 -1 101050 9.0033654123544693e-03</internalNodes>
      <leafValues>
        7.2764880955219269e-02 -5.5792087316513062e-01</leafValues></_>
    <_>
      <internalNodes>
        0 -1 58978 1.3570865616202354e-02</internalNodes>
      <leafValues>
        8.4388196468353271e-02 -4.5436036586761475e-01</leafValues></_>
    <_>
      <internalNodes>
        0 -1 142432 1.8279366195201874e-03</internalNodes>
      <leafValues>
        -1.4458532631397247e-01 2.6499703526496887e-01</leafValues></_>
    <_>
      <internalNodes>
        0 -1 9057 2.6541575789451599e-02</internalNodes>
      <leafValues>
        -8.9221909642219543e-02 5.3506666421890259e-01</leafValues></_>
    <_>
      <internalNodes>
        0 -1 85381 1.0496858158148825e-04</internalNodes>
      <leafValues>
        -1.8863955140113831e-01 2.2384506464004517e-01</leafValues></_>
    <_>
      <internalNodes>
        0 -1 142643 -6.1534466221928596e-03</internalNodes>
      <leafValues>
        4.1003257036209106e-01 -1.0080216079950333e-01</leafValues></_>
    <_>
      <internalNodes>
        0 -1 71775 3.0935469549149275e-03</internalNodes>
      <leafValues>
        -1.6960717737674713e-01 2.3428569734096527e-01</leafValues></_>
    <_>
      <internalNodes>
        0 -1 127808 -5.0369583070278168e-02</internalNodes>
      <leafValues>
        -5.4234552383422852e-01 8.2899607717990875e-02</leafValues></_>
    <_>
      <internalNodes>
        0 -1 160328 -1.4613647758960724e-01</internalNodes>
      <leafValues>
        3.6304455995559692e-01 -1.3859583437442780e-01</leafValues></_>
    <_>
      <internalNodes>
        0 -1 76328 -1.1492118239402771e-02</internalNodes>
      <leafValues>
        -1.6697555780410767e-01 3.2407820224761963e-01</leafValues></_>
    <_>
      <internalNodes>
        0 -1 122800 -9.2306464910507202e-02</internalNodes>
      <leafValues>
        4.2281487584114075e-01 -9.8542384803295135e-02</leafValues></_></weakClassifiers></stage11>
</opencv_storage>
