<?xml version="1.0"?>
<opencv_storage>
<stage17>
  <maxWeakCount>41</maxWeakCount>
  <stageThreshold>-7.9407608509063721e-01</stageThreshold>
  <weakClassifiers>
    <_>
      <internalNodes>
        0 -1 130890 -1.2054699473083019e-03</internalNodes>
      <leafValues>
        1.8348623812198639e-01 -3.0063292384147644e-01</leafValues></_>
    <_>
      <internalNodes>
        0 -1 141101 8.6128544062376022e-03</internalNodes>
      <leafValues>
        -1.1662348359823227e-01 3.9984464645385742e-01</leafValues></_>
    <_>
      <internalNodes>
        0 -1 75091 2.6699595618993044e-03</internalNodes>
      <leafValues>
        2.7997190132737160e-02 -8.6784744262695313e-01</leafValues></_>
    <_>
      <internalNodes>
        0 -1 3 -6.0306377708911896e-03</internalNodes>
      <leafValues>
        -2.0388969779014587e-01 2.0420406758785248e-01</leafValues></_>
    <_>
      <internalNodes>
        0 -1 39896 -1.3504125177860260e-02</internalNodes>
      <leafValues>
        7.4940335750579834e-01 -4.0387038141489029e-02</leafValues></_>
    <_>
      <internalNodes>
        0 -1 158839 -4.2786322534084320e-02</internalNodes>
      <leafValues>
        6.1125934123992920e-01 -6.3391655683517456e-02</leafValues></_>
    <_>
      <internalNodes>
        0 -1 159286 -1.8335245549678802e-03</internalNodes>
      <leafValues>
        -6.1718827486038208e-01 6.5972335636615753e-02</leafValues></_>
    <_>
      <internalNodes>
        0 -1 161649 2.8411014936864376e-03</internalNodes>
      <leafValues>
        -5.4022349417209625e-02 5.1752614974975586e-01</leafValues></_>
    <_>
      <internalNodes>
        0 -1 101101 -6.3542090356349945e-04</internalNodes>
      <leafValues>
        -3.4522104263305664e-01 1.3290631771087646e-01</leafValues></_>
    <_>
      <internalNodes>
        0 -1 69515 -9.0299709700047970e-04</internalNodes>
      <leafValues>
        -1.9249410927295685e-01 2.0055058598518372e-01</leafValues></_>
    <_>
      <internalNodes>
        0 -1 5845 -3.9197266101837158e-02</internalNodes>
      <leafValues>
        7.2258210182189941e-01 -6.8683959543704987e-02</leafValues></_>
    <_>
      <internalNodes>
        0 -1 146475 8.7042571976780891e-03</internalNodes>
      <leafValues>
        1.3023659586906433e-01 -3.3569687604904175e-01</leafValues></_>
    <_>
      <internalNodes>
        0 -1 63339 -4.7508388757705688e-02</internalNodes>
      <leafValues>
        -3.6375904083251953e-01 1.6215668618679047e-01</leafValues></_>
    <_>
      <internalNodes>
        0 -1 139466 -4.0777817368507385e-02</internalNodes>
      <leafValues>
        -4.5774292945861816e-01 9.1733627021312714e-02</leafValues></_>
    <_>
      <internalNodes>
        0 -1 25819 1.6755324322730303e-03</internalNodes>
      <leafValues>
        -1.3211101293563843e-01 3.7235325574874878e-01</leafValues></_>
    <_>
      <internalNodes>
        0 -1 63118 3.1568299164064229e-05</internalNodes>
      <leafValues>
        -2.8537142276763916e-01 1.6399839520454407e-01</leafValues></_>
    <_>
      <internalNodes>
        0 -1 55623 -1.9219517707824707e-02</internalNodes>
      <leafValues>
        -4.8143932223320007e-01 9.7602747380733490e-02</leafValues></_>
    <_>
      <internalNodes>
        0 -1 112495 -7.3920132126659155e-04</internalNodes>
      <leafValues>
        2.9504427313804626e-01 -1.5174676477909088e-01</leafValues></_>
    <_>
      <internalNodes>
        0 -1 25838 -7.1390061639249325e-03</internalNodes>
      <leafValues>
        -4.6110150218009949e-01 8.2495495676994324e-02</leafValues></_>
    <_>
      <internalNodes>
        0 -1 119895 -2.8359333518892527e-03</internalNodes>
      <leafValues>
        3.9139398932456970e-01 -1.1594311147928238e-01</leafValues></_>
    <_>
      <internalNodes>
        0 -1 102373 -3.3623978495597839e-02</internalNodes>
      <leafValues>
        -5.7155853509902954e-01 7.4765399098396301e-02</leafValues></_>
    <_>
      <internalNodes>
        0 -1 136154 -2.8070318512618542e-03</internalNodes>
      <leafValues>
        4.5425289869308472e-01 -1.0098000615835190e-01</leafValues></_>
    <_>
      <internalNodes>
        0 -1 124998 6.3253554981201887e-04</internalNodes>
      <leafValues>
        -2.7562317252159119e-01 1.7448720335960388e-01</leafValues></_>
    <_>
      <internalNodes>
        0 -1 151578 -1.0886770673096180e-02</internalNodes>
      <leafValues>
        -6.2823247909545898e-01 6.9308087229728699e-02</leafValues></_>
    <_>
      <internalNodes>
        0 -1 119502 -1.5430833213031292e-02</internalNodes>
      <leafValues>
        5.8597886562347412e-01 -7.9007796943187714e-02</leafValues></_>
    <_>
      <internalNodes>
        0 -1 130592 2.7164290077053010e-04</internalNodes>
      <leafValues>
        -1.6117306053638458e-01 2.5788646936416626e-01</leafValues></_>
    <_>
      <internalNodes>
        0 -1 122812 -2.3524321615695953e-02</internalNodes>
      <leafValues>
        5.1734441518783569e-01 -7.9190574586391449e-02</leafValues></_>
    <_>
      <internalNodes>
        0 -1 30957 -3.6402532714419067e-04</internalNodes>
      <leafValues>
        -3.4571871161460876e-01 1.3569520413875580e-01</leafValues></_>
    <_>
      <internalNodes>
        0 -1 36247 -2.5308752810815349e-05</internalNodes>
      <leafValues>
        2.8383621573448181e-01 -1.7253340780735016e-01</leafValues></_>
    <_>
      <internalNodes>
        0 -1 68702 3.2546306028962135e-03</internalNodes>
      <leafValues>
        -1.6878518462181091e-01 2.9206249117851257e-01</leafValues></_>
    <_>
      <internalNodes>
        0 -1 45077 -8.6497068405151367e-03</internalNodes>
      <leafValues>
        4.4535127282142639e-01 -1.1216070502996445e-01</leafValues></_>
    <_>
      <internalNodes>
        0 -1 24888 4.5474823564291000e-03</internalNodes>
      <leafValues>
        1.1521580815315247e-01 -4.0734812617301941e-01</leafValues></_>
    <_>
      <internalNodes>
        0 -1 157279 -1.0750978253781796e-03</internalNodes>
      <leafValues>
        3.1164357066154480e-01 -1.6636365652084351e-01</leafValues></_>
    <_>
      <internalNodes>
        0 -1 96243 -2.2070804610848427e-02</internalNodes>
      <leafValues>
        -4.1079723834991455e-01 1.2060856074094772e-01</leafValues></_>
    <_>
      <internalNodes>
        0 -1 23623 2.5870501995086670e-03</internalNodes>
      <leafValues>
        5.3867932409048080e-02 -7.5631797313690186e-01</leafValues></_>
    <_>
      <internalNodes>
        0 -1 25442 -2.0029096049256623e-04</internalNodes>
      <leafValues>
        2.5182759761810303e-01 -1.9866043329238892e-01</leafValues></_>
    <_>
      <internalNodes>
        0 -1 127327 -2.1906774491071701e-03</internalNodes>
      <leafValues>
        -2.8111580014228821e-01 1.6379673779010773e-01</leafValues></_>
    <_>
      <internalNodes>
        0 -1 24740 1.2667515547946095e-03</internalNodes>
      <leafValues>
        -1.5283656120300293e-01 3.4512555599212646e-01</leafValues></_>
    <_>
      <internalNodes>
        0 -1 114019 4.1003022342920303e-03</internalNodes>
      <leafValues>
        1.1093968152999878e-01 -4.5282459259033203e-01</leafValues></_>
    <_>
      <internalNodes>
        0 -1 142398 3.1130854040384293e-03</internalNodes>
      <leafValues>
        3.9210133254528046e-02 -8.8994330167770386e-01</leafValues></_>
    <_>
      <internalNodes>
        0 -1 94929 -8.9554321020841599e-03</internalNodes>
      <leafValues>
        5.3928369283676147e-01 -1.0460405796766281e-01</leafValues></_></weakClassifiers></stage17>
</opencv_storage>
