<?xml version="1.0"?>
<opencv_storage>
<stage7>
  <maxWeakCount>12</maxWeakCount>
  <stageThreshold>-1.4351562261581421e+00</stageThreshold>
  <weakClassifiers>
    <_>
      <internalNodes>
        0 -1 71780 -3.5132978111505508e-02</internalNodes>
      <leafValues>
        6.3636362552642822e-01 -7.9981964826583862e-01</leafValues></_>
    <_>
      <internalNodes>
        0 -1 103613 2.8996989130973816e-03</internalNodes>
      <leafValues>
        -3.9820599555969238e-01 2.7366921305656433e-01</leafValues></_>
    <_>
      <internalNodes>
        0 -1 106811 1.2861183495260775e-04</internalNodes>
      <leafValues>
        -4.7420907020568848e-01 1.5105909109115601e-01</leafValues></_>
    <_>
      <internalNodes>
        0 -1 108661 7.5998564716428518e-04</internalNodes>
      <leafValues>
        -3.8726323843002319e-01 2.0356300473213196e-01</leafValues></_>
    <_>
      <internalNodes>
        0 -1 108417 4.9208998680114746e-02</internalNodes>
      <leafValues>
        1.2509118020534515e-01 -8.4439313411712646e-01</leafValues></_>
    <_>
      <internalNodes>
        0 -1 88066 -8.3934608846902847e-04</internalNodes>
      <leafValues>
        2.2176927328109741e-01 -3.8685756921768188e-01</leafValues></_>
    <_>
      <internalNodes>
        0 -1 149649 2.7513033710420132e-03</internalNodes>
      <leafValues>
        -2.1344600617885590e-01 3.7168908119201660e-01</leafValues></_>
    <_>
      <internalNodes>
        0 -1 88161 -2.0830173045396805e-02</internalNodes>
      <leafValues>
        -5.9681856632232666e-01 1.4757080376148224e-01</leafValues></_>
    <_>
      <internalNodes>
        0 -1 71620 -3.6661262856796384e-04</internalNodes>
      <leafValues>
        -4.2797836661338806e-01 1.4676450192928314e-01</leafValues></_>
    <_>
      <internalNodes>
        0 -1 44850 5.2835997194051743e-03</internalNodes>
      <leafValues>
        -2.3335911333560944e-01 2.7923446893692017e-01</leafValues></_>
    <_>
      <internalNodes>
        0 -1 66885 1.0533089749515057e-02</internalNodes>
      <leafValues>
        7.8639373183250427e-02 -8.7494897842407227e-01</leafValues></_>
    <_>
      <internalNodes>
        0 -1 122515 -1.0908027179539204e-02</internalNodes>
      <leafValues>
        3.8766944408416748e-01 -1.9400654733181000e-01</leafValues></_></weakClassifiers></stage7>
</opencv_storage>
