<?xml version="1.0"?>
<opencv_storage>
<stage5>
  <maxWeakCount>13</maxWeakCount>
  <stageThreshold>-1.5225027799606323e+00</stageThreshold>
  <weakClassifiers>
    <_>
      <internalNodes>
        0 -1 161721 1.4425328001379967e-02</internalNodes>
      <leafValues>
        -8.1598514318466187e-01 -4.5454546809196472e-02</leafValues></_>
    <_>
      <internalNodes>
        0 -1 140004 -1.2017556000500917e-03</internalNodes>
      <leafValues>
        1.5577934682369232e-01 -4.6665981411933899e-01</leafValues></_>
    <_>
      <internalNodes>
        0 -1 9232 7.7253103256225586e-02</internalNodes>
      <leafValues>
        8.0737531185150146e-02 -9.1804015636444092e-01</leafValues></_>
    <_>
      <internalNodes>
        0 -1 161767 8.3773806691169739e-03</internalNodes>
      <leafValues>
        -1.4583170413970947e-01 5.3436839580535889e-01</leafValues></_>
    <_>
      <internalNodes>
        0 -1 63272 6.5746799111366272e-02</internalNodes>
      <leafValues>
        9.1637037694454193e-02 -1.</leafValues></_>
    <_>
      <internalNodes>
        0 -1 86599 1.7818408086895943e-02</internalNodes>
      <leafValues>
        1.4465770125389099e-01 -5.3494662046432495e-01</leafValues></_>
    <_>
      <internalNodes>
        0 -1 157549 7.1337139233946800e-03</internalNodes>
      <leafValues>
        -1.7044442892074585e-01 4.9951058626174927e-01</leafValues></_>
    <_>
      <internalNodes>
        0 -1 133937 4.8184995539486408e-03</internalNodes>
      <leafValues>
        -3.7151882052421570e-01 2.3779153823852539e-01</leafValues></_>
    <_>
      <internalNodes>
        0 -1 43011 7.8855436295270920e-03</internalNodes>
      <leafValues>
        -1.4260803163051605e-01 6.2825196981430054e-01</leafValues></_>
    <_>
      <internalNodes>
        0 -1 87317 -6.7351367324590683e-03</internalNodes>
      <leafValues>
        -7.7077430486679077e-01 1.1396678537130356e-01</leafValues></_>
    <_>
      <internalNodes>
        0 -1 16704 3.3087573945522308e-02</internalNodes>
      <leafValues>
        1.5285900235176086e-01 -5.4459112882614136e-01</leafValues></_>
    <_>
      <internalNodes>
        0 -1 131808 8.3762104623019695e-04</internalNodes>
      <leafValues>
        -2.4555385112762451e-01 3.6726769804954529e-01</leafValues></_>
    <_>
      <internalNodes>
        0 -1 143904 7.7218568185344338e-04</internalNodes>
      <leafValues>
        -2.4669952690601349e-01 3.7072759866714478e-01</leafValues></_></weakClassifiers></stage5>
</opencv_storage>
