<?xml version="1.0"?>
<opencv_storage>
<stage17>
  <maxWeakCount>10</maxWeakCount>
  <stageThreshold>-1.6452422142028809e+00</stageThreshold>
  <weakClassifiers>
    <_>
      <internalNodes>
        0 -1 130326 1.5110121108591557e-02</internalNodes>
      <leafValues>
        -8.2648402452468872e-01 1.</leafValues></_>
    <_>
      <internalNodes>
        0 -1 144716 -5.8140205219388008e-03</internalNodes>
      <leafValues>
        -5.3036803007125854e-01 5.3096079826354980e-01</leafValues></_>
    <_>
      <internalNodes>
        0 -1 12478 2.2624649573117495e-03</internalNodes>
      <leafValues>
        3.7765431404113770e-01 -5.3942227363586426e-01</leafValues></_>
    <_>
      <internalNodes>
        0 -1 13161 2.5861840695142746e-03</internalNodes>
      <leafValues>
        -3.1760051846504211e-01 6.2217903137207031e-01</leafValues></_>
    <_>
      <internalNodes>
        0 -1 125621 -1.2657719664275646e-02</internalNodes>
      <leafValues>
        -4.7339272499084473e-01 4.1967704892158508e-01</leafValues></_>
    <_>
      <internalNodes>
        0 -1 150538 4.2901671258732677e-04</internalNodes>
      <leafValues>
        5.9154534339904785e-01 -3.8099089264869690e-01</leafValues></_>
    <_>
      <internalNodes>
        0 -1 154338 -4.1914158500730991e-03</internalNodes>
      <leafValues>
        8.0481326580047607e-01 -2.8201937675476074e-01</leafValues></_>
    <_>
      <internalNodes>
        0 -1 71583 -2.1160728647373617e-04</internalNodes>
      <leafValues>
        5.3043425083160400e-01 -3.6586147546768188e-01</leafValues></_>
    <_>
      <internalNodes>
        0 -1 125060 -2.4841342121362686e-02</internalNodes>
      <leafValues>
        -3.7720265984535217e-01 5.7220709323883057e-01</leafValues></_>
    <_>
      <internalNodes>
        0 -1 108087 5.9622357366606593e-04</internalNodes>
      <leafValues>
        -3.1380191445350647e-01 7.0870369672775269e-01</leafValues></_></weakClassifiers></stage17>
</opencv_storage>
